[[[0.9741254039134547, 0.6991477097567949, 1.7059271869164903, 0.4884893021847403, 0.6108752967573103, 0.2333346364324318, -0.49459578312364666, 0.5978500905798553, 0.3233880208783689, -0.0945845241816326, 0.5910214582681436, 2.077101758618099, 1.4598534696032233, -1.583867346316672, 1.952899721094793, 0.7177118859363908, 0.2976942632901708, 0.2746305449936066, 2.118734873519733, 0.49734251778221295, -0.710740330094061, 1.0167499351051887, 1.1453684745027373, -1.3768742454442522, 0.6517948345091886, 1.3225715982330553, 0.021791439828413802, 0.9547565668485674, -0.6191271889585985, -2.05019314104233, 0.13245997534350817, -0.7866870396863044, 0.7623736170317841, -1.0134168429235475, -1.9217389408478818, 0.4045754130041312, 0.5082080866597958, -1.7521418143514964, -0.974302799684927, 0.17083075582318755, -0.9617154047579529, -1.6549603434200342, 0.42567803526814463, 0.7683847213547771, 0.966872033526711, -0.2521833512399665, -0.6031415662129878, -0.2984928547423145, -0.06584675491207784, 0.7660340138353021, 0.5931300391985411, 0.031210703540011594, -0.9531647074572654, 1.4585318620244445, -0.08869795351023584, 1.739849237246179, -0.25761317243342574, -0.579168466856268, -1.6632885413450351, -0.21432207888042107, 2.374299229967788, -0.3527491189544559, 0.9059317520763152, 0.5849998510668656, 0.7240559987903158, -0.20990847446322974, -0.9682531217619317, -0.7255034738705395, 0.40487282169898303, 0.8975782210042678, 2.3294981624488464, 0.22681597615263555, 0.14056613245701938, 0.6584711384392576, -0.29927099884203484, 0.57060718844424, 0.24092044128129222, 0.2878935009732218, 0.7746629222997145, 0.3261580236869359, 0.531822284175577, 0.5366620580723511, -1.1694798951809822, 1.9801678663263755, -0.04604299774700478, -0.8142729332181783, 0.2818169583157017, -1.4181880696366476, -0.10987693197176741, 1.8241220903220103, 0.4668682119300255, 0.004674613214664645, -0.9478514548546023, 0.38045593134774036, -0.9509543960801476, 0.7788621484702044, 1.1336022152507839, 1.18275134873761, -0.48529199018661684, -0.34372286508037675, -1.1075718174871767, -0.10084358798516808, -1.5294886707304256, 0.06059328181694234, 5.63114431301986E-4, 0.05466783747801829, -1.5738632706904172, -1.011711864437982, -0.09167534062527061, -0.7430312616660888, 0.19406817016831296, 0.3733889997959665, -1.970838595397587, -1.6023753868880637, 1.948112382744519, -0.019599233462731527, -1.7845823278320132, -0.04849845442328893, -2.782415619450141, -1.0236534066056133, -0.28809316937375357, -0.9040167737904705, 1.5185784959853312, 0.8652737334316876, 0.5599035424406801, 0.8444812931418741, -0.2737658419945136, -1.6821909948138514, 1.3806002373672157, -0.9202197108497839, -1.7435257655625946, -0.41312044710025725, -0.7066030738517224, -0.6165522610569788, -1.307823515258076, 0.8724465135877495, 0.7363225965893749, -1.2332353387252042, -1.2163399667901458, -1.4649716034676794, 0.144428060493591, 0.4048638008106615, 0.368980083032963, 0.2925977107585516, 0.5237894273423314, -1.9708969850747078, 0.47093863032700073, 1.546273306443236, -1.3716271067999124, -0.20272807388638492, 1.255756803597204, 1.90241089169997, 0.024097079000076866, 1.1332415718673463, 0.2845482734234284, -0.324504486733398, -0.8290162021469115, 0.7784731534142534, -1.1147287560580539, 0.3912097999007196, -0.6313210278827952, -0.8933965120282552, -0.49316783051307306, -2.780570968659819, -0.586975649451471, 0.6086815735697056, 0.23161655921020713, -0.15473490618018299, 1.7128838633353316, 0.5529140542311256, 0.6513381080801185, -0.5845017977874578, -1.3035354833690684, -0.026250580606125708, -0.11907459580351852, 0.9928827875236061, 0.7050646125124951, -0.7209740097159801, -1.7351383811599526, -1.4217440769502627, -2.079733851478875, 0.8605749583471121, 1.3389380761072567, -1.027304431022832, -0.4176799653831417, 1.3673872286145798, -0.047109138180327415, 1.5120768716278992, -0.07635989625304386, -0.5354098431251865, 0.10985775470051744, 0.10205892756075331, 0.8794294909288847, 1.0290260063229664, 2.4876030157261755, 0.6424900044091831, -0.6490012313481698, 0.9712201088538948, 0.08134795068787735, -1.8170761858439157, 0.16741956798049243, 1.4062704377458788, -0.22142687809421516, -1.1670943267950358, 0.059053988943899745, 0.5809134518498619, -0.6432508877756081, 0.06189692352701013, 0.3582221498466149, -0.33572296417508574, 1.0022589456410436, 1.0879012310147063, -0.17428858370716646, 0.9483853806572947, -1.666935577129666, -1.1289618099409884, 0.36203612314144035, -0.6388012049623557, -0.3458772201815177, -1.1004332406846318, -0.8907661793098024, -0.029308217355542388, 0.04049477187959469, -1.1669099883528835, -1.0457713391438697, 1.8084744734536604, 0.17155601494359388, 0.16430024968816684, 0.12502121704958427, -2.034703557454727, -0.783791355784753, 0.03468398908591541, -0.9717699869820656, 0.6008468375863145, 1.0298897391819248, -0.7543622043896601, 0.47679063526130544, 0.5710350117978048, -1.1898796393583444, -0.34554187816743687, 0.028504643546799092, -0.7286118336266183, -0.7538151946301216, -0.30821445000286424, -0.414318276899534, 0.10823628025555476, -2.325329800235799, 1.0958194910507704, 0.9322662365095261, 0.28191413039522106, 0.4192007954026698, -1.7631396107423143, 0.703981923273844, 0.7271254073288815, 0.3705838573889257, -0.6759022919187451, 0.24760888293693797, -0.9477315396107191, -1.3048072645565507, -1.608600612304457, -0.15099511479672126, -0.3655653151843878, 1.771395383261551, -0.6365131088739239, -0.07543770396884303, -0.9793429859488705, 1.8670418918576193, 2.088168624249309, -0.25876563121663954, 1.7323241253409913, 1.8694046015630827, -0.10178248239758372, -0.81589251228711, -0.9942395700303892, 0.9780615442687617, 0.9858062265369854, 0.7839698842948291, 0.37192407977628433, -0.10736763595759125, -1.5407973252924663, 0.3506965302108199, 0.560917027970668, -0.6811932633393813, 0.9880580162672311, -0.9337276583998272, -0.16660782258834192, 2.001216764980053, 1.3630378135262005, -0.7947794520553054, 0.21660428231934828, 1.2933003199970712, 0.9285167288384869, -1.407091493620485, 0.7333295757149266, -0.3164758938554411, -0.5434607274845709, -0.1786727989490456, -0.9514015172442611, -0.822390947555678, 0.274799328644049, -1.4203447244573253, 1.4072136371098596, 1.203413279473296, -0.8594790329107533, 0.43534262329611406, 1.0816290625484242, -1.4545683145547839, 1.1655786117887628, 0.9490605009367402, -2.19904338134884, 0.7228486364759426, -0.18597018386151232, 0.1034523493023216, 0.5791621923126651, 0.769780019170317, -0.476412397122441, 0.9811895575895423, -0.8391584206979045, -1.0019157655494846, -0.5953652211978727, 0.11140152959452079, 1.1356457048968045, 0.44559722518417494, 0.050579214835894754, 0.28072784065044476, 0.1926087523564471, 0.949342075678449, -2.526728630262699, -0.7938750855566906, -1.055506479799413, 1.0181426386568875, 0.9262216438944811, 1.509789671726694, -0.2516543102546548, 1.2856183386729871, 0.23219267290005074, -0.3754239644928137, 1.9926928140229767, 1.4148979988406358, 0.9756136284343927, -1.549303399818838, -0.32487861525641676, 0.232887638003034, -1.6491614250128301, -0.013053114953095482, -0.7473759711374113, -1.4697477248743325, 0.8113741409484224, -1.4189468570510297, 0.5470878587114866, 1.6247128121109748, 1.2709586818118432, -0.040345878461054356, 0.6249524795083913, 1.6600625019286817, -0.783139243805141, -0.7115786636579458, -0.8069754559977889, -0.4240783816037336, 2.1536247614081967, 0.1914368471847766, 0.22460530938360435, -0.903168789246002, -1.8603451768578272, -0.5723556331335695, -1.6735889759533962, -0.6598295937214308, 0.05468429403925406, -0.6896786845202996, -0.4474520344136265, 1.3455874588342034, 0.018377962172621203, 1.0832840094271485, -0.7379157389939994, -1.0980042091018012, 1.032537369928351, 1.4788033796545599, -0.594250669595985, -0.5843723118918436, 0.2699173144135898, 0.5466487975362996, 1.1888495259808867, -1.6324350441299254, 0.6572117039141466, 1.5099349415163477, -0.5532926873549303, 1.1437679750414753, -0.14163058259711844, -1.0823719220128516, 0.1648101796805658, 0.36395562295573486, 1.2042204150308817, 2.282392447689377, -0.10441303854779423, -2.692232804051518, -0.10929594268402165, 0.9137579604029736, -0.4886073742091032, 0.6507671281351063, -0.2666363457944214, 0.3861554778187708, -1.5652169480527356, 1.485658097346116, 0.7258164384557068, -0.885417112400506, -0.6532872671434797, -0.06011511925474969, -0.05249957195538719, -1.4993685492040913, -1.9341433928896237, 1.5051508834218366, -0.4572449545868272, -0.8455046245673469, -0.4197415372165575, 1.7036794586779858, 0.7045884523204846, -0.14230784288000148, 1.4883673268055355, -1.939764346649688, 1.2188048361356412, 0.6255461817681189, -0.5456615896586439, 0.4010491409804612, 1.2795085374298731, 1.290755867826939, -0.8617059249034619, -0.333863850281041, -1.9319866895711573, 1.2627714994742143, 1.0409718613485242, 0.08215689150124517, 0.09706939271775634, -1.1713320360385069, 1.5407976682534275, 0.2780538815792967, -1.2337899273666815, 0.4844396563923218, -1.314851457789124, 0.7470646839984812, -0.3675325285201583, 0.0626382819158843, 0.42928070337813895, 0.5640537878974794, -0.430379483406865, -1.1698929669720144, 2.1733897596087215, 0.3255907126484497, 1.8871688493140661, 0.07458983302694083, 0.7780205004110515, -1.2312896635387731, -0.9861073282257763, 1.0804236416138144, -0.03531690433802531, -0.3184466469567469, 1.0328789073843445, -0.28896791925286586, 1.3573027422473751, 0.5078624724970262, 0.18952692718927183, 1.3979699947214697, -1.0094875697203853, -0.4267336709178801, -1.0145956174716535, 0.9769337461036228, -0.2876052265393376, -0.6255172673433306, 0.6603666531991634, 0.8530691576389117, -1.1666876177473506, 0.1814049282684152, 0.5355715006784395, 0.6804495313659523, -0.3310989403015373, -1.8978805800236591, 0.6946175544701747, 0.390131899818775, 0.38134790874904195, -0.685271439451145, -0.5682154235754077, -1.168868570971207, -0.3416061876860768, -1.1349740439768232, 1.6719431152832052, 1.8963748869859824, 0.4412897253273169, 0.0712120897779596, -1.3994753125968808, 0.6444034730697255, 0.44872524967111094, 1.5765898662834184, 2.044760054628011, -0.8955092253299753, 1.6927704630498803, -1.45418101333454, -0.31952449576389547, -0.28724892853433504, -1.9382757026551742, 1.9813460419480946, 1.0901323803932554, 0.07229469667628564, 0.9089098415272797, 0.2498296098261645, 2.531874507367182, -0.16856261942011702, -1.1241765760950806, -0.27097165542937934, 0.6312951465987093, -0.9791681177700599, 1.0927986148920423, -1.0807871660854897, -0.08343194168421408, 2.4056459332502205, -0.48107866809065897, 1.5841751919432498, -0.16835416467795095, -1.1834538906932028, -0.9888001627730417, -0.780294228736627, -1.2765148963413953, -1.629531938924794, 0.026183025421493058, -0.05431048784706719, -0.25907585514865616, -1.098147217995637, -1.1485824333492922, -0.32927660310051693, 2.732472258229364, -1.1303386614560513, 0.19588595447774826, 1.0370489292143223, 1.3443541165708985, 0.5973133658457359, 0.16374158184678275, -0.5186574686312998, 0.08691391238673823, 1.1935613331116643, -1.3863882482591152, -0.05790704123698157, 0.006876915752937661, 0.44610133745091707, -0.1811123782423136, -1.2246000824060543, -1.5981018717096862, -1.6014317242014642, -0.509618584871858, 0.15529559588239097, -0.583745449274419, -0.669110263593985, -1.493221871739321, 2.2132460881838605, 0.21747177601218534, -0.07499891966910473, 0.47911185729404476, -0.0738389485837141, 0.9594605319245222, -0.15858300859609553, -0.018229814302639587, 0.6134988063260516, 0.3422551094904402, -0.4919484828246281, -1.2399920196855594, 0.38703032566027123, -0.5012579340966191, 2.1614482555540957, -0.9223305663456245, 1.3347272429384094, 1.3887347161356318, -0.6456987099354266, -0.7753254497038345, -0.31082446171330047, -1.081862512017048, -2.891487451455807, 0.9108246273176054, -2.518945619657602, 0.2535891621370707, -1.5124442632990025, -0.22205963097939582, -1.7341825036260794, -1.11294774905485, 1.6400512701229817, -0.07456200019399907, 0.9117500570822734, 0.07085939410048302, -1.261787162815712, 0.935577246151451, 2.389306475119001, -2.2341571154226534, 1.9010286461313362, -2.0498483587395615, 1.0793100608949913, 1.3550681162312999, 0.40363452675890477, 0.7171844374948724, 0.2601124062926695, 0.09117862993912948, 1.2730392317067272, -0.37497465649788425, 1.3901572629472279, -0.3371467195573177, -1.2471260001663385, 0.3263805760204014, -1.7131863280958342, -1.0681161413330045, -0.09890624311443237, -1.5182403130515287, -0.8120382150634771, -0.7986949942482704, -1.2362613563062645, -0.284356133795515, -0.356654418965302, -0.14488352199171384, 0.23742793516569932, 1.0916325134050795, -1.082156163954374, -1.9346495078899644, -1.5211573163860865, -1.6976698120762566, -0.3694923341759951, -1.027593369700073, -0.12010538351437047, -0.6337388991170181, 0.571774131038791, 0.8747722653899094, -1.7359472014435189, 0.05529733343743531, 0.2690784337983448, -0.9187073684300319, -0.1551856265968731, 1.1357205805473238, 0.3405156279216219, -3.1651339655800177, -1.682723444790161, -1.6319687759832102, 0.021557336823400264, -0.5380652300820508, -1.490931983474085, -1.0827014870824956, 0.6298609119595465, 0.9095301571846309, -0.0282407832770651, 1.4425082030854985, -0.7429494590024243, -0.8750669533448315, -1.0235290525889296, -0.20274721915771698, 1.857317804312203, -0.2528873611254949, -0.6539730080735711, -1.2144656385874903, -1.3587401011853815, 1.142067673534234, 0.6270951860795586, 0.7616983938850778, 0.05780958578551084, 0.8552538388158311, -0.5921666714711948, -0.18894158751273987, -0.8243427288952986, 1.3050736730166277, -0.30206119682962784, -1.2585055558965466, -0.2864213773369567, 1.3827747482144364, 0.014888699738428594, 0.012670097108479505, -0.7536765306470455, 0.577167594193976, -0.060995070844249176, -1.2306515131297069, -0.21228682803187482, 1.3761697482539397, 1.2838795588588416, -2.1884268146086874, 1.4506595054903022, -0.13902485793762473, 0.8157604063486271, 1.2232730950190265, -0.6426445870819578, 0.25415475185763087, -0.01995918167951305, 0.302886265455862, -1.4889490853631373, 0.5939168703260134, 1.0789281407932398, -0.28180795871752956, -0.2876340642416669, -0.2607024211025562, 1.4063976577696602, 0.5092055540344101, 1.2233842981278087, 0.20276448038588762, -0.10053171375957472, -1.1958166904510068, -1.7051369225364161, -2.3026960892650203, -0.5360305034122327, 1.4411338337746717, -0.8465105001135492, 1.2300897901076544, -2.5417030722651344, 0.49128139864432663, -1.0153018733040688, -0.8224741233518266, 0.527853452589749, -0.043771533882161706, -1.5180542710432214, 1.8845568204273508, 0.04433718858456621, 0.3828068700422012, 0.9326706654062701, -0.5612146797107472, -0.3857858623518885, -1.4498729001139496, -1.8102565014432792, -0.4486496284127897, 0.017036887571994938, -1.125248538661733, -0.22153601011502302, -1.653256002052323, 1.3125079130836963, -0.19241885722412522, 0.32806881629498663, 0.6322993842218926, -0.3489998502254995, 0.0701707502786852, -0.8350646130593607, -2.014334512098686, -0.9378334048455359, 0.68595831285369, -0.6890506001998841, -1.0592429174941609, 2.3121828249103755, -1.6123031855197574, 0.8439507551409625, -0.5839865258597841, 0.3632377019351625, 0.2773676083838379, -0.42109591408898356, 1.016620718869614, 0.07782541252525331, -0.6650120137741067, 0.09860360757407848, 1.059029935910457, -0.3987671046110808, 0.9173209045136138, -0.3039456629673704, 0.7853561309873468, 1.0381657761837322, 0.015257674976574043, -0.7039557271157709, 1.4201298034347292, -0.5006897024505451, -0.6362978772048937, -1.6381220890584005, -0.6020652240680182, 0.06508925119478898, 0.35974199740366786, -0.16329966071519028, -1.3972262829471458, -0.046062229904287134, 0.5679343622349814, -1.9811593355880568, 1.0048223301211612, 0.09233473206799118, -0.5702506566839309, 1.170435032544693, 0.6501150125378031, -0.45143027721693496, 0.620098507581723, -2.288872544263947, 0.8542441432567354, 0.6985174754699536, 1.0134607278591985, 2.2334110417724102, -0.8310425332274124, 1.7764896553884624, 0.4413169779409588, -0.23397397199766895, -0.3979868319043429, -0.08783811611785947, -0.6133164698747433, 1.8116319512898382, 2.956422479931904], [0.31867801604636736, -1.0093820461686749, -1.9596827838593813, -0.4386786981318274, -0.26836999644765386, -1.4634027599086945, -0.8055905290931983, 0.15741269798750515, -0.7494584065430313, 0.5369359378863555, -0.36062776061773005, 1.3842281345793135, 0.39201357421335753, -0.3494850839557777, -0.35560839812368833, -1.3028832713087464, 0.3633591205365172, 0.23561229528369382, 2.0281084027461564, 0.5062554650130813, -0.7606842245881855, -0.24147061614456816, 0.4220210485195459, -0.6188388084015951, -0.6719392484944884, -0.6243185704784777, 1.2587980524069404, -0.8587488767046052, 0.12610362334536476, 0.8440024067584263, -1.9818219326443625, 1.0341305689474822, -1.554551386406718, 0.21336101958874895, 0.018808373745103652, -0.9763148872300229, 1.280851380837018, -1.4021021165643985, -0.5834351022796428, -1.1812165784132764, 1.4822491913150788, -1.4921770705287172, 0.12347195048925902, -0.7655685858935493, 0.16464750096804665, -1.2485751634193765, -0.4621984667673179, -0.7986810363345425, 0.757729598210509, -1.450602334379809, 0.7999674619398951, -0.6879228688481205, 0.5125723083831292, -0.6294624627329639, 0.9884894244433782, 0.957387582606283, 0.595223763487931, -1.6220276016956625, 0.38523177170201034, 0.5441269877669823, -1.8871775827304444, 0.31628464802560663, -0.06050317591366475, 0.733827292280602, 1.1421654647447586, -1.798915762871975, 0.47605564988383176, -0.1578666637642684, -0.3996330446533505, -0.8862115129910941, -0.09685045503745264, -1.5130862973985846, 0.8094697900857404, 0.7703849690136232, 0.09801729832793603, -0.6127438647156296, 0.5733966198188626, 0.9194913671130368, -0.35973819773077875, -1.5565293245233147, -0.4153799854652417, -1.0095374246100963, -2.4490410945257057, 0.31440508697436287, -2.3642533782215924, -0.8063276991783814, -0.46173818661483684, -0.7611947718016279, -0.3600672732234226, 0.6518918030893289, -0.9641805427185635, 1.049923546622322, 0.25523432459541484, -0.940708666398025, 1.6382782540081982, -1.4341868739341281, -0.9952985434643833, -0.9205998927538396, -0.7202692823771006, 1.9609853714521777, 0.182937690722848, -1.4205140562061718, -1.392698212741738, 0.4468469572872122, 0.5867115301019937, -0.22187307820064792, 1.8215113090392387, 0.06389807147589827, 1.047627562304026, 2.11769252562396, 0.5700672182233155, 0.46305756610068727, -1.589509720290841, 1.759988136688447, -0.028434121988457937, 1.1807803312759153, 1.6643746441638119, 1.5347700236768655, -0.33292981950553907, 0.37718079347981504, -0.6289866050269706, 0.7963467067751087, 0.6429463664502433, -0.49620027752940526, -1.240454963233981, -0.5840870324742984, 0.6839005823249702, 0.0464278340676727, -0.48099788514777125, -0.03999885288993017, -0.03039851773549411, 1.7603676576201768, -0.6978523161361535, -0.29918455365555696, 0.47750799160043234, 0.05927150819613933, -2.4731000359034234, -0.9663038928372831, 0.12421321812069876, 0.6607358952717951, 0.025768504930991403, 1.4073752557320924, 0.17566665168282425, 1.039950781538557, -1.0131577602116921, 1.0564630595335804, 0.4599098296791945, 0.5531944163334847, 1.0831738165850509, -0.8764249980291366, -1.503837684246364, 0.038734267394845215, 0.48751060969999965, -0.6367544633077009, 1.0670509566536126, -0.18402584480184608, 1.7894831402420341, 0.8191972759232364, -1.2529915050261968, -1.3617094453835847, 0.3968717248315176, -0.40279568244326014, -0.7100009517685286, 0.5274829974295625, 0.34562136834344925, -0.31148883280293066, -1.1562071144149029, -0.7866459217020365, 0.9346589520526345, 0.6170336369031231, -1.6924873180182516, 1.0466698149752947, -1.1066898183800935, 1.5317462837056066, 0.12645955998194572, 0.4010171239135674, 0.29992399924935864, -1.1476691039012366, 0.07931790852603562, -0.8122952640312023, 0.34150066999865925, 0.14346558583150326, 0.09186245687710975, -0.7833350072160028, 0.8419876953046523, -0.24009635927345266, 0.3138728383708735, -1.5112072709710813, -0.5630820181619627, 0.05192351010907792, 1.0794988342631293, -0.5613899143738741, 1.335707796254597, -0.09160642172656877, 0.4401544717005958, 0.35269032650914595, 0.6333768852300085, -0.796193575197518, -0.03461500002257401, 1.3232604196760487, -0.21489678869042442, -0.015824133081514827, -0.7884986623603997, 0.2848904684038091, -0.17842644908966107, -0.26424925679824074, 0.16698698023632547, -0.7456778379948791, 1.2876891393238636, 1.572250771191928, -1.22229825003385, 0.2222592734106189, 0.23278754917693725, 1.4200500118060422, -0.32448265664927745, 2.038231827617212, 2.320815214761176, -0.1466124614535807, 1.2662987944803765, -0.5858411401184962, 0.5495014102236591, 2.0456430441536066, -0.16153393507193753, 0.23134573709683798, -1.5622737355823126, 0.5325588222363187, 0.6809960969448938, -1.5184704341335253, 0.5853915908175632, 1.2811733329285326, 0.2611620639825608, 1.2641288443565541, -1.160524059632986, -1.2369253160692801, 0.36652753083438827, 0.2992546764014575, -0.7862949103569561, 1.6536033477254208, 0.3060133144484941, 3.299271428645484, -1.4394745404668028, 0.7060186896342585, 0.13348784585600332, -0.2112394797111047, -1.160202760834063, 0.6960156596601054, 0.1384518262141663, 0.831195516472171, 0.7136216854914951, 1.4444034371358567, 0.37709685638935725, 0.09598701976721798, -0.018606559701557057, 0.6302272959696212, -0.5172348580334437, -1.9946096602934602, -0.8024081175225123, 1.0386461742408861, -0.5802440756984596, -1.2233492135498407, 1.1255883675275946, -0.1080714801596571, 0.2989751489744221, 0.684079157608134, 1.9554651713718305, 0.18466589853061743, 0.2935361538243301, 1.4783242114763477, 1.0680770034877354, 2.053075235348737, 0.19108296459216031, -0.6129377311856546, 0.011418792518671637, -0.6922851983341902, -1.704048400171267, 0.8075114325062491, -1.0583102230939494, 0.6423558909852695, -0.5785421808985861, 0.41574875174621134, 1.459674204494158, 0.14880159699442172, -0.019213514072381366, 0.8410819592605038, 0.324579574034244, -1.0964893046232267, -3.0794056401928587, -0.06569407288168869, 1.607494397761672, 0.14512433159106336, -1.2907210546616836, -2.6210934057329647, 0.15499695351411907, -0.24816578148483448, -0.10197783686823748, -0.4626845392817584, -0.16568715566202843, -1.2001716520320511, 0.887412740274649, -0.1139372983573264, -0.9848795622973063, 0.965731237547706, -0.2326647335419029, 0.42867271865427764, -0.24451510342575927, -0.11344719979317457, 0.19376053871017193, -1.0192433191070895, -0.6714410866734711, -0.39636575431360854, -0.031965836631254865, 1.8672733078769375, 0.9267965225490978, 2.11928513787091, 0.6901349058474628, 2.2480937206604525, -0.5425987654241395, -0.21630903714359256, -0.2125135562401951, 2.2178898297199225, -1.4679290227665327, 0.9444921894182119, -1.754983160666687, -1.2286294506629574, 0.9044794277005875, -0.14210881155401991, -1.232445711088122, 0.7577284448878129, -0.5543159829965104, 0.24934258709807278, 0.7265032751093491, -0.2522621584502717, 0.011768861336802947, 0.17061595848903463, 1.3593316259851926, 0.35878171339085396, 1.2231820563714078, -0.03413697883653897, -1.0956632821444101, 0.9532990028486321, 0.4337890619936516, 0.7993396991552403, 0.6198334887829335, -1.1003581437367351, 0.32691475990974844, -0.3694885120815141, -2.1214821985712145, -0.9432720003058701, -1.3473356177890987, -0.5150014700166331, 0.17344420656601767, 0.6170848349885564, 0.5673503433938688, -0.5549406305264069, -0.9553387489412097, -0.2260683480242656, 1.376417151241573, 0.2809093006271473, 1.4745474598339687, 0.06260862766728108, -0.8490203561052482, 0.3389121456272295, 0.21526299166507903, -2.7080313663683104, -1.5265178722328945, -1.625577059269544, 0.10469759195357221, -0.5181566542092576, -1.419989525428886, -0.7224168658561018, -0.8434718083852807, 0.3890543087254079, -1.393259352160003, 0.6534800520295617, -1.3024880496948394, 0.8140424327090016, 0.37392104035037105, -0.8652727688243116, -0.3478771068753237, -0.33195712405540556, 0.40997353576948875, -0.575274389352953, -0.2765245614302303, 1.3668007813823755, -0.8382762672599716, 0.5793925302400509, 1.5153931885503569, -1.873394115086614, -1.1107096666718541, -0.7161621438784329, -0.016706472270304012, 0.6066126310565845, -0.6981101153510324, 0.08110847615246741, 1.4160755824024864, -1.38428707492934, -0.989629004200089, 0.27504073175006916, 0.9027754029180456, 1.3505181128581438, -0.9480893645623416, -0.4832477507154298, -1.0973143356576334, -0.1295977124629066, 1.4980040153189547, -0.30951833317116273, -1.120546970076116, 1.0382688936470439, -0.9653950747715301, 0.26358631791500003, 0.7052157009520692, 0.6676885896547912, 2.3702531367615114, 1.637636028761272, 0.29113260954463926, -0.8334650465036112, -0.07110894811022533, 0.5412827941818641, -0.861195861414255, 0.047762188159493374, -0.3901640209455079, 1.2585299876122458, -1.186071929108479, 0.6372070050714085, 0.6051115774005149, 2.783314437572006, -0.2152225758793222, 0.3369880928831648, 0.9490324295977138, -1.7591450781769165, -1.1380685859940287, 0.34715054774824594, -0.3656395707191594, 0.3876588666022905, -0.04162603582555613, -0.9668999789524203, 0.3982066732863727, -0.8544120261164713, -0.6883179288044978, -0.899284758435977, 2.4579832741516703, -1.1987151711430044, -0.26600617886900135, -0.8928063349102182, -1.1575490923353544, -1.4321549527302873, 0.6099644739099375, 1.039589105432679, -0.28958222688190216, -0.0838235503995593, 1.1250327469461434, 0.2065985933645041, 1.1474087183533093, 0.32133621392156686, 0.5631834447996489, -0.523880822288904, 2.8828006170216223, 0.8729408617956094, 1.445357787413778, 1.2279754901860571, -0.16644759326094757, 0.6250322581084816, -1.3519727344730037, 1.7533446432251212, -0.19359622048433947, -0.7910649209062066, 0.7445836936288946, -1.1034190922062181, -0.5939475659472807, -0.32558526363857493, -1.799363995181601, 0.8637950790802448, 0.6866475232159778, 0.0152247545321513, -1.8638639097519207, 1.8304913323725096, -0.05239207542499277, -0.18996053140959163, -0.1334538918525361, -0.14272820614119164, 1.2645428280097786, 1.4951033909801679, 0.667154085520927, 1.8257174777997096, 0.4861688363032991, 2.429882064514806, 0.18205386451119276, 0.9824096424088683, -0.8153083388318185, 0.3248963159927903, 0.5778995199899579, -0.2408148102438816, 0.8187459967482952, 0.24179964019069328, -0.02421469301130315, -0.31147712487138307, 0.7488893571158121, -0.6532729228278494, -0.48448260475971155, -0.8140851728970898, 1.120876814510044, 0.589027298907135, -0.5590228455754691, 0.9109897863370562, -0.3735532213305985, -0.8162732218291883, -0.6644309545500354, -0.949803590669241, 0.1793313294559635, -1.5923348220953841, 1.6525346065026048, -1.255177453503546, 0.4591749299331248, 0.1943234491956925, 1.5017551167383163, 2.1475438768800497, -1.0577697328981106, -1.6474478648195514, -0.08462404363753448, -0.16617110823078166, -0.19460685933000818, -0.9186042708454412, -1.717322354689519, -1.1160712845580991, -0.36645122575968886, 0.10014767908769674, -0.07742110626055185, 0.0054084854554108915, -0.7320986034606588, 1.8345668848156846, 0.835228319525526, 0.014411287521507537, -0.31123034225446417, -1.0592627191525466, -0.6772063621568348, 0.3035383442638121, 2.2339401237168914, 0.8857354868160331, -1.178524307827132, 0.2220976705405059, -0.48615443392421653, -0.8761714975544324, -1.346382399768892, -0.15155251371720438, -0.37854130141139136, 0.5016104419921599, 1.4500648796363298, 0.37243607980046295, -0.34771303253861824, -0.9606692539582604, -1.1842057338633751, -0.752235118733197, 0.4334491211391433, 0.46865848810594546, -0.18406513354453918, 0.42087821506257167, -0.6338286872677735, 0.0965198097237201, -0.5495975155039795, 1.9429967146761877, -0.8771928763131772, -0.7936826348881719, 0.4807863392219708, -0.3839122305294389, -0.7621787428682677, 1.1135880601138253, -0.024132069401140693, 1.229901471680431, -0.09870103692289864, 0.7739868943362966, -0.9229140870251694, 1.2691742356264497, 0.5134757406532312, -0.21750968874493565, 1.3380981618921552, 1.6431488110783092, 0.8607409473361411, -0.47550999251167086, -0.6948489094639674, -0.5273944713926161, -0.6913641460981931, 1.4691444966400338, -1.1430275181855987, 0.35387511595791193, -1.1350175012579837, 0.09785626515047238, 0.7747084749305567, 0.49622174074251274, 0.15434372253849762, 1.1159907437567764, -0.755234324522758, 0.8170710287462031, 0.856082686546606, 1.1093491183891664, 0.01924225881554307, -1.1033378648743584, -0.9678815724446954, -0.4407926843689823, 0.7434727041441161, -0.2934843815663502, 0.09776608605589793, -0.5103075873465039, 0.571154884352769, 0.5238391404727525, 0.8120740418768244, 0.7389849863704918, -1.6003714786500436, 0.4921728163792191, 0.9388548814640755, -1.1060846821554782, 1.4048872970411637, -1.8981241734915284, -0.2709041459230729, -0.7624014196298853, 1.1261493197888384, 1.619315694102601, -0.1726923925835974, -1.8011752968309722, 0.3999496741029442, 0.02287496627112868, -0.29675514232665007, 0.8950425745252049, 0.6859603935842995, -0.5736519130921812, 0.39552282515916126, 2.0394505047999654, 0.3065408700765569, 1.0514721144634422, 0.7593544229714771, -0.4887216789874014, -0.7721376570873153, 0.7047871927007878, 0.028978945371662946, -1.1794957686971295, -1.3790696559970101, -0.05350998183799786, -2.6066408414902464, -1.4372599530805528, 0.9339412216540739, -1.9974161896805338, -0.5148157017409468, 0.7533624892943567, -0.7947683620505274, 0.6008562490691086, 0.5997783544063857, -3.0439342292546723, -1.6434791153078963, 0.36069217487881433, 0.0756292114440581, -0.44267257866113063, 0.26020502960833325, 0.03173520484050845, 0.4357236158853763, -0.702204101975029, -0.21621869316684422, -0.5338333375357692, -1.214740976475666, -1.168764946378461, -0.6319085209913985, 1.2586118293064834, 0.38629980123006585, -0.58122327078014, 1.8661770396307829, -0.8702052331812656, 0.6740887969274315, -1.1985090426711795, -0.45786996736534497, -0.13065687144045876, -0.4164691723378668, 0.03171848948888158, 0.5141039640105685, 0.5225750246022551, -2.062584027551948, 1.533811791831722, 1.403287739153857, -1.1270480852259481, -0.8589310799594068, -1.9421647063201253, -0.048164824154801535, 0.636396566974177, -0.051191145667109215, -1.0386525827346234, -0.7913699610392094, 1.5322959205575373, -1.0335218697894992, -1.2569931522789, -0.13331392098113187, -0.3707801035227906, -0.6983905611108219, -1.3108592626385178, -0.8710607698964336, -0.555811393351939, -0.02249432626871635, 0.4346985369665044, 1.165776837378558, 0.59080960250789, 0.03925321905068295, -1.3030562539791102, -1.8152820420367837, -0.10980468182506628, -0.7247250050054357, -0.5527266897120219, -0.6422777662250367, 0.46833337042220297, 0.655054603667914, -0.8712322292910658, -0.07302753958508376, -0.74887976807687, -2.1367320261102574, 1.096688826172962, -0.9433584115463888, -1.2755230511202673, -0.3289477728623209, -0.3055127918548519, -0.1632308457535992, -0.8990985256988132, -0.5310678405043207, 2.136119900892835, 0.39942000240910175, 0.18952461511551566, 0.0662337592898733, -0.24441265895527567, -0.2512367040654988, -0.7210117196200155, 0.6707573529532437, 0.894573294234952, 1.00818965267287, -1.3824552214490347, -0.6634468774872341, 1.12729176896042, -0.3735951367844466, 0.5214478136361745, 0.060961630202045446, 0.6653509438314292, 1.1863316799324448, -1.489376278543113, 1.9727048225105972, -0.20078331178022774, 1.312661788920641, 1.2556732906318369, 0.17704587130835725, -0.9975488889764551, 2.3081526163705344, 0.338806606711985, -0.10242059688151013, 0.7069157069280598, -0.43411410520748894, 0.8146600977922301, 2.3782856572274365, 0.6958144749754751, -1.2361525097486, 0.45009128736695747, -0.5127019187605325, -0.5551386531252581, 1.5610379633925906, 0.5519830664757407, -0.9731976524466373, 0.22760495031473674, -0.1940565500480778, 0.46523320200996265, 2.0119367572521627, -1.9934966595220784, -2.0477515808058833, -0.702254550952923, 0.6281179300971984, 1.5185108001940275, 0.5567888127891476, -1.5677025251287935, 0.4737831676345738, 0.9904951329091214, -0.40885641893154984, -0.02553588734077051, 0.4936034582518649, -1.1084832979290242, -0.8912455744943016, 0.3391457788806432, 1.2463199269526335, 1.1666712789744447, -0.878039998759491, -0.27759959113783983, 0.8572816261371538, 0.3640990814086308, -1.2341582411236738, -0.5234298720905035], [1.048498603959742, -0.6810796419587613, -0.10275340230040834, -1.6204088755707717, 0.7619385001105692, -0.983305390953504, -1.2301363151848859, -1.5957664834900798, 1.3076234467444137, 1.0919149080670831, -1.3698710757763668, 1.0674423010229968, -0.3552211377458368, -0.8319497428478257, 0.6417024564821895, 0.8586469264122278, 1.3015555461653403, 0.5715596203124561, -0.006772267887177713, -1.369571233547743, 0.3419117021185202, -0.889739411764392, -2.6728586004451245, 0.46393115572916055, -2.2943721758689777, 0.3667401501813653, 0.8369458862875045, -0.806745354973614, 0.10345445144483784, -1.3292459250411914, 1.2868198184214932, 0.12893861463870696, -0.7869821156987027, -1.8812187550158117, 0.5960200206520984, 2.182472748982231, 0.12638779213263707, -0.1675569898112699, -0.82837155352367, -0.8494128365962029, 1.2478254541093778, 1.3828214618711303, -0.4659212371980437, 0.556294054482478, -0.878949365212645, -1.0221376145717376, -0.5703770261882449, 0.5624226621653209, 0.11182597868784205, 1.3700434895596691, -1.914806969338948, 1.14928195060338, -1.2407727777862685, -1.0906388686169046, 0.4308600934529836, -1.0226118916171565, -1.76276855065193, 0.7721377028185324, -0.1653054461033246, 0.20223619111085286, -0.5757152207945406, -0.4306535455729031, -1.7754546575234225, -0.8435669093177275, -0.39499127897614117, -0.663633787569538, -2.0117041740617108, -0.2981257709062779, 0.704128879897514, 0.08293444981280071, -0.011683712969924051, 1.1814627081664109, 0.2006066707744228, 0.5892946651007331, -0.14742584104086345, -0.3216463610827067, -0.23864422700473062, -0.19153172305241467, 0.4323414619443138, -0.5978630101725368, 0.46995685334676957, 0.7757123223604757, 1.2679676908500508, 0.15624704086949345, -0.30887825708516264, 0.4325039487770577, -0.3222885192045642, 0.1818996365714286, 0.7234723599166406, -3.851760925209594, -0.5567087226006948, 0.0027162341493986186, -0.14705342705975352, -0.6651119333959421, -0.941988510309814, 1.7886981119112484, 2.888832117835299, 1.4656574952493198, -1.7558248365316012, 0.7408362317589742, 0.8031821601298283, -0.899036997350593, 0.2925095629354165, -1.2917494784322798, -1.028708918757437, -0.034920716356988624, -1.5042198320290048, 0.27670853440050114, 0.5049071813305929, -0.5351206478568379, 4.270554481796941E-4, -1.4899504066185671, 2.227589767252351, -0.988032420455039, -1.3114732432045337, 1.8143233100134142, -1.0701731308643145, 2.3547981192942826, -0.3461840621339731, 0.672755318461113, -0.3343595150195325, -0.8681355832098415, -0.8578942090718358, 0.07803798209274283, 0.5779031029175069, 0.05454709681830086, -0.2314757862535322, -1.1459430586918768, -0.9892787804171334, -0.1408174089540615, -0.33224854753288713, 0.15227831322773946, 0.2764664235669301, 0.9348624071893952, 0.0029460462621084273, 0.03626117862888136, 0.7574652163786991, 0.308374354963213, -0.7979858747608348, -0.1255741854647214, -0.43569840644554236, 0.39484233659032064, -2.1872594372323415, -0.43992192903661964, 0.2084636078388155, -0.612225690866569, 0.5765597440445452, -0.07887154355767154, 1.5723659893340476, 0.28771688718137156, 0.6299658925596573, 1.4093344869577902, 1.9297387926284182, -1.4871778015041566, -0.7325212375937752, -0.8792909031376889, -0.28187126026591586, -0.003072764904320602, -1.4069338022088433, 0.6522057559241453, -0.8365418067163903, 0.8207570009544549, 0.845565588420708, 2.113525576214599, 0.1762340931917609, -0.31290407120330427, -0.3619020793098192, 0.8491498559550176, -1.7787445304907052, 0.4789688893607753, -0.48924741180766956, 0.9000427557629005, 0.5015635509053121, -0.7384184991094195, -0.5235507664561431, 0.9209928513421091, -0.5822020140001549, 0.5168721818833172, 0.6492904003764648, -0.6899349645451178, 1.4496000096372386, 1.3247881714639695, -0.5000979921412387, -1.7345439022846678, 1.757206291100298, -1.042237879068538, -0.0926288626900827, 0.6003828829036, 1.3605334020934488, -0.06826663059963503, -0.023382076742464675, -0.35052546580155536, -0.22359022969298042, 0.38332002551809563, 0.3260651008559299, -2.370269086970664, -0.7254777490161549, -0.023104427835757592, -1.0169941700205463, 0.060008731253776135, -0.32011254597451694, 1.7548182993992305, -2.2168573149196122, 0.16947872182026946, -0.4101610772790829, 0.46611385496987745, 1.0742691529001236, 1.1804488468995598, -0.4309141483128806, 0.538901093899819, 0.3712152430497346, 0.6482779184883013, 0.26661324830095295, 1.5861279184813388, -0.3999836802191098, 0.6052993821007869, 0.6492507463154231, -1.6029934520126665, 1.9249803451206549, -1.4596117921786136, -1.0898396223549305, -0.507290670957852, 0.32380942291154224, -0.4834380411521059, -1.1433734091146468, 0.13886500201165233, -0.06212884803623743, -1.1594868755999264, -0.5770648873627262, -0.3336503494823704, 0.19102062854715576, -1.1531391761223977, -0.013555403913475294, 0.46777982680076563, 0.7036705185907501, 0.6949162665084372, 0.35746829391887086, 0.8924458909310015, 0.9522882089592167, -1.2694829395223768, -0.3905818517104588, 0.23605309861874152, -0.9075564089649638, 0.9707442615325037, -0.24706766390226081, 1.058433960295685, -1.1711712416281859, -0.6677943613430569, -0.9144406767146396, 0.24148218674397842, 1.0326008930544472, 0.21112032957595459, 0.12919212272187477, 0.4318737746052116, -0.7460933036635754, 0.2775355073597607, 1.3331808153726956, -0.21499407210746269, 0.6405939075869835, -2.1387437899852757, -0.846509664924265, -0.6828186048670749, -0.8410185860287459, -1.5660994437035507, 1.1996535148798801, -0.3220185236869743, -1.6596819694252414, -0.8237168885734923, -0.5466269839864673, -0.9476624765546879, 1.7217238159056842, 0.5886715706495602, 2.2547995554646847, 0.3728984744311549, 0.6528693195176823, -1.8764349687433468, 0.1394367543592534, -1.0687567802112552, 0.0912995024374002, -0.3984474071084303, 0.048566917474517864, -1.143553012242234, 0.040487228322576514, 0.3775350731749638, -0.39039981946712293, 0.2933062680415057, -1.5804904228903736, 0.3397421891340127, 0.5473336545123394, -0.711625807755626, 0.4093006191420049, 1.0570683067453945, 0.8287195008891262, -0.3842927833543251, -1.5337824938140265, -1.3820267681162581, -0.8311720923622009, 0.1645850891530635, -0.09589599476760985, 0.4904832391402042, -0.2452516194401008, 0.4615079630781551, 0.21765655122390776, -0.1935283935341908, 1.3328736161652974, -2.1602638109843295, 0.9192486218864936, -1.5333760573734345, 1.6702709041173913, 1.0931328077789764, 0.9370681009224734, -0.6016975475175794, 0.2062457192083649, -0.47571195484931406, -0.10147321997009498, 1.1049785795118854, -0.925235920224623, -0.12873540051117258, 1.0595395800600058, 0.3596864793421837, -1.338817157678199, -0.8481839720652122, 0.03206833851605297, -1.3792459314022318, -0.2078778513428464, -0.8642243164901285, 0.768971291385956, -0.38582248105885075, 1.5865091438337648, 0.07216876211417936, 0.5607750693793712, -1.008177223491585, 0.8816151040530495, -0.9856053435394495, -0.4831241891999715, -1.1939936290569406, -0.25208757658166425, 1.6601726198463287, 1.1064759876437682, 0.35875937323119195, -0.09742890911862283, 0.604342083076558, -1.8542723397147087, 0.7198051883219588, -2.101740920210378, 0.23825824598442885, -0.8286464335190812, 2.224107582494497, -0.31262237749623706, -0.3997178918592194, 2.531447665649624, 1.023737696722608, -1.169008994347054, -0.7726317480823913, 0.6734990176986504, 1.8846296808923753, 1.0714317415216785, 0.28769794878874744, -0.9647916309274702, 0.1269312869090308, -0.21790539045280186, 0.7061796911456099, 0.4468661406610572, 0.573362625430795, 1.7869539166694453, 0.01019387746916915, 0.5818949316976227, 0.49380994566290626, -1.536154782907966, -1.1768985199268913, -0.8923973860818711, -0.5920901490565984, 1.6001604766744453, -0.18136983268586596, -0.04712810528063303, -1.4933295101571133, -0.427988791237097, 0.8594903479077652, 1.2707951692738018, 2.2582399107015285, -0.16752202562675833, -1.6228568086285269, -1.3900457952329641, -2.153332711955159, -1.8912767231019707, -0.6663313177649849, 1.2552420506988429, 0.8694383949192885, 0.5504984872125518, -0.4222339993568814, -1.9921665269228053, 0.13653396751580057, -0.5686139350533461, 1.0131084445772531, -0.5636611476799965, 0.2959383276253439, -0.888568125799109, -0.8177927980583263, -1.2613230188780515, 0.2929975074440182, -0.2281240806231848, -0.47685501739307823, -0.27708712331921825, 1.2388755774664637, 0.5847437787408276, -0.24524808726316233, 1.0534236265413834, 1.4207361250439725, 0.2685320824882354, 0.2778176746088351, 0.7887844823814354, -0.48969339980115817, -0.6901197877411533, 2.3362193364332815, -1.0404898923499468, -0.6483424458307017, 0.23060851120775616, -0.39592869631909167, 2.259038808807365, 0.4223640345823933, 0.13887874606035738, 0.40925323815539255, 0.16571898680438252, 1.379926833580682, -0.29743101867971267, 0.7082145313729106, -1.6096144119976528, -1.4148844451612064, 0.0077617304578824105, -0.9236817831533934, 1.7436349121516312, 0.8287536442782302, 6.350355014580995E-4, -0.6107612389654365, 0.6493509923508815, -0.36351231991544264, 1.7660917482149403, 0.5165215336273674, 1.1123840421050535, -0.09168627162929775, 0.17684294219006957, -0.4673340734223335, -1.667257762265214, 0.02002285705240052, 0.15804409460711571, 0.8017754332395266, -0.08700628787405852, -0.08074255532761633, -0.4687537355217694, 1.1627281422384868, 0.24001642117831565, -0.8461920518922735, 0.1364321203768608, -0.33890624142402653, -1.2863709844192146, -0.3143546448752985, -0.4458938047445262, 2.163266281027625, -0.12854596971782614, 1.7756030798674907, -0.6155625229368112, 0.8084602646205161, -0.9677172550891631, 0.29240876772211954, 0.9817593753399787, -0.12134810300440423, 0.6626675678309194, 0.037200050328521694, -1.2100651110637988, -1.526420849845633, 0.047579772593792403, 0.8069546060495726, 0.16081124284678808, 0.07878265149437297, 0.35826323951774564, 0.6522825158161455, 0.15173560258598295, -0.54476137191831, 1.1262904004228815, -1.5212639430681083, 0.1314911595259021, -1.8730533043187059, -0.6889656013534613, -2.703646964224125, -0.8903609373252653, -1.084013518868198, -0.2859448630947166, -0.3909400177851003, -0.2549895332205169, 1.3145604237070263, -0.6138513839004127, -0.5413431339244626, -0.4086151414846305, 0.6361115991330355, 0.6781181588029477, 1.8439325800930417, 0.17741188332366, 0.9903871990611108, 0.4202418477637833, -0.3667730213278179, 2.3191287239774008, -0.6022716187287811, -1.8371149248623402, -0.6317911251232284, 1.775112549513506, 0.375734722848755, 0.3659511147108964, 1.0162051615158363, -0.5331544332244964, -1.3421556480961436, 1.594015264972483, 0.29830084159919884, 0.36067657726315705, -0.8316512365668663, 1.1878696338093788, 1.6709427688721, 1.1455376540935687, -0.316489766453685, -1.0517337231475243, -0.6117988985165176, 0.5279018696322024, 0.028353973795498477, -0.17478490303654182, 1.054916662291705, -1.412412896882168, 0.7737180595657623, -0.06384455382801597, 0.6013921080960257, 1.4298323876684464, -0.939393006617661, -0.5119731834884418, 0.9362691826934904, -0.1143199961092811, 2.3583808332492118, 1.5533591333999397, 0.18754462106696868, 0.066389199367404, 1.6115159874482041, 1.7570317014303407, -0.10789819689891354, -0.7159183151187934, -0.29800414353536403, 0.3879861182850267, -1.173471617119437, -0.16374841886221914, -0.7097719799241575, -0.22180357909471987, -0.9198521307093419, 1.9927061405253246, 1.4994621745818675, -0.6953779830052038, -0.10428430389141055, -0.03847275998430903, 0.19929988741152815, -0.33308002197384656, -0.30468749348008234, -0.08295297394506201, -0.04242615093065084, -0.3763813681094491, -0.6304497172528518, 0.6041394663373344, -1.4181719771185597, -0.7007459746874062, -0.5611614167717385, -0.5312769045860484, 0.2768983532148703, -0.4067909617972811, 0.6495428626299289, -0.05980316402864004, 1.3814986699709093, -1.1805591123832748, -1.8305669795968644, 1.1564372819583857, -0.8552891805114184, -1.7206450188116267, -1.2311024804885273, 0.18282168840476504, 0.9295899065539165, 1.4578669917792724, -0.21334982125451818, -1.010925516495645, 0.08284356822351026, 1.8860158490747267, 0.596450595916156, -0.6322669102965691, 0.9677558498421782, -0.3715970719212612, 0.29895687253357456, 0.256603067922279, -0.7540972538693655, -0.39711457716742, 0.7837115616555315, -0.6036249420271328, -0.02938801378010519, 2.066266449146511, -0.512386603765107, -0.6142635757626247, -0.08393847540605302, 0.5533143965037205, -0.14825171149816724, -1.6510449726218288, -0.5861539822181898, 0.04465813515213267, -0.24167135413833607, 1.8585091769083695, -0.6319794910504082, 0.8788804193559161, 0.37733999515467637, -0.5799038554205548, 0.1486270850243918, -0.2074467777608048, 2.1925116652164762, -1.3964271743628118, -0.25891952010297314, 0.046845780203685086, -0.2929548745811085, -0.7237085177884257, -1.053472628894568, 1.6056816160388068, -2.0638170218031138, 1.0060799269698781, 0.9635905496086749, 0.1832651712804178, -0.10761578749661876, 0.3192401948816094, -0.7132988193503016, 0.6987440478815242, -2.255061743214009, -0.07340914789460855, -0.7384226663575991, -2.0269509827774552, 1.8191408328893492, 0.15672729432233112, -0.0931673305360984, 0.22059078833723292, -0.5554333271589514, -1.7677245437645, -1.9179283899309065, 0.26781889096599126, -0.37915100502506865, -0.298979259282971, 0.4683554680989454, -0.2109430430058191, -0.4209544195856584, -2.845801028900637, -1.2613276115841239, -0.32953234230382245, 0.3742924116569019, 0.8151947106057862, 0.9497931663033103, 1.8698375020638935, 1.8909079957767032, 0.7256652226247641, 0.40511695832247274, 1.4245298620539721, 1.9657374920135242, -0.9849690592240091, 0.13200495538683368, -0.6329041067322533, 1.275678538277301, -0.13076081206189097, 0.40805193720903077, -0.5102604381542234, 0.5945850106290963, 0.2620482380927343, 0.25243386828109093, 0.6439374289986781, -1.1881409261878815, -0.07372651056374413, 0.34217225376850463, 1.6401072990899312, -1.0091611589335208, 0.13289229530647528, 0.611510326939441, 1.4215641543455317, -1.6063980108470535, -0.8182301342124406, -0.36529699103375174, 0.2584873294673398, 1.083838835827391, -1.0301911205932917, 1.629236743813079, -2.7219498678583713, 0.8508978367150162, 0.13766794497192175, 0.44992571936629117, -1.3036226646874365, -0.27320900534861997, -0.9766395900866766, 1.8651139330638575, -0.3012709467441328, -1.1058072080714427, 0.8406493227074691, -0.7810162729259655, 0.7525386412364846, 1.751254571902656, 0.47005625740305756, 0.14638865469720233, -0.33067112899452905, -0.9870531835526694, 0.4077936048417871, 0.3851331824322955, 0.7270656173138074, -0.393338259656208, 0.683739981058651, -0.2320976857477184, 1.8514603299221721, -0.9531260634060713, -0.5402349538594483, -1.3628521421917306, -0.4976860692130589, -0.9517857639232642, -0.8172326858820388, 1.116231161292007, -1.8222036560975197, -0.8109946737394815, -0.8751705703107994, 0.998507048863485, 1.3140369128207765, -1.1850975277905211, -2.120413281423729, -0.2633671504858511, -0.49933319263146037, -1.7150487194335222, 1.0009708081773603, 0.5179802454733148, 0.7376335697017025, -1.2908650351949056, 0.550752742056026, 0.7755163765963564, -1.8382859407282435, 0.20670188501104925, 1.3362398299489828, 0.23932529285159945, 0.29426142939495403, -0.3685966801387843, 1.0552249577056747, -1.6413355702516974, 0.3966380180063765, -0.7689439878979967, 0.8812008219204903, 0.6984580887088776, 0.8595706234621454, -0.5849386344886811, -0.013925933200924185, -1.19559710536642, 0.6778697868230135, 0.8066116114946639, -0.1112715006496023, 0.7488866692575158, 0.41680647473061294, 1.1812675069044885, 0.16360938218202264, 1.460686330677978, 0.34900093838229607, -0.1738251863755506, 0.05776656017412146, 0.32516510117551856, -0.033522279664772954, -0.21429562596166798, -0.7243201290406537, 2.3025817436912215, 2.1593975553954814, 1.9012604415388883, 1.8685569352865512, 1.0990652792138078, -1.238498472910414, 0.18297497125805579, -0.4723947184706153, -2.1119101636942794, -0.16807635011668934, 0.7188719556993488, -0.36614639193539394, -0.8518563482326005, -0.21971869715547504, 1.4783831267967067, -0.010503084529347458, -0.48266721186816763, 1.2719089921113382, -0.9216049688522125, -0.5157199852536046, -0.08337286415722224, 1.0535210375662143, -0.1574294915383305], [1.272547776774275, 0.02536762438565507, 0.07496650262995055, 1.1112685689630188, -1.1653566401222364, -1.5350373233282761, -1.4037369518573743, -0.033463165135486236, 0.10566610970535469, 0.13145613278634713, 0.19673281997596054, -1.918071853790353, -0.02866250476935347, 1.3506457001437955, 0.6961190995011177, -0.5814871136991463, -0.4968495088967485, 0.22658145385866013, 0.2320142537098666, -0.8390657051402917, 1.2774900305716554, -0.2849290013002244, -1.429590209382219, -0.39819727898991564, 2.5308018533121346, 0.020768131008922334, 1.0292442971890718, 0.12519723374588995, -0.42586234366050346, -1.307216487222287, 0.8580647760436305, 0.8455868747836842, 0.08524814257923007, -0.6628460082040362, 1.5771132515736443, -0.8649533720980443, 0.09484733353519964, 1.433801534741686, -0.8233842033433646, 0.28846167104060266, -1.6559317526720125, 1.0932101820471751, -0.12692447963671724, 1.177828485346027, -1.5184240726929705, 1.1202229990868837, 1.1487854971598164, -0.4155460354520331, 0.478624379782687, -0.39595283783075386, 1.5883912481078277, 0.4294344891565453, 0.4941430546492444, -0.4414204977831415, -2.0751372704013717, 1.261201765283604, 2.3570990762724944, 2.0822319229615487, -0.3529293441645174, 0.9305670950465669, -0.5902233639757906, -0.5522995960201134, 0.9696336309006053, 0.04605943821347949, -0.6185501124056304, 0.7811528513954762, 1.1839997491151049, -0.9696474117291072, 0.08260681236185591, -1.197183461684811, -0.7503231984612556, 0.6431568452963287, 0.6175015610946604, -0.21793168929952042, 1.4418369238431377, 0.4834136126002318, 1.9627229588077613, 0.5894670249908543, 0.9421270566747373, 0.8545019788961755, -1.7861244309227564, -0.4049178984739743, -1.0852543406491146, -0.8410756038568397, -1.2728877546302815, -0.528326866291852, 0.38045267216093204, -0.5324046842115879, -0.187245380473368, 0.8991027945748867, 0.6251203813095972, -0.011368296329376833, 1.3430813073452261, -0.8488211700865389, -1.7671273634044142, 0.971692574599703, -0.37326584037209193, 0.4945723810319787, 0.5688250903229655, -1.9673719718439175, 0.33094124180258055, 1.2390381756532114, 0.2646568081747225, 0.4403926037883768, -0.13071442654971788, -0.8129825114355701, -1.380046670341087, 1.702002905114465, -0.5209294893093027, -0.5130847840468454, -1.0919855296105363, 0.3403755696378685, 0.8015934017361814, 0.925637087197459, 0.41632924267041077, 0.5010003649899433, 0.35795604339336723, 0.06172104904864751, -0.15179741413449763, -1.0123940062734076, 1.2885711730915612, 0.08942083071584489, -0.23112592230269757, -0.469279974762369, 0.6145560842500448, -1.4444535660796112, -0.19144615730563525, 0.6834776718610156, -0.5633902596407883, 1.0432753829810917, -0.3327517713680468, -0.53843314970409, -0.5398848203600173, -1.1026716099525853, 1.3841187100969359, -0.8750616737901395, -1.7755791234905414, -1.1960959664104454, -0.27255020513759715, 0.620738668771167, -1.429219921533298, 0.7558565320919454, -0.4984308001141881, -1.0387446418040251, -0.4633190830922156, 0.9964173667730785, -1.0068801337770712, 0.539274749576408, -0.8679028159673058, -1.5403600912112476, 0.5361588523937857, 2.1325414301349057, -0.22402792502524127, -0.001939385286326192, -0.10614213298151294, 0.38066928908145353, 1.1241655510684614, 2.3609711491055303, 2.188930350281892, 1.728309269766883, 0.4297138438829382, -0.06440704991659642, 0.5604037603801147, 1.414633123025233, 0.4873674826945179, -0.9863583605706265, 1.398782728081482, 0.24633198733298833, -0.1802441545911124, -0.42289907033590773, -0.07924623017295908, -0.015189901611441497, 0.31935015201041206, 1.1494435405902574, 1.6224604861732905, 0.7434362245639402, -0.15290837951321154, -0.16762784316346577, -0.45292153039800465, -1.000473511079982, -0.5142174314862908, 0.22325560105042416, 1.0174414573248263, -0.6572615940923927, 1.0446029763348388, 1.0231444018716755, -0.11636067504360581, -0.49273477024299117, -0.7640049352657869, 0.7746155569928489, 1.3133102297372066, 1.1904283671440228, 0.47147308833971163, 0.25306044427073493, -1.4223142600267709, 1.4311823829263173, 1.8652407710200691, -0.5063921087925556, 0.3505799148445416, -0.8631665456381578, 0.00914183449197415, 0.8969113588371006, 0.4507546441578728, -0.4084069372480272, 0.002918299812657168, 0.582146600327014, -0.7458688146802264, -0.7992392184097588, -0.565028405713081, 0.5181195771774708, -1.1304213375304002, -0.5528611661069937, -0.1283525607273412, 0.45617167291825267, -0.6453026853236103, -0.6137115675055974, 0.1622045004346813, -0.39682141694769085, 0.5657010514386186, 0.5100604402165023, -0.0204996773267762, -0.3113566526662599, -1.9260896090613995, 0.27772728661662305, -0.7729574584600253, 1.2186448082065717, -0.16255945620021675, -2.0283241492893964, -0.9302906632079037, 0.1264831993745471, -0.9037467254008578, 0.11914162585110266, 0.23499772795519558, 1.3296037220533992, 0.3906856606012314, 1.2776930027711135, -1.1880992059624023, 0.7090220797071827, -0.007073564211498672, 1.472210519741319, -0.2621985205850495, 0.5728562049968998, -1.0110301255689522, 0.464762266554399, -0.5161092049956147, -0.2083995501307304, -0.33257076015380616, 0.4673336244158621, -0.861476946465935, 0.641996672016749, 1.2285588509216443, 1.9669593267549734, -1.6385884412482503, -0.09472680072105315, 0.8670896322560415, -1.2986524522651741, -0.8442958741949361, 0.3800675672791597, 0.4332641750376911, -0.3574593272729191, 0.9830753260312751, 0.639946500281849, 0.32637648803685215, -0.6265389523480396, 1.1990751892977, -0.47430757702580956, -0.15933960988765444, -0.8734944239930472, -0.35215042563319343, 0.39616230869172947, 1.0761724215760375, 0.4513224376264754, -0.82427371581625, -0.933855027433725, -0.521519709691073, 0.3096711386073511, 0.6423169175682182, -1.5811004193704985, -1.751290012857274, 0.11217967917885645, -0.3337115393182236, -0.4459116035851488, 0.6336769496110343, 0.05419256088803431, 0.13989422365297147, -0.3289131451839403, -2.7665881020685132, 1.360935574729029, 1.2329425151937048, -0.63624265184317, 0.515756753860583, 0.3733468849735263, -1.265383859721904, 0.43718935088299143, 0.9349213690158512, -1.2156859626113472, -0.4466736400299808, -0.055737384702207425, 1.0815774251507024, -0.5036370802310236, -2.027331255656359, -0.6778054454904877, 2.354601510004958, 1.1044998464530729, -1.0799785948209726, 0.7357094073777981, -0.3303426178068686, 0.5827896187304313, 0.6213911629195188, 0.663465042393672, 0.2125740284661076, -0.2486649088853226, 0.3059083655698163, 0.4065974372844698, -0.8398919519792936, -0.645471998633102, -1.2192603787746898, 0.9465147294859398, -1.7864772941954112, 2.2152948851723337, -0.4575049120355257, 1.2213476628604256, -1.4572147941726652, 0.9355691760648434, 0.9198495145710063, 1.1341963960599655, -1.02921876838934, -0.38487912448725453, -0.5150222673658701, -0.25577269651824136, -0.9488697678265458, -1.8647001643908114, 0.5651136329427876, -0.48665842294862666, -0.12469957021642428, -0.7338034998552846, 0.5671007422036827, 2.0208333425565104, 0.9947242138999869, -0.925204131616348, 0.41092769251155725, -0.7856573057111181, 0.12483413473783403, 1.4253981439925167, 0.3065704416998801, 0.138902431765775, 1.6370747766858273, 1.6626612049253346, 0.21584377257213755, 2.322830070767974, 1.6206127246600495, 1.562181088480469, -0.5268154530441415, 2.3949394632276717, -0.6725895381026229, 0.40863727405804195, -0.8883310817059578, -0.9990403997054967, -0.5656364832287498, -0.27257334486330653, 2.2549667947351852, -2.3366499371997502, 0.30458969444089906, -0.3455627964524442, -1.1991886879739202, -1.3367564640319165, 0.1208187286843355, 0.5028426829177601, 0.5134582269048731, 0.901272971058834, 0.6761256092432264, 0.8685502873028749, 0.14260576283165852, 0.9597865178211152, -0.38138271767776954, 1.0365948744389408, 0.6783230348596075, 0.8088801950105026, 0.8864952843327655, 1.4330628409991217, 0.6320922328528148, -0.19526851428602882, -0.7091001920989196, 1.3200763279949232, -1.924226968437116, -0.6610118407372667, 0.7725990039927154, -0.9389374057562196, 1.3217633925717747, 1.4392345214994873, 0.06897391049484378, 1.3632891124479365, 1.2044060335658378, 1.4204907992739144, -0.7668284002877143, -0.4105094634885795, 0.9580697485324758, -0.9821124748031732, 0.2617212518887597, 0.3403929168643881, -0.12477180837503152, 0.6312662110809363, 0.2740528463330057, -0.5496115463720658, 0.7089815137676051, 1.2060289316586417, 1.9272390543628721, 0.3454909993683167, -1.8188373778318636, -1.3870102303273635, -2.513516702004437, -0.6831837511134364, -0.3599297825660428, -0.5309883544227941, -0.006253579688320511, 0.22299994994191422, -1.1168660802575443, -0.3776385159571397, 1.2743283852976321, -0.5496071325146175, -0.1528553553212381, 0.6665974211577474, 1.377817916046079, 0.7183635204290362, -0.6108158162722352, 0.7221461053319201, -1.9262732757026688, 1.1189471127532757, -0.3573410073925134, -0.3500628239486818, -0.23217259855851066, 0.8701354416800119, 0.8732002509928604, -0.4730341792225957, -0.6450742473792912, -0.47070431352344627, -0.8202155269256912, -0.3606802119049586, -1.4152861522316347, -0.622742458604904, -0.27620989671583085, 0.6902309665732674, -0.06809725002108369, 1.0207968075104716, 0.6879790472629297, 0.7550026191104513, -0.02780656298480939, 0.8365108207735341, 0.4216883867933389, -2.0376815699964985, 0.6755534910891294, 0.6515190337821127, -1.871195897617906, -0.7634315709981685, -0.45034789402618736, 0.010673638570422452, 0.08337661426148431, -0.10770026428580688, 2.016665632650312, 1.1651683650623141, 3.7794449923842786, -1.7467772565920692, -0.10801017333091502, 0.010869315080732963, -0.6525195191430355, -1.6093816635755078, 0.8312795630233467, -1.3947145114639137, 0.9990167324713156, -0.20902250549389376, 0.07933381160793043, -1.2621504838637747, -1.6259159772875496, -0.4219861861975268, -0.04158619682409022, -0.9836017375439299, 0.9409391852522997, 1.2974802442347062, 0.4306229387009746, -0.47297753739585996, 0.15140330085815007, 0.4775440187784775, -0.3386106730812522, 0.10928116503802304, 0.7133575292847985, -0.14755050139045475, 0.31257001095138026, 0.030305305219986107, -0.6210894685747639, -0.01789631866670234, 0.35810409888089934, -0.2818003958951742, 1.0707053426258828, -1.3049862402019263, -0.00512431444714286, 0.6096766868411386, -0.39184599463440395, -0.16309845655581048, 0.7608276478305707, -1.1751125358794068, 2.7766592304588396, 0.7291117202156452, 0.5106916260779936, 0.8559457193651, 0.6618640460686263, 1.9155905077389046, -0.5191732390582652, 1.0043052663929872, -1.2724937191749655, 0.20847257798771654, 1.6386312758326143, 0.20875971926988923, -0.08123752004912733, 0.5682690147298736, -0.2526426048041169, -1.7785487895649617, 0.47162944305866533, -0.3838298375725526, -1.9929320093982392, -0.9579740358459201, 1.398119699739601, -0.5563022929599565, -0.8821601545312484, -1.2089926730763043, -1.4791482765982102, 0.5911633724198874, 1.199776393132488, 0.7079412666111702, 0.9767072268546424, 0.2906424992553063, -1.463313073368054, 2.938752076424547, -0.38057900717186444, -1.093338262516862, -0.7474838446431757, -0.2929023037454308, 0.5771975292173718, -0.2985367287869482, -0.2348035396320876, 1.744432823155477, 1.2847903269868266, 1.0205931924537675, 0.8828453812969183, -0.24361121712564637, -0.9550269248118021, 0.8377157005251641, 1.7501292234541792, 0.37935471748467187, -0.8555330403115998, -0.39639687482381136, 1.532412907710254, 0.2551113811250992, 1.944287007350205, 1.021736425658942, 1.1303741600797843, -0.8439746447795943, 0.7990990584736365, -0.2385942975012577, -0.3626597898015449, 0.16891848974451118, -1.3734525478597257, 0.5691772146930161, -0.20106219230971903, 1.9351775458652476, -0.8356990827496551, 1.1330034685289803, -1.102552383014686, 0.19941158753662297, -0.21503936437112836, 0.3493244410917588, 0.45120994729633357, 0.38671661150183056, -1.233848276435118, -1.8899912973700577, 0.08990088361869046, -0.8966786600343503, 2.1912375612441677, -1.0406005655266393, 1.39292108089811, 0.5479624744550857, 0.7877719576360257, 0.3083187576555879, 1.126809990346176, 0.2549900094147792, -1.475904780640482, 0.8889483608120545, 2.1599709822415036, 0.5360105203263713, 0.8753169743749256, 1.7678814021403464, 0.6523673595752056, -1.9834952297841837, 1.1285672492444523, 0.01149497027830282, -0.9934155667388941, -0.10149953480618616, 1.1481510793954512, -0.4915455968463398, -0.6247902239294867, 0.08501371008295874, -1.3960056575295396, -0.2583214332376279, 1.093037841880368, 0.0421283571056064, 0.31708426688807984, -2.5467762071701694, 0.22796368614792953, -0.7733430608104962, -0.827701368555068, -0.01530372177769783, 0.9498392095830448, -1.5368290430721598, -1.4646525046713663, 0.10867634797021958, 0.5449812594670246, -0.34145303690854756, 0.1933530758922357, -1.0424956558157503, 0.12356570787166792, 0.6924341467497501, -0.9327776130562783, 0.7504925441177074, 0.9888568356261721, -0.2820983720389474, 0.8696359694086808, 0.4781192166438191, -0.7149254201760605, -0.41116527305182243, -0.28676235130960226, 0.3731864106067161, 1.733712226345244, -1.0087769593566742, 0.30787572847656186, 0.3666871132550457, -0.7342984493019633, -0.1008250030796674, -1.5328226814381798, 0.24705322900849544, 0.42344524241690296, 0.4234712534475601, 0.7644754569801592, 0.6784323541557267, -0.12314789808422105, -0.7684689052945565, 1.2439220030983456, -0.08624472955833529, 0.7302731585951637, -0.6676777826556671, -0.29817825851151164, -0.7069313960332794, -1.562914999063842, -2.3748132165623854, 0.5272951297389157, -0.4744340977137633, 0.455349498929324, -1.620332115221033, -0.6316564025025023, 0.019474273533600088, 0.0868977771234773, -0.17437899398037643, 0.7305450325180747, 0.44999959296860736, 1.5534606918983578, 0.7015602192930354, 0.1713081603451187, 1.1986127070247556, -0.10148890659600891, -0.2708463624353095, 0.8710744683123963, 1.0854856672388544, 0.26534596133505106, 0.043356561245409604, -1.5270600162157315, 0.40418418373166015, -0.1479345862263383, 0.006198396568233552, 0.282670617952294, 0.1813164997948004, -0.8607636594245439, -0.8366459327141477, -1.1629008338427627, -0.7460424356650399, 0.07162065198709085, -0.3888591227155079, -0.6662825572425826, 0.7260003280300732, 1.6526295285646813, -0.8455071527431535, -2.0583256808486996, -2.4526612055318404, 0.12675558004392898, 0.5058278763968829, 1.2745879416417394, -0.3494949668819296, 1.0237906476914882, 0.9779742133421916, -2.1259796283388654, 0.20037730541658355, -0.6251194095447183, -1.3584517682814938, -0.42109593440981374, -0.10961532327542103, -0.891920361521737, 0.9108984891242347, 1.5571332262570072, -2.184291710817177, -2.082619964713371, 1.256239124538503, -0.6198947051541835, -1.0459791609775242, 0.1480722536730468, -0.056154960912417444, -0.6533648484354095, 0.7344952222591182, -2.173174746293172, 0.6026438772020805, 1.6589419401907113, -0.45863715261305954, 0.3562135502505963, 0.6022170894441635, -1.091920999748644, -0.8566064951737861, -0.09971371074973887, 1.1662132845380835, 0.18834967689589904, -0.7498638784328767, -0.05157429001094662, 2.6087332746838494, -0.5841325092374796, 0.9457226893923103, -1.4796670781921801, 0.6488355093407225, -0.9127324022496235, 1.726278977517073, 0.6287884833057918, -0.6488871413018862, 0.7819538163199948, -0.3299322581085489, 1.4075523739120284, 0.5302050007961762, 0.2022996023878442, 0.6412340240093348, -0.7912366290638887, -1.5251407805938335, 0.1874482279799768, 1.7640108372133227, -0.4867438861007137, -3.2705201643565913, -0.2878349876286785, -1.1495844904134989, -0.4299722393076969, -2.106481265246161, 2.3377345178171662, -1.6145943694839506, 0.20231162464501395, -0.0125892509183575, 0.3201599533408052, -0.12829230040926226, 2.981621437950943, 1.3799749110572603, -0.5001516378633292, 0.0634583270998238, -1.7226523670028306, 0.43307880499749213, 1.6145349788992496, 0.22325388558679216, 0.29203591114189437, -0.07670256229618375, -0.5920086067874812, -0.10599881263279304, 0.31341114771988904, -1.2669455870526278, -1.9966577140844737, -0.5839627156496194, 0.7595494151929864, 0.24968074823573588, -0.6555346745696724, -1.2280702372279566, 2.509221162642484, -1.3794189553684777, 1.2041181119388669, 0.37621304667034283, -1.008482201920689, 1.0623859451689022], [-1.1888515250719216, -1.4740307447496217, 0.20210886278413584, -1.5812107549689922, -0.6596384804351089, 0.5496142506527691, 2.5235814176612648, -1.121820733776767, 0.1946693460681507, 0.41817570367067114, 0.24227523673469342, -0.011263887419885803, -1.6208373515760772, 0.18903530415561728, -0.4795437934842374, 2.0333658097166034, 1.9149226450023926, 0.38363080326555227, 0.6881861676695897, 0.6598368386277984, 0.013289247140970779, 0.49794288381927093, 1.8956784643641644, -0.30875595440625353, 0.32345369589881295, -0.9817596730216115, 0.696758420735754, -0.5516880108612071, 0.37411567376781585, -0.3465169436302294, 0.06050724771558776, -1.461752141093195, 0.8967746524841956, 0.5768493517568327, 1.1197835318389038, 0.5672065318142637, -0.2418666137705649, -1.6647182792560127, -0.19779817156532198, 1.4203369114731976, -0.43423645916628467, -1.561016739255247, -0.030299839480578586, 0.4450387652174222, 0.3126873292545169, 0.17499388273358427, -0.34283937930110325, 0.28471098725302124, 0.19123898150708538, -0.558874130867233, -0.3220690196771694, 1.2033727134405403, 1.2655469869458171, 0.8094059007167853, 0.8388283775622393, -0.35802974900099316, 0.13855975377057453, -0.037151503938624986, -2.1371116974098685, 1.6253998950548785, -1.1682467481297962, -1.2344556088439012, 0.9297632648431741, -0.8384049587955904, -0.6636595858827109, -0.441493262299523, -0.13624764964411804, 0.2060021852354803, -1.2678353795505373, -0.6585253848033299, 0.6108774092005103, 1.85592664177406, -1.590767125633023, -0.45773780137247766, -0.8565624982408682, 0.25193547964659213, 0.21534314237637614, 1.1530412811995285, -1.9662594728373803, -1.4439700343014898, -2.0582174919359875, 0.18650198598573842, 0.6607453303953891, 2.134220703287969, 1.0676190565817367, -0.2578620157886703, -0.9275839372209377, -1.0357275206213001, 0.43217306030992464, -0.9350302848514577, -0.1477951432181168, 0.05596941202043594, 0.34211544038957603, -0.7790821803125868, -0.4506175634173439, -0.7139194729093333, -0.8996135516270627, 0.9551814540571547, -0.3135402504812172, -2.277298216170308, -0.3012517324137308, -0.7675232248199026, -0.25599360030192764, 0.2155318149000188, 0.01237275085030242, 0.8895982108208008, 1.7677472912995214, -0.23793661835206703, -0.5353509749518998, 2.1113558814805, -0.40028739499339855, 0.5885728220394868, 0.1668510380891247, 1.3792119705732309, -1.1708941151265306, 1.0987053747000914, -1.2911285295978878, 0.871301252219331, -1.986114892137181, -0.12186596012813783, 1.8539735894401763, -0.3403880057896034, 0.4691061741560358, 0.5930260133682848, 0.04636176198704386, -0.08785677968485318, -1.3859419313016763, 1.2068148132510303, -1.198851461352968, -1.5234989142015865, -0.30976426291901127, 0.5316945533140081, -0.03168472558547457, 0.12999173611096626, -1.2617816258222239, 1.8289762432828092, 1.1312331546195473, 0.8390364285598244, -2.1706623639363034, 0.7820097122066041, 0.502058489416413, 1.958675386207403, 0.5775771371278822, 2.547400931410797, 0.12399709619751763, 0.056016112073679104, 0.8159026032832077, 1.4783656336689697, 0.04927870251935093, -0.8988611786615632, 0.2044643226843438, 0.4193253828396135, 1.7748882501404168, -0.8586778022318253, 0.22306000885404234, 0.8456051198190718, -0.7748217786008749, 1.5613882871361064, 1.5629878203109604, 0.6949104343165218, 0.5034594482892488, -0.18751829456307828, -0.1938939138653943, -0.3368249039490313, -0.7036058338231131, 0.07602284484095485, -1.2636916867165497, -1.2497971779722765, -1.160281596112043, 1.3076477008318161, -1.449106070535852, 0.3971838760484707, -0.308871362754285, -0.5359259284179982, 1.9173562377197266, -0.9454411516661085, -0.7738318725427286, -0.6866175771706237, -1.1647103528509397, -0.8923319220075224, 1.2891850177598554, -0.9496922520193133, 0.2132950109267761, -0.49043829278716017, -0.2919676980636337, -2.2606629788036674, -1.3153498385772442, 0.437911795801858, 0.7638774115557243, -1.4871949027204991, 0.6449475354965448, 0.8800409434032453, 0.5540774802282916, -0.33764430573965054, -0.23398400420539756, 0.2241007691949648, -0.8528275102848156, 0.24026380871094674, 0.07385870752551288, 0.8320389768351438, -0.05393215756190835, 0.7409602690941346, 0.015162223999794633, -0.05164010018502246, -0.690395443461018, -0.3886941080370952, 0.0318675289658424, -0.9827564405135888, -0.5374011385012085, -0.8887342794554814, 0.7816731369546569, 0.5820723004954522, -0.8043902042558693, -2.0699590749665333, 1.0781487895060398, 1.2736319074694524, 0.12373835326562847, 0.6828521991330007, 1.3268318363385372, -0.43666084156538293, -1.4140599263139093, -0.6405813892910734, -0.03304669427411549, 0.31696043775838334, -1.1092439807541647, 0.3000331838760152, -0.9826808221743452, -0.9147768297685138, 2.0455514111512967, -0.8770332033624122, 0.33575755508823346, 1.6093636670759324, 1.6374981326581672, 0.3364101734637945, 0.66115636224366, -0.33479105634843914, 0.9139319667310429, 1.8296730602650528, -1.0535861022644226, 0.022199617057997268, 1.4213851307535752, 1.2038213527751738, -0.34229617078111624, -0.014557322760260673, 1.456132896910736, 0.17270686313225406, 0.5736707461790234, -0.7476853993254743, -0.3384176031787233, 0.5371178327516932, 0.1298127304790529, 0.17249453570275072, -0.622359358558797, 1.0082252224651482, -1.0015041839510734, 2.0722213358074364, 0.04276549227041435, 0.5251964235910316, -0.9419067070907059, -1.1190114578712178, -0.7950542040868457, -0.8981264812876941, 2.758634179834757, -0.9958814347079157, -0.5627812070307424, 1.092153314873412, 0.579207219997682, 1.468744827589417, 0.5455675352641899, -1.0513548676113253, 2.3032068941941404, 2.6263089417595187, -0.10503856637592295, -0.2793010549216866, -1.4657974442478114, -0.30571438824516906, -0.3455735154696118, 0.7387843666326234, -1.9989534088646652, 0.5187088654300601, -0.2769245419609489, -1.2895413202594916, 0.022408449761845382, 0.040413167745876506, 1.9204503811705833, -0.011569986828069152, -0.6005109975682342, 1.021005541008046, -0.5978369277724146, 1.135106678215984, 1.611097160851576, -0.7958679241875242, 0.1248040624551639, 0.9253220023237895, 1.6111537247465502, 0.10444807709962732, -0.48215384353481683, 1.7815186906473819, 1.5238130380423984, 0.6474177994429604, 0.6088450227345794, -0.49145922761380795, 0.11335374202369192, -1.4578509045105479, -0.056694375027060595, -0.022244584830615668, 0.3856307816626468, -0.9028083657878577, -0.5205727593359782, -0.800863385325563, -1.2752655885767445, -0.4037229644234699, -1.4826049144953455, 0.1225451729203942, 0.004617300104843008, 0.3792603532427984, -0.34674874480867585, -1.3906626326119458, -0.7437141702772283, 1.239414347029808, 0.9098255208826934, -0.7010390331554397, 0.9168414672512454, -1.690082392807905, -0.16773044265695244, -0.33383158787503675, 0.681719644185664, 0.3982253583382562, -0.6203290816776948, 0.51720692662884, 0.24086480481102596, 0.2276458681731232, 0.6941864690050326, 0.19081410246643174, -1.4770663656542173, -0.7449217835763972, -0.12736036937788975, 0.8181513036088126, 1.3395920061318296, 0.5433150054467084, 1.1847467067944715, -0.9671398236401146, -0.18210081318285376, 0.08599146535453046, 0.4714928580793807, 0.8140088435405768, 0.841955517893752, -0.5352009463548606, 1.2245976747129825, -0.6192895333638953, 0.6367227342564923, 0.5995626454276533, 0.14085136896705508, -0.016975078446035494, -0.19388830653215264, -0.29587193412342255, 0.15896208601855352, -1.960796381873848, 0.8669687476842373, -0.6892655564618624, -0.4931010843999096, 0.9208233189316333, 1.6102432711382804, 0.32143959911687137, 0.504168699445238, 1.6409059932288557, 0.7313617792783553, -1.5132140479704645, -0.3742281979916211, -0.6785836031726394, -0.9204544796655211, -2.0594868617857665, 0.9582038006650393, 0.40267778687756817, 0.7158708453506989, -0.242139942427684, -1.1791427898610372, -0.47083701141832934, -0.5689270137280688, -1.9362696349755784, -0.05428101838756909, 1.4999014569151503, -0.5455645139885229, 0.5150931906123529, 0.4246904932432263, -0.22040952731124755, 0.17553867524929245, 0.07535277848532461, -0.8071175475638056, -1.1844348129787112, -1.0066319102178818, 0.7002664260022545, -0.9622187393365144, 1.5462054323267995, -0.504072837589731, -0.42815342233815573, -1.2734765522516613, 0.25733466228267504, -0.24549407292871, 0.6778092638481805, -0.5746379641477546, -0.13697804304930244, -1.0731275534873217, -1.4403822149099526, -0.533538372029921, -1.8722280555932633, -0.8638986703229475, -0.8237250312070079, -2.295933373125738, -1.2620251917889658, -0.9083317164113921, -0.1809810527968445, -0.316290130910171, 0.11664283889999075, 1.001969439755565, 1.443559516085105, 0.9345889518203492, -1.1719939195810831, 0.6322147002054663, -0.7958743127726468, 0.029755433675035838, -0.3085450041684411, 0.96239326618098, -0.30632135741605704, -1.7995667711381913, 0.9533460792282689, -1.1208982934396352, 0.7685917896195277, 0.21799735772151219, -0.08924360070816977, -0.4909338578795364, -0.9353387886244124, -0.48963280099316014, -0.9820657106204134, -1.345784215640471, -0.3297225033649363, -1.8619224012886397, -0.13296231885950238, -0.6652189892791801, 0.3896528073377605, -0.941729883417179, 0.43878382042676317, 0.11608611207838927, 0.8131445304158017, 0.17379794791312228, -0.09930124503116379, -0.8810679452330865, -0.38469664651732605, 0.775351944596577, -1.85949193485415, 0.7656084941004178, 0.6300864132722162, -1.2612036647204805, 2.0772191613170623, -0.7381810853796134, 0.5916526048024078, -1.3999898755229991, 0.7569929817851894, -0.2488534246537292, 1.6299242255194488, -0.03056389224595428, 0.432317575006624, -1.0125265444411606, -0.4898964752473167, -1.3890505098306727, -0.2583366297083323, -0.8184473406759711, 0.7608477169220837, -0.33857290845167876, 0.4408330506174786, 0.3051430828255205, 1.746379919984645, -0.7367913535330883, 0.6205304014694226, 0.2932297206578705, -1.814703887244982, -1.7895152537323533, -1.6990956307104839, -0.002411742882364984, 0.7217593063587529, 1.9549394456250053, 0.9130308418519388, 0.1057350861426715, 0.06110671182004167, -1.345575652091991, -1.5253017940720186, 1.0710506353610403, 0.16883430848231343, 0.47011717418290594, 2.033327515731957, 1.123898433465679, 0.44273998371718776, -0.6043652343371407, -1.381296710795289, 1.108839338660218, 0.9912504471136002, -0.6248072344959447, 2.2075242082816797, -0.15350529564900864, 0.21356011987515341, -0.5445960246740034, -0.3178682929282199, 0.22626238849327696, -1.6662631928051468, 0.2973936236142729, -0.5147730550748505, 1.9225352547060042, -0.7285537579794332, -0.9616783483828727, -1.51816956607824, -1.2192269934663233, -0.39068119686820385, 0.11246014434027778, 0.11505248527782319, -0.23629314775839694, -1.1711919141636737, 0.7856419147680818, 0.10353003558059386, -0.7074265312132126, -0.2823790506177895, -0.6127242934399286, -1.5949405722259051, 2.406147336169832, -0.7816090631878491, -1.1497728281076054, 0.6682519931893919, 0.3995971700223821, -1.0800808017855668, -2.1504931553479314, 0.3300714165331909, -0.8224382606410136, -1.1240584666620936, 0.5643877994652191, 1.166610319698798, 0.4287219635260616, 0.6154231600843362, 0.7635513277453247, 0.3549256807030611, 0.46750622619632987, 0.11821493197002317, -1.3623863552912001, 0.5437305910588729, 1.0671954645350787, -1.4193619039900907, -0.0453642417383274, -0.5926763354104377, 2.020563455642433, 0.17010388865641288, -1.0412190686040272, -2.0362868281408892, 0.17471181781080658, -1.5810793836249766, -0.8150358042296126, -1.5944900639815758, 0.27028759562948557, -1.1204115757653133, 0.018710161250863045, 0.20149484060461242, -0.8041147255811275, 0.20673879818227872, -1.3676452456567836, -0.18176055025501714, 0.808355506478851, 0.40164224732924136, 0.9358582537514756, 1.0893378834737235, 0.19679283825338412, -1.1973433440472767, -0.0871741709860908, 0.9136750315498767, -0.1433313404527393, 0.6595975350878845, 0.17474080845911122, 0.3929759341388492, -1.788344559745661, 0.6689041421305567, -0.5609052318925315, 1.6251216740312235, -2.2941207347157664, -0.3756674387919636, 0.5314374632279293, -1.762486309940839, 0.2661370042506813, 1.1427028979071778, -0.24692468281455818, 1.2254550935501711, -1.2037678071391094, -0.10395222899647262, 0.7493809491760955, 0.8855992906913275, -1.6221643783436996, -0.6346318521224228, 1.1335589672536466, -0.4494319164710903, -0.5862486875019537, 0.12005043327683988, -0.24338665605313878, 0.053415145934464045, 1.9124689750749042, -0.18149783830295185, 1.15997488326384, -0.1689084121083215, 0.6205383747049631, -1.0253450133131448, 0.6612538490634341, 0.8239309441763575, 0.033483585324053586, -1.1503262275623916, 0.9116870901179084, 0.5967759461348124, 1.5854629601332708, -0.5431762418838653, 0.3016338220119646, -0.07872185935130041, -0.10647037881424114, -0.18200833826386326, 0.465683654587866, 0.9064012215239423, 0.41854678251219873, 0.19869326564575, -0.1545076828894601, 0.8183339276910454, 1.3351890264334518, 0.9964643260112834, 1.3641064163193826, 1.1775358856216593, -0.07616132360254436, -0.9744499226483369, 0.5303258149836139, -0.6113621854719707, 0.9050987763936846, 0.3867684479394434, 1.4482859302244866, 0.9009899650203611, 2.3897201367120138, -1.229573136838007, 0.1639286934723407, -0.2603807898784452, -0.2510172557905789, -0.7285992417647026, 1.4761362850069977, -0.34110262645189654, -2.0526829337786543, 1.1752084165487113, 1.2116639938164009, 0.1457579124791211, 0.6912458723109709, 1.1675130706408225, -0.46218129345383757, -0.9443471688042717, 1.4069227357436707, -0.6333864180113742, 0.8836847889023205, 0.5776079940492073, 1.3320431514835793, 1.493699134708023, -0.49411578526320965, 0.15136152952197682, 0.9977576909340062, 1.2989807076783504, 0.6690184231166254, 1.3054310628171375, 0.07145677262308066, 0.8834786013386138, 0.19050042085149352, -1.1223141436803719, -1.3577238288376732, -0.44665971108219665, -0.7575990967738312, -0.7942850819309367, -0.9951326750878933, -1.3187361530072708, 0.5217184292973707, -0.7912335428373165, -0.5864075617574827, -0.17178796380617786, -1.9464419599965064, -1.0023144604165437, -0.23971817549828367, -1.975769782782472, 1.3646738999687567, -0.3565968649488157, 0.12872637838033527, -2.992504150435269, -0.31912785512873815, 2.1491232183092213, 0.3306801561075987, -0.12777529066437676, -0.4590364071316876, -0.6300303131272056, 1.9918584040768692, -0.10751205415134069, -1.5617708321890007, -1.320980647267321, -1.1655753425716449, -0.1297468843197469, 0.42660907081860977, -0.9968344406356591, -0.3691827551456595, -1.1036290086518867, -0.06055966103039972, 0.5325695270173119, -0.9107070798887339, 1.8382381189547026, -1.1545984293994629, -0.5790756384043343, -0.40438475103640675, 0.1875598719238943, -0.36248198915379254, -1.7931910291016053, 0.6467281148279376, -0.6287719001851836, 1.066955083776602, 0.22908983734156188, -0.614724908571651, -1.3484611821533576, -0.36860706579370517, -0.22436030127356435, -1.091093896075899, -0.4054164992247696, -0.9903076840388051, -0.9604501545624479, -0.11972728845872617, 1.6161255166082233, 1.435501561237733, 0.30287206935044986, -0.8811547998872818, 0.5904542215619684, -0.2753579572653856, 0.613250405593145, 2.4966861577259074, 0.2606168936963307, 1.8965858275932415, -0.38572431548524744, -0.5167085398019573, 1.7513141333400593, -0.2899718638205399, 0.03156756627391902, -0.5920358908816694, 0.4694018342348572, -2.6823559494592386, -0.0884444945233022, -1.0388609439728054, -0.19986802122135422, -0.2370097942682277, -1.1742324622437754, 0.732697302863237, 0.06422290866693826, -0.8016881291557097, -0.710120586252848, -1.6589256374867456, -0.8538062505734235, -0.07072702345599004, 0.5938262877137642, -0.8725572916648247, 1.0621814836913168, 1.3920837236311412, 0.24622021937761987, -0.24148065581885805, 1.1885365630084417, 0.8521852786287453, 0.5789677162087996, 2.0639766300433866, 0.372031493403928, -0.1860066721758216, -0.41699112284588064, 0.32714610174120606, 1.58757168601835, 0.8011151025051304, 1.8982272773762416, 1.3420593517974087, -0.4081718442454508, 0.22991368095050074, 0.24426419203815017, -0.0846879882707059, -0.5563579828750648, -1.2694623220323, -0.6088676171190645, -2.293706454980234, 1.9993312580317626, -0.7284865005965867, 0.42598300471993505, -1.4225379093488497, -0.24369088155105903], [0.2985953559998613, -0.37868674401723845, -0.4768215880124231, 1.1267250383549077, 0.2073544037280832, -1.0236682021988683, -0.043571608576467635, 0.479450411426088, -0.22364725735272814, 1.0209811390327233, 0.3398135209844363, -0.5132942813607975, -1.149673871654714, 0.2074145042866962, 0.9490829577893531, 2.074961600131358, 0.14360720413617126, -2.034431893295172, 1.1077124370409082, 1.3689955893331345, -0.7186576702278424, 0.704377390082156, 0.4724882553769261, -1.0674768096804594, -0.03848808905240788, -0.4461501593056048, 0.3998566872050777, -0.3035604782707498, -0.13386146091379542, -1.944474017937164, 0.6037773818036698, -1.2548589986782437, 1.565926826072907, 0.24461430582746327, 1.1472996411825982, 0.09678787390149617, 1.1146974014998585, -0.1259719498778894, -0.9605920850509472, 1.3576007884221735, 1.40066293249004, 0.11998551422535828, -0.03911896258194295, -0.10801518102576793, -0.3244355332875852, -0.943968151065869, 0.7847296412789019, 0.9178470367845782, -0.47200607895980284, 0.1865471379963769, 0.7425750345192781, 0.9547306054616304, 0.004454624551109116, -0.23887142706743708, -0.7316320137754893, -1.7975763914633085, -1.0538680929321314, 0.133536005679791, -0.6907662917168845, -2.055112916829122, -0.1917417736458936, 2.5873444293877523, -2.1366498524484183, 1.8621003940223044, -0.13115379847777178, -0.8853010928582371, -1.3025290386690926, 0.59418557067212, -0.4790533050557608, -0.8463060045636973, -0.6705694481662945, -0.4823140407871988, 0.1844691400083592, 1.5420709191972333, -1.383276642517411, 0.5628522966758754, -0.6119666943786745, -0.4453249583693869, -0.19648590645784242, 0.9146199069232637, 1.553826728563123, 0.43224040137001474, -1.0664747697804178, 1.369776728101196, -0.588996243960363, 0.8590498062257171, -1.1287114543290016, -2.340321413317697, 0.04864873561573507, 2.1535185161830617, -2.118574814842116, -1.2023020945874876, -0.1925639522020879, 2.6110413243828314, -0.5857400601375834, -1.1089067942601718, 0.8364181416674341, 1.5422524398293367, 0.2378322117391621, -0.36281892544160416, 2.024568623185014, 1.416700213039023, 0.8503291040837447, -0.5649641717910397, 0.2644297390060316, 0.8624561610663783, 1.0684358128631934, -1.1212178003853497, -1.2262238134421923, -0.6672682973385808, -0.051498364571769525, -0.5161803908930005, -0.8881261647880336, 0.9914122178895692, -0.43416270077789065, 0.7268823291074316, -0.3416978922347225, -0.7056801798949393, -0.9307022949908647, -1.651343401299149, 0.17819177214564247, -0.5197011584171284, -0.08216747208386299, 0.11033368736136735, -2.686241821656403, -0.3505189407513327, 0.5595701112203846, -1.098271718027001, -1.1492895136162444, 2.060256050392144, -0.37533189268747147, -0.43075612267833213, -0.6744957369868971, -0.5093518997373514, -1.1614509460319868, -0.7202535154243508, 0.788850617705603, -1.4163630514974983, -1.0547753986314772, 0.12064119077112347, -0.17720429547691172, -1.0277605981680147, 0.27678591439694705, -0.5478151773255634, 0.2904132653944639, -0.49513699547164053, -0.34490928102839347, -1.0965208159409083, 0.22502978725996994, -1.0818185381491858, -1.1692681099788211, 0.6738242108943979, 1.2476688895192756, 0.11121380254190562, -0.007007930164623058, 0.9599902606776809, 0.33019110466236323, -0.1126576358047955, 2.2490747964339883, -0.19928232372352095, -0.7561359772409197, -0.940545876921239, -0.34270978753512454, -0.1786029010974338, -2.2443111041177, -2.1658417633655422, 0.8119827709594346, 0.28533142732573274, -1.3360058915674056, 0.2494093490447228, 1.4891944221982811, 0.7111696193569177, 0.8732709340490235, 0.6312258011846554, -0.1938518655885426, -0.33739032538061764, -1.3872072581248047, 0.5805520658253895, -0.1452946320213734, -1.5109942482315575, 0.9001658141889188, 0.27745817273515, -0.12714122275402748, -2.158822281119418, 0.9568195563009465, 1.7637394145517558, 1.8759130945490783, 1.957375061374811, -0.9113111557259908, 0.48562414729707243, 0.059407973114838815, -2.408992779884702, -0.8592094314054621, 0.11276994562419278, 0.6803177645960402, -0.10079122176647723, -0.18074797626179406, -0.3128265988194335, -0.3871866405667311, 1.9610738901123843, -0.7123061105585189, 0.10724245771394467, -0.051605562441680096, 0.07841076024782682, -0.9285233466175646, -1.4367929770685082, -1.0349718512442214, 2.0521928640071048, -0.411796267990571, 0.011884197012055552, 0.03963049723422204, 0.47528487076849996, 0.5172445861424141, 1.200110788684481, 0.8295421060273489, 1.1193794355720055, 0.023544624883945976, -0.015372548626606239, 0.6732286716606384, 0.5122424209198679, -0.1250428283510873, 0.5724333237431443, -0.4198194627353366, -0.8056294206117176, 1.0724419840343267, -0.34687019278415926, 0.60247541933027, 1.2517511519558293, -0.9575107038388102, 0.6167198224710788, 0.4772735132521887, -0.23534494130975897, -0.407758860623485, -0.11205121978191605, -0.09922091391496063, -0.042617767745541685, -0.4939943789624177, -0.297963142594616, -0.3359634949110064, 0.39172181870796946, 1.774124967625829, 0.6904815927765966, 0.5869207384728445, 0.48862977443776007, -0.9598496359132578, -0.38554282720393496, -0.526108924538929, 0.9848817081551527, 0.39338196367238965, -1.2248120994646734, -0.2240026393052296, -0.3120106602549605, 1.5213458395729949, 1.2061271213904297, 0.9874871961690176, 2.3490824698510595, -0.9950941881908951, -2.6543183677130364, 0.6391723562720971, 0.37639588847679895, 0.8166817240085904, -0.25865770188317183, 0.48093396137477945, 1.1159598342370005, -1.95136654094566, -0.8313334582745942, -0.41510544537652333, 1.9421015028714124, 1.1571440355968436, -0.6357842713270643, -0.6403937984964837, -2.3768552388653914, 0.2910448728193738, 0.6895394251341987, 0.6368357372286456, 0.14004961298836668, 0.11805956130368098, 1.1727355226295215, 0.08204497322890764, 0.1005419478281163, 0.5613396441433752, -0.9914141569322483, 0.14822850100863944, -0.6723822893131352, -0.15137563421569603, 0.03138985944691421, 0.20095680669598878, -2.6576625917486623, -0.17449782357343724, -0.282899994180786, -0.18225673981864152, 0.2815958227428692, 0.5786030951483142, -0.7129882811557018, 0.5854744496011668, 0.04962393645574347, -0.013051938917108699, 1.5883379041228738, 0.054148463430309546, 1.620589391335089, -0.5904199685820742, 0.3055793161577562, -2.3200074367313404, -1.1289331558252893, -0.63903762945749, 1.1361021160132638, -0.8791782727649491, -0.4961772353894133, 0.8944863384376204, -0.06349227725448582, 0.2754611192121363, 0.8207828255963359, -0.8401059871488585, 0.056251810942592496, -0.4325868672403505, 1.9397280520558287, -1.1490625051374699, -0.28404529665871464, -0.8226266666242027, 0.9466376643655202, 0.3897160929578977, -2.198809850518503, -0.38470538712858676, -0.4990225811626062, 1.9069654755403649, -0.011982105844775364, 0.8090904091269878, -1.3340998711225605, -0.34093537730464607, -0.6609413433384581, 0.829084588164979, 0.8227985277083526, 0.3198368431873314, -0.20642682425172387, 0.7811789402944126, 1.6110291525129197, -1.114615437016903, 0.5895369279835011, -0.4603022377075699, 0.9605213138047837, 0.7101424613814433, 0.7857306688794327, 0.3065310375074826, -0.4634850105338989, 0.726777009966781, 1.8465941779347599, 0.9556048859892333, -0.8335035797661358, 0.6445053222116257, 0.46581650481362985, -1.3260322966073095, 2.0241179484808773, 1.0956146422984312, 0.7749980865713897, -1.1882802829006331, 0.9399632146876425, 0.00969354645683147, 0.6049210883041798, 0.7150630325423141, 1.9351881211087623, 0.6436129069601845, -1.4575962209401934, -0.5195053283266801, 2.433308074855852, 0.5838739013659877, 0.19543126824975351, 0.00931156691580681, 0.8492584834118878, -1.1055289080753457, 0.6172440532933882, 0.4882016486754574, -0.42694321247643885, -0.7936374760753111, 0.9382374253623946, 1.9529799379174457, -1.0817459444111788, -1.5206268857962446, -0.4857123180025316, -1.0329197503352252, -2.5195025184880455, 1.525587478426784, 1.291746972812834, -0.22940452827429803, 0.9148331178749816, -0.7821572908351635, -0.05939476499592853, 0.9929710511470462, -0.2454049533800844, 2.318770097384983, -2.1486798631365778, -0.36843907134848985, 0.5272415852825657, -0.4123805919725354, -0.9414086826989765, -1.228567523616349, 0.6756666972324403, 0.9482445393683759, -0.173837549531218, -0.2724767785444064, -0.20754206354775603, 0.8825879213943566, 0.19601622718827622, 1.6842592236027167, 0.6274638931736092, 0.5253290773221747, -0.8801135089004426, -1.332296072301337, -0.22321512404568292, 1.3323561717300085, 0.532852151307461, 0.9652682211589686, -0.25752405439696213, -0.8613859509520037, -0.21908478368719816, -1.3647805217889222, 0.5182210884766566, 0.1878247417908161, -0.7113481203703389, 0.6186328128935005, -0.29230679959425127, 0.21976613187701344, -0.17061017073434726, -0.024003819931049247, -1.2739477475309244, 0.29065959695349713, -1.6501572920025283, 0.3817977198937706, -1.6195232839855194, -3.533436920204702E-4, -1.400472293746237, -1.197035449492275, -0.2889128762873169, 1.2703970385945509, 1.8614326032144985, -1.2009016640275791, 0.09409525489326483, 2.2000223255496025, 1.7433406026712435, 0.03881371293085131, 0.8029759677208214, 0.22118811065725077, 0.2838374718232228, 0.03635987193542739, 0.9016854848707848, -0.19247240497360718, 0.11076387976203517, -1.750103309612171, 1.5157105200194292, -1.270800488403067, -0.2677672783034997, 2.292517503168025, 0.6308234471776046, -1.135257729421158, 0.6738893539871876, 0.8140129223352365, 1.0354329605016628, 0.5213305669638455, 0.5361562048391926, 0.34590749734189435, -0.507663736759836, 0.11081068712555657, 1.505642720176867, 0.5662593140259196, -0.7575474941307697, 1.2356058178251657, -0.026423431910342885, -2.1326912306522345, 0.8038104457786914, 0.4102810996366974, -1.1683974718775672, 0.11815891663257423, -8.50228030041739E-4, -0.6046721824521399, -0.2367899863517806, -1.7547498134084512, -0.9818724607934338, 0.5704184893436728, 0.3377774540650769, 0.7031611574469624, -1.1530133152406181, -2.450320149072828, -1.101299839202845, 0.5874710716066537, 0.5551733221150869, -0.9096363899206734, 0.27667262011577093, -0.29352450851830153, -0.36406069899741283, -0.40027731412100603, 0.13419276890656318, 1.3287364065649803, -1.9599761403424656, 0.1850712823731677, -0.3912505006877385, -0.6320539945867496, -0.580082858140571, 0.34249423484419145, 0.6187104014442624, 1.1958549714335553, 0.5647412427023929, -0.6550946475980478, -0.4273335092635929, 0.8304451767101797, -0.17745208015509759, 1.7358895595835468, 0.4496925098937177, -0.36491113621716514, 0.5069134783259278, -0.6542323165757593, -0.04473926226031736, 0.01893954329818362, -0.11331367953620995, 1.0556346242892343, -0.7838681227856213, 1.0356138965108952, -0.6163780333358174, 1.9235872779828023, 0.6535505671953552, 0.3102458235358319, 0.02663153053876337, -1.3909233650978277, -1.1656936902693333, 0.3697172911658326, 0.42611051311075404, -0.615820322249055, 0.9670633142136442, 0.6705967912872475, -0.3858543014799498, -0.4476590898932393, 0.6908072624974226, 0.2995943689799909, 0.05682464977955809, 1.2614630818553445, 2.5191558920816592, 0.055574159011793675, -0.9026840748809674, -0.32862683176192514, 1.632711169928417, 0.1220651202024214, 0.8441109705877289, 1.1577412500915552, 0.3346953362394109, 1.688820219149554, -0.2789502700212329, 0.026706736324745524, -1.1989634166982452, 0.680888777167996, -0.36892669955354956, 0.8271735369988242, -0.4968145453008745, 1.140524924920992, -0.3657045067789339, -1.9245397686785326, 0.2589959378331666, 0.7420118674079218, 1.7367980549023259, -0.13391594059636194, 1.686035841301955, -0.6892933381365729, -1.576396267798962, -0.25425776373531744, 1.1175646496045568, -0.036290388761608824, 0.39417316429189164, -0.7099534620831177, 1.7041844600962843, 0.5162295820315752, 2.0812583001177845, -0.2644927804511305, 0.1900544485319141, -0.9153727847392915, 1.1772043013570934, 1.6905097787228938, 1.06504554779019, -0.09723275201621213, -1.1990171053294794, 0.9509986460867556, -0.4427495806783803, -0.10047647715022268, -0.8153570976867915, 0.649220513232213, 0.6402109365340234, -0.36343124895466083, 0.7059417351193734, -0.3920649960235549, 1.4391461518178892, 0.5486144838333944, 0.3406814463530562, -0.585761283444278, 1.9959282336236162, -0.28865471355231714, 0.8556964535983703, -1.29157655627382, -0.07175882579090975, -1.6275185165403203, 0.5642828843751111, 0.02472804378330975, 0.17811546525373112, -0.24314946525420164, -0.33733774737370387, -0.9491847903265688, 0.9628182267783607, 1.080524820568918, -0.30403720155660446, 1.4450504525281138, 0.4306386282846648, -0.4826179127398897, 1.0015876495664624, -0.021926497524011303, 0.07127835916278702, -0.15241308479195384, -1.7759069369710752, -1.079600505469716, 0.34648240514566775, 2.328376124500626, -0.7924748751577542, -0.7328703613515022, -0.4867861093633752, -0.9916570866351676, 1.1847419191729966, 0.03128948346275458, 0.03486823094592361, -0.40623223008234094, 0.6930125691396586, 0.649826923980193, 1.2827944719976998, -1.0950107252191874, -0.25228690358371403, 0.20995062187717814, 2.2408437676692787, -0.6277650958948253, -0.8057317220462353, -0.8067560415405315, -0.6818479878370861, -0.32016645281274564, -0.008620519733226716, -1.3162475172654011, 0.5107175266385479, 0.18875351595048978, -0.6863568059797459, 0.5271646526544082, -0.6572684052760314, 0.6785454039988844, -1.1090074410171928, -0.5050556615387339, 1.2696793582350108, -0.599115471730506, -1.2264236622118627, -0.8201236964804672, -0.26217913209110233, -1.1662759258053603, 1.2716629047508514, 0.8106546898153604, 1.4046841864534023, -1.1304470105309894, 1.0889991917291846, -0.7305889999860391, 0.328392510705086, 1.2844881684686507, 1.2557850234354535, -1.5658264657645011, -0.7605887100290127, -1.2247039774465522, -0.6515265983709707, 1.0830721986197893, -0.340468901397785, 1.1754532129191928, 0.5944511741408232, 1.4086587615758166, -0.9825503859843995, 0.14879367679147631, 1.316720674008205, 0.8376608297551353, 0.5457697086722523, 0.034045788487917394, 0.23195492252107194, 0.3463415020281617, -0.47518107412737465, -0.6416750192852704, 1.6589539308029508, -2.08676964533642, 0.998131737792845, -1.5230429575600823, 2.2775248123065124, 0.21240727205920137, 1.1347113373101938, 0.8339078596699003, 0.10710073630725263, -1.695834287079369, 0.09516364454836045, 1.354281852436921, -0.5408547960762881, 0.07798233465526208, -1.3740854744567919, -0.33180587798052635, 1.3105981354445835, 1.5391546454576033, 0.020511022699494386, 0.20371600062023584, -0.5041581563956327, 0.7312249415341231, 0.49804506202911475, -0.5285649773849725, -0.06995162641048148, 0.6072753424169429, -1.409925381289574, 0.7660685779310513, 1.2581349832390825, 1.7245501834102446, 0.8933999747359154, 0.11508745614474739, -0.5532745724444903, -0.9469441811720776, -0.40767020100261697, 1.096114145406149, 0.024843750971334254, 0.1076924175900746, 0.7028474043996206, 0.5133241158901538, -0.08929213993135643, 1.0864116456711717, -0.5443923495591219, 0.1603112723087774, -0.23159194720114384, -1.33691487260937, -0.7426261747773306, -0.37677767850578386, -0.9357934219962183, -0.06244592278669881, -0.4424076106831733, -1.2094239307977142, -0.17943596991737196, -0.8716705957755159, 0.026348145295368244, 0.771686924225221, 0.8250356651968294, -0.11603553465483171, 0.23133223768762515, -0.35915868476826607, -1.3089914889665832, -2.3889898803133645, -1.1976292371421275, 0.710758869243862, 1.1832327917278465, 0.11738870921246443, -0.9669312933675505, -2.1486049733934327, 0.692065384954632, 0.7653748074725357, -1.494512755196332, -0.5958243116891934, -1.435086467407749, 0.5882507053681405, -0.7322188160280557, 1.033859217226206, 0.23903883594660924, 0.2862518281320644, -0.3641322786798892, -1.2534443852335562, 0.8745487981607213, -0.36659906231516576, 1.5500560319726775, -0.03469285757866902, -0.22506680467455464, 0.5517308519939896, 0.3012558102707009, 0.2386532141329837, 0.3862929296317427, -0.4773203975010658, 0.8520542921274249, 0.01520581898114791, -0.12520327285941776, 0.4928247287307923, -0.2953970765443804, 1.0660044895890597, 1.810328169272228, 1.434154876892145, 0.2798364329691055, 0.9302658540009128, 0.2579371693015225, -0.36061713062879175, 1.9722804434110732, 0.1482667021852856, -0.0661938208323658], [-0.9667503953036204, -2.2888071998367696, -0.06397562537414501, 0.34744253569015565, -0.6740327012424322, 0.07988912035724477, 1.2831849607068526, 1.6698776039408845, 0.2630006823383211, -3.519095278633763, -1.4359685924181076, 0.048860533297180195, -1.0533996021554837, 0.7837220914140018, -0.678227729660675, -0.7017201438493726, -0.6789781879090075, 1.8988132377051983, -0.09301976809603937, -0.635311676624426, 1.4098643219783442, -0.8100193903797915, 0.048009130831973244, 0.6234779367783808, -0.5220082261804303, 3.0537459844034456, -0.5723395427048354, 0.521221796124374, 2.049853434440068, 1.2461034199013818, 1.477068054852751, -0.6366145450838263, -2.098833695929281, -1.4036392585938173, 0.00783649471502304, 0.46416624814160246, 0.9431169064074724, 0.39233478196139937, 0.10798934748798959, 0.40809661080418846, -0.8499623926231454, 0.16529024098365347, 1.3410880552106816, -2.189636743054822, -1.0429111122318033, 0.95209000511183, 0.9805264206041987, 1.0038078176156622, -0.32620840813089835, 1.5423144911745181, 0.022682149238200743, 0.46716604802472095, 0.6516727252752879, -0.9404879554795411, -0.13679702356659051, -0.27751073304118756, -0.18912450471480874, -1.976388362649295, 0.9510076225411039, -1.031925595151481, 0.9244345673055661, -0.3608034922770723, 0.39681318743449184, -0.027157925733812933, 0.9002200638608205, 1.1110768682434025, 0.16719383958189216, 0.5862693604800547, 0.6236071914887963, 1.714837650460457, -0.2808601660265206, -1.886429849988166, -0.5553117546681972, -1.0953526677518348, 0.14667919623435055, -1.1304486703578334, 0.791445462621043, -0.108701385151427, 0.6421545367781418, -1.3152259211490263, 0.15925694130472404, -0.2991973748144328, 0.25279093981890793, 1.35276928431581, -0.8651782013831038, 0.8487883001836896, 1.1472887661119515, 0.6278790947160224, -0.054520688977461006, -1.5517445767427236, -0.4948077190780149, 0.3959929318498773, 0.9768339127701902, -0.2948452790833966, 1.0616456073158198, 0.3212033714429322, 0.6069943772146116, -0.2314373776376759, 0.18722212905405328, 1.0389776995881908, 0.13880518319490892, 0.7725595955420725, 0.18348093804534776, -0.5419382548429058, 0.013212308766821446, -0.7556620801520627, 0.1472941585989423, 0.24434243201402167, 0.6675629283925347, 0.7265574990856678, 1.3759225867358589, 1.188283747718153, 0.6565112913594304, 0.4704722898788242, 3.202899221918102, 1.341839049519725, -0.876918687595497, 0.7673753415866277, -0.2871758635517819, -0.642874623640101, -0.26239822048846356, -0.35607419870631446, 1.690246636194632, -0.3892618726356915, -0.21882162868980373, -2.2989501381266275, 0.03955142664097415, 1.7479192854546426, -2.2185146190193046, -0.8835353154144188, -2.0762304345130937, -0.28982494037055934, -0.8979419666489286, -1.070951736557075, -0.8183156966843226, -0.032266653047846844, -2.2721722593492477, 0.5304464253955065, -0.23639436302630007, 0.5740841857835387, -1.7709031776010105, 1.0648478367931866, 0.2841337108588523, 2.171469679470589, -0.2959953549480749, 