[[-1.0212702399340656, 0.6051556236306393, 0.5061833212053116, 0.5586891496105705, -0.20185808061378419, 0.3507408416612034, 1.3094468518271156, 0.6131542223992774, 0.35469272413750835, -2.243683569851401, -0.31960738786334636, 0.565674892564532, 0.8185069680487798, 1.0022676200400777, -0.7141613956557483, -1.2403034868047742, -0.0626856322370345, 1.788739768877927, -0.029678963341406968, -1.02196455383768, 1.0162116953802574, -2.2615889368666466, -0.3738520024422328, 1.5116916207156599, -0.8594456083804409, -0.4979998674080441, 0.21451243410532267, -0.13983412362769423, 2.017798046946884, -1.645657504917986, -1.5432948659750183, -0.0738825854503385, -1.328402909897091, -1.7064549076922895, 0.463903448723816, 0.629074774087851, -1.1015621526911712, -0.02955062184889118, -0.8446428969053928, 2.2263943068785976, -0.8419089052060439, 1.6115098236350265, 0.28282259045982744, 0.7684335627516156, -0.2898718131570448, 1.5034882371373184, -2.052021450664903, 0.015022037704822123, 0.37698641803682914, 2.560439530675207], [-2.1744624148841023, -0.1378529107147456, -1.4037783908303976, 1.464867998650578, 1.0683692582614186, -1.0643079745988822, 1.4268851676048733, -0.6016979443168885, -0.3313406022062268, -2.599918427709488]]
