[[[-2.565743572894513, 0.5196335114382737, 0.7368438313292899, 0.14054780612815942, -0.4002351704552082, 0.07240782893198597, 0.5204519245301421, -0.25722391041071935, 0.6269538593805479, -1.016121519091464, -0.8324309670133379, -1.2647774156994296, 0.40950735963741486, 1.0786436303531264, 0.010542160223681834, -0.16558427769704412, 0.11427890942594124, 0.08971235868458068, 0.11039795858950985, -0.4197007260254536, 0.91315771980662, -0.14109389888685844, 0.5506445497082643, -0.3065067803872149, -0.5967410629372741, 0.5560135193688318, 0.8244133570639786, 0.6949133451006021, -0.7037993869198179, -1.1535030493042044, -1.5176851731488883, -0.8301271209300225, -0.6121949876584964, 1.2090009696817812, 0.26137543237919053, 0.95328337674754, -1.7840229447251197, -0.19208496880224454, -1.5384788998498642, -0.059362579144047876, 0.38425002443803713, 0.9799356728008994, 1.2736536492069463, 0.386277711016568, 1.3370711230337233, 0.3235261668424972, -0.08173439275478916, 3.1536805708006783, 1.1639319363288754, 0.33977459222468837, 0.788256538609351, -0.882741831272192, 1.262817064645906, 0.8026092244849508, -0.40961576683692835, 0.18422856536947416, 1.047652046516231, -0.002112085797718614, 0.8005096754222941, -1.3748319783431553, -0.1915281467608621, -0.36189391709394575, -1.8161228642080038, 1.8445857536578425, -0.4807134592884943, -2.0629989540724156, -1.140564488617993, 1.0798498508062895, 1.543511655611178, 1.4694464952948039, 0.7414307127833949, -0.7918594740188563, 0.7710916942930072, -1.0028699976053386, -1.161282428593668, -0.6101392357997187, 0.3513647298080971, -1.0204220011920528, 1.4071907631611433, -0.503946423334012, -0.9245406189660288, 1.0454555628785815, -1.2832917415993057, 1.2558314345169068, 1.1576322176941412, -0.4759412074774417, -0.47287434762947556, 0.5123551584008926, 0.24459307689973697, 1.5075289964308614, -0.02845453241592799, -0.9710678534116737, 1.1263692000573953, 0.5615060322547545, -0.5073728105570379, -0.7112643210208449, 0.47714169318891686, -0.11709201636249653, 0.5471938092242613, -0.055145060389720724, -0.2582985884458222, 0.4507816653009762, 0.645920509627789, 1.1239949141808658, 0.07082350671951451, -2.1960302562067566, 0.33481994536142906, -0.8533884419521963, 0.2282067256083747, -0.04552131548675513, -0.8939504220253006, 1.118642603962773, 0.5041359642707244, -0.7532448062776326, -1.557581895591961, -1.6369130970536672, -0.0032886364907471185, 2.022117284536503, -0.3982737749416612, -0.17789318925217282, 0.15038555459437872, -0.8892444742618371, -1.4402830977462446, 0.06466037282183934, -0.3629514214317771, -0.2317143255978955, 1.1946086563355443, -1.394112690754782, -0.041364766083202886, -0.36051596906536776, -2.667462634088618, 0.46683135781090496, 0.6675971744274256, -0.23770124489455804, 0.4544022664510155, 0.8211803596601884, 1.5895268991531635, 0.8828571164579305, -1.2164100155256, 1.2868594762503796, 0.6607853102388538, 0.16343528293829668, 0.3766917066424622, 0.48225724667141834, -0.08690369282938903, -0.6232624192038059, -0.9548384131876031, -1.7216367935619923, 0.6940346564707947, -0.29966527199230386, 2.4131777763451767, -1.1208630319391801, 0.626313215513931, 0.8925436675136745, 0.4053640687677473, 0.6382434585778387, 0.536693528934476, -0.36286486366788107, -0.03019288915423447, 0.27003316721292986, 0.10569687853941481, 1.1592389347371237, 1.0982857907521324, 1.2413187511160064, 0.5160602826431727, -0.8422166157713947, -1.0404278314822064, -0.9729058367045745, -0.06933298631284844, 0.870097990187183, 0.40495968772522145, 0.23046749874439365, -0.1515256144654412, -1.145575084733362, 0.7907388946445032, -1.1780131372306277, -0.709680402448346, -0.25503174294799635, 0.6230310320114559, -0.6609941285291948, -0.7188051392018446, -0.22709331423338913, 1.0847681401309148, -0.7865394512597267, -0.858584867116164, -1.7545114251071865, 2.051546492754103, -0.9613449062901871, 0.4736166123677319, 0.8977090689660553, 0.26386482134855027, 2.4644857089555927, 0.13934864327530114, 1.784170301066617, 0.2047551645795526, 0.19044510645456306, -0.5011931857070642, 0.9779059178570321, 0.961386244811958, 1.8959988341565566, -1.6242845986763688, -1.3548103766369997, -1.2146746058170315, -0.28534069749873936, -1.0982770832049729, -0.9576142823602494, -1.0688615638862677, -0.7690549598559933, 0.7415459956619664, 0.2831526131102449, -0.45029837625120306, -0.4316361693545187, 0.5831925768090227, -0.8752386692218825, -0.0034538088231065543, 0.0900286370531901, -1.5146762750871519, -1.4240197617250092, 1.2495833302122403, 0.14103421471735209, 0.8697313146997931, 0.40283230789957347, -0.47493581189870776, -0.47565389442527817, -2.3820175863001456, 0.9456402830373715, 1.4470998671931328, 0.16850852988704332, -0.20646765106583267, 1.2877195676871878, 0.1581091397602893, 0.3416496966942038, -0.3765208724377656, -0.13278523524109015, -0.5989757492890369, 0.3568022496943578, 1.8699583239089341, -0.10193896749289118, -0.23665921335930745, -1.1048692943304108, 0.2914226007625651, -1.105603837131901, -0.2148427966249289, -0.7567330972896675, 0.5453644224203494, -1.1607683691840809, -0.6582766638319241, 1.2688037324274977, 0.9867836143672885, -1.867267382037009, -1.1090192400303451, 0.8767098078066228, 0.8624742211464804, -1.0529213097122156, -1.1696563576374532, -0.03304786080838961, 0.9828828805451383, 0.576684637731024, -1.5056325597227496, 0.3442391493123046, -0.8754768538018362, -0.5353109519140787, -0.4111089528738089, 0.15835749815643463, 0.38099565963417414, 1.2697849686234912, 0.06919556166212262, -1.6269923323253344, -0.7258271959748763, 2.2729553890968845, -0.0971615623296752, 0.23751506599822303, 0.6493482544115733, 1.1603148378670427, -0.28144216495560237, -0.24814942551124042, -0.8672712060927706, -1.0130581956974178, 1.3974074961347, -0.9096389248600483, -0.11716303919116801, -1.6207161209146401, -0.09267553251031709, 1.0283015153671065, 0.829887848163738, 0.6455146490232118, -2.0854987195382297, -0.046056852569360374, -1.9040489316595293, -0.6955716592863491, -0.1203409004183498, -1.080928911353709, 1.1029119366804099, 0.4244432356410188, 1.5617865405091471, -1.6902966495847291, -0.06192766042141274, 0.7554673988776844, 1.7028102121825415, 1.4706821075789498, 0.3466380589378546, -1.3050781785137486, 0.6040608615352765, -0.14272019828609178, 1.0535028997428069, 1.119587045259152, 0.5988061073562395, -0.16192024238482416, 0.26277908006862405, -1.441552610626469, -2.4969869987462334, 0.8903959096315306, -1.3497063034190873, -0.21652878181441879, -0.533721021437807, -0.06815508100483768, -1.7222638688491378, -0.020266562322893374, -1.5495906988844885, 1.0641797547140979, -1.6039026589387415, -0.1009266385641864, 1.0357692989922898, -0.9897634466951802, -0.44352791392350915, -0.29677197966093005, -0.9678612068202234, -0.8589236436688321, -0.0013174877953403426, -0.09394205338615852, 0.1824492201121123, 1.4034630956762257, 0.6059159203851993, -0.887617831663161, 0.7283219897465631, -0.17858267877693085, 0.11077666721538387, -0.0977643293842973, 1.1688323997639891, 0.2708688475884507, -0.22080489788724153, -0.7540350843023669, 0.8867599028071462, -0.10715236357805268, 1.6087367220301227, 0.21784055101458535, 0.10755704051728346, 0.16367709625345503, -0.22788855058819765, 0.7624172120492075, 1.3163328901643312, -0.11422327397730675, 0.17261075031891226, -1.4773618216374493, 0.4691377953878178, -0.8876847760864633, -0.9950757611788701, 0.05129878120598405, 0.13292183749898318, 2.0787439513856674, -0.5616122346793698, 0.3592969794500633, -1.5154553082169915, -0.10641603287540806, 0.9494740646544585, 0.1157557082659763, 0.5692406854637964, 0.2616329149351939, 0.5181446359132873, -0.15414665493312188, -0.6801920809863943, -0.2600057721955994, -0.226680483123961, -0.6544043330151399, -0.25415243569576423, -0.11600949360104897, -0.5046755382458871, 1.966916233079101, 0.20377242621491654, 0.9772980065955478, -0.971425100233521, -1.5297367218073679, 0.1967305218661993, -0.22526819743958248, 1.1263882846656306, 4.049625399954383, -0.4233143644333461, 0.3632579438761691, -1.5083969345605466, 0.3159952829232049, -0.23283763944086225, -0.05980971000332124, -0.7879348405353571, 0.41245929885985017, 2.1727489931375015, -0.1813590673479573, -0.20956680540016606, 0.3824846644044563, -0.16838614491091933, -0.1089766287517597, -0.33101136036422313, -2.55492188019156, -0.21055209043804787, -0.5687168693423327, 2.760891397850007, -0.5530566972941512, 0.19627430568180965, 0.09243802451698975, 1.5393021404359535, -0.26361618443782714, 0.7018394702760679, 0.4341942808157777, 1.1200813203846307, 0.7712754917015454, 0.40312978109782044, -0.5869715332861694, -0.4022876240584943, -0.06554377268080688, -0.28070028382326595, -0.41870020238427946, -1.3283942310634556, -1.5957549696537758, 1.4456201447333155, 1.3330278066664507, 0.11185159831659867, -0.22950656693310106, 0.0017285005286396626, -1.1707729663128383, -1.5196414469511734, -0.5393548165400713, 0.4901393283646016, 0.3664137001506681, -0.06752719909524793, -1.4146018199857069, -0.16047584384646, -1.6102412488280382, -0.05681981141005901, -0.9866895974176798, -0.9357620556032004, 0.009054032286814463, 0.26144923870616904, -0.29139119404420694, -0.7941533115601821, 1.6933302116506737, 1.6872616723197191, -0.15527937134618713, 2.2201899342821987, -1.294606773631129, -1.039843377465711, -1.048300074229709, 1.1739693313515587, -0.3756516216701705, 0.6553257662730398, -0.21944490398877312, 0.7605424220957533, -1.6643638201170117, 1.9123415317734396, -0.5027906657801045, 0.7746552477126342, 0.1866156350384759, -0.4584869117531032, 0.23878829767627244, 0.9799234666267045, 0.3421698519124744, 0.10385963335342963, -0.3556446056004898, 0.6642437840673244, -2.619377170789549, 0.2983040184959341, 0.41053515696265763, 0.4100087802372642, -1.497064829648935, -0.5527410600750975, -0.7248141197575778, 0.7512461752621867, -0.690569320287155, 0.7461024962766712, -0.45651426175344056, -0.8832400244756573, 1.8275240390081593, -2.332118670208471, -0.5557726741316148, 0.9237311957212267, 0.5964520796937384, 1.007893164055143, -0.6326338584930155, -0.08805618891315, -0.8398991822688572, -1.2523365531350095, -0.577721812542298, 0.2670133384666865, -0.23745082087864897, -0.8080304320674915, -0.9046196458522706, -0.470465507836296, -1.5959967819717564, 1.9530802587534588, -1.6246789724516155, -0.1309629418613731, -1.0786154293425567, -0.31385554508951286, -0.8788981265181371, 1.1972009895473676, 2.336478741701338, -1.0949908914987951, 1.8138574031119312, -1.4911663373061028, 1.1768994252013334, -0.5315315019046749, -1.1643722450598128, -0.4278521946134791, 1.1617238840910755, 2.10543440788811, -0.07183597550146191, -0.47205486194380325, -0.9792448356960404, 0.9585785391914485, -0.6465828412861291, -2.0426450973315537, -1.2280169686145128, 1.1169039286885465, -0.38853114063750854, 0.9500540189352992, -0.2774409992519571, -1.325416788761113, 1.237413602710465, -0.43806685945059026, 1.5954786275521737, 0.022119036101774993, 1.0911283508396046, 0.7733901234159412, -1.5502663389145284, 0.39215276418559086, -0.9156409434163996, 0.26937845957363693, 0.32487321621320225, -1.4740785925322064, 0.555588324800679, -1.209040013773549, -0.44350124060913926, -1.736643086353186, 0.3598899550620453, -1.8346122439569517, 1.586923028101864, 0.3308061231849525, 0.5377098734214075, -0.8171885263250341, -0.12354345398036218, 0.06491265154636182, -0.518803794103242, -0.47879098983732743, -1.9634680769624182, -0.7980263013638388, -0.72359858169056, -1.5538872474938044, 1.1257792174996863, 0.982988730504638, 1.557658682508133, -0.11947913543817712, -0.9123936235968679, 0.6359151113322955, -1.059668191119384, -0.4152866437047051, -0.22949917106414602, -0.44921071324144185, 0.3059950660702507, -0.9137957864556528, 0.45118178032639084, 0.3116862082593231, 0.033626627244870734, 0.022735019142401072, -0.7333925119960273, 0.2335605555080601, -0.0746611946391412, -0.44896333056276805, 0.30705009548256484, 1.5025910370965716, -1.291081741445697, 1.4519748131987984, 0.6371711816344816, 0.20831707745688832, 2.0331494043547007, -2.360502248626018, -0.2702431246961415, 0.24710235842306638, 1.0250196691334987, -0.09092495497341836, -0.29203291700510636, 0.5405863834065405, 0.592193262411971, -0.7536732743560595, -1.1669500222727396, -0.39350108387055366, 0.45633715775707706, -1.5148845194473062, 1.1388559636746678, -0.013879843358120258, -1.5468491342945307, -1.1743259285563306, 0.4074151849043004, -0.6307826444691009, 0.4127446606614157, 1.1754023892925245, -1.1991413794186319, -0.0934320467816047, 0.566359322415961, -0.4253090542866008, 1.623294228160067, 0.447748796263717, -1.0529820225047197, -0.10115210230924608, 2.0087782958789493, -0.30420029197355847, -0.7223843174725944, 1.1952835094778567, 0.8589206745249579, 0.48643186876300254, -1.3818308968835133, 0.6385181645400865, 1.087005318370101, -1.4686559732597924, 0.6816474520378193, 0.19801790589249943, -0.5751074261688314, 0.4757439043503342, -1.4597864024578546, 1.7141245913859722, -2.1582567489153037, -0.7291052533603885, -1.5025933433215566, 0.8775279787738853, 2.1005371669081767, -0.35701772352403316, 0.24148180708201544, 0.4498585102210776, 0.14094963670436203, -0.4195997750615686, -0.10483866026391206, -0.9462492719260372, 2.8607669552609574, -0.15260907345693187, 0.6947464116087607, 0.937484092918905, 1.9882409153361176, 0.43898764862717116, 0.515001727072478, 1.0201373949423742, 1.4162044354330792, -1.0668885564004005, -1.29758767626109, -1.1245909193291612, -0.36251411422830787, 0.40823844339699655, -0.2040226089507552, -2.1447651996723907, 0.3909093958953196, 0.09501582515595935, 0.5493246415991145, -0.17329289817778298, -0.5499807403095001, 1.9774940735727582, -1.2964041561452901, 0.21680508457239683, 0.18704362723578988, -0.9186390444897068, 0.04389332987259837, 0.4862146144777286, 1.8153173413999601, 0.5096738182985315, 0.9812349938631789, 0.2720957741825746, -1.4739936603700416, 1.3167045090729346, -2.915296388605165, 1.3846065003848482, -0.1965619734622102, -0.9826364578626344, -0.7908898945642825, 0.7535878133779983, -0.3147199930514271, -0.43693236923024237, -0.6129771784073114, 1.0875569197162118, 1.5596248343838086, -0.7929306738085687, -0.4336882572955412, 0.10481395600671863, -0.5971814874479047, -1.8030080258890298, -0.60113172212625, -0.8707880877757528, 0.24369125805241845, -1.0428629584306086, -3.9028255204626636, 0.981671858017247, -0.4154261978581008, -0.7774758030487247, 0.1399352874437738, -0.5302030195449949, 0.24550195585345913, 0.9652338139979314, 1.2398648617460142, -1.1910394748421007, -0.47538249547571293, 0.42902840403940484, 1.3747004103420843, 1.6782834251759489, 1.149793314696992, 0.08874422618858159, -1.246000956242445, -0.09380481925441544, -0.6083278977437642, -0.6927169057960333, 1.0461692002638865, -2.0703388124103266, -0.1824274997299586, 1.0621911340994146, -0.14119119726433615, -0.6271796985566833, 1.9522676074368095, -1.0400352623492242, -2.0559599788218814, 0.5451545713996725, 1.2732060646712637, 0.7007432158037555, -0.5149703619284979, -1.86757782050669, -0.3171629984080451, -0.934512638637084, 0.06310810247755742, 0.9301060551202253, 0.044097631753958345, 1.4233810516196679, -2.043579199270291, -0.723989357885195, 0.24113833855372907, -0.20699404045365796, 0.4744169768113436, 0.6265219861944653, 0.27130304898444985, 0.2648440734679843, -3.3793060662020524, 0.23706621522549753, -0.2681074046261969, -0.11395061842582292, -0.3936245104022886, -0.41963025741191606, -1.3265036459090502, 0.10188655189933961, 0.963263075499447, 0.7898445394716708, -2.2123702651379666, 0.3922891994435364, 0.9124974840793604, -0.9860534659540042, 1.0564656412569073, 0.749771719778797, -0.947035665225579, 1.8114312834112862, 1.8322276845527443, 0.16487881395889062, -1.3998618560356737, -1.127671725019875, -1.0013477064728433, -0.30480810225927657, -0.05391239638086762, -0.252091495297917, 0.963984421118003, -0.1723820656754239, -1.0685896840195237, -1.755416138699788, 0.09055238334620783, 1.080925873641648, -0.7232256285200214, -0.46672545112401076, -0.605072911657112, 0.1835994404762922, 0.9619435831511005, -0.5707869675406034, 0.3177389170871744, 0.012949658125983157, -0.7612188354991465, -0.945537192098693, 2.336717471222967], [-0.8787366980004574, -0.40375864047372667, 0.6443159361405081, -0.359334270997142, -0.2526390324810875, 0.20807198088969286, -0.7771615101590802, -1.3884118920834772, -0.1973048992720537, 0.8459366791759763, -0.26409743783454526, -0.732331653820559, -0.9798221593200528, -0.8532784268804317, 0.75639824971137, 0.6767337198470367, 0.4754674335016368, -0.7902238932682548, -1.8947243240787368, -1.343586975252703, 0.40272588211666, 0.6959464422659443, 0.7925614620921324, 0.1299823163686533, 0.1006182154876986, -0.4687446187482325, -0.04969806433875181, 0.727507134161901, -0.6917608889353937, 1.1454942441995217, -1.284987203338743, 0.20995981078157153, -1.032266447124931, -0.07387424902609194, 0.08428533415936577, 0.8883306961352896, 1.2310336069955845, 0.12192164054634257, 0.07828677973517807, 0.14672853362912902, -0.4169584692260167, -1.9934451669720974, 0.6179268684242079, 0.7411841252795247, -0.9830467134499773, -1.190054352187242, 0.7637806585346144, 0.35824241087573744, -0.44081834714643287, -0.03947735416343126, 0.5952513013540867, -0.6369317768836003, 1.0553535058701935, -0.768426680133717, 0.9522599797222352, -0.17513147190758627, 0.6470894951296924, -0.15737542879119482, -0.3544296178841568, -2.343603282991884, -0.8363257398639544, -0.47026517841216764, -1.2711192390009298, 1.0870893850915373, -0.6051505945347398, 1.1405679307767926, 0.4143486949455881, -0.7897495593714419, 0.46564557433564335, -0.5468076881599938, 0.4475567362878503, 1.0240736015752203, 0.9840991796501194, 0.9665004690770655, 1.1145963634444727, 1.0237618681473997, -0.4575627175358895, -0.710089989666594, -0.5108022093324549, 1.1267369146995827, 0.41165103792974156, 1.0018010589478268, -0.8753050513310368, -0.7695878669724462, -0.612953566604788, 0.6834001114687027, -0.17710135520226863, -1.9531271877143515, 0.2711174001619934, 0.9359520051349041, 2.3635694241910343, 0.5323416489167555, 1.6126799916088446, -0.12132839659074747, 0.6859377484205424, -0.33280554896052106, -1.4497513595898175, 1.5321968836586057, -0.8626922293032416, 0.48104894534219056, -2.625341072449976, 1.5785607090919387, 0.2189368559008852, 0.1856068510479665, -0.11007818062207689, 1.331909402817388, 0.057326558050908846, -1.1701601710483542, -0.05365411815289209, 0.31991572409544966, 1.081403978849811, 0.1881937695729985, -0.27434431156952727, -0.21375661815356847, -0.1022401537734858, -0.012522199768397862, 1.246087113181194, -0.8254005925663532, 0.2633988441559844, 0.8814247511177726, 0.025172930053727314, 0.3070304268847996, -0.8936652363726123, -0.29037549850433814, -0.06918174694128376, -0.07596646030960394, 0.69322212134809, 0.4086034221412844, 0.19435089898508182, 0.4748044760478917, -0.7341475726655673, -0.3694625872310484, 0.5474363862279801, -1.3621853946955063, 0.9706187840726993, 0.40928468173011656, 0.18683058980898926, 1.0909950195546694, 0.49824162269701316, 0.7294205610515505, -0.5883506961390158, -1.418654100150661, 0.05893627518510731, 0.7693531709376157, 0.4293465255741512, 0.26111610947453057, 0.9860272088972183, 0.5733000563003882, 0.37113619258982533, -0.04318933889934269, 0.39892748930184924, -1.1036367789878807, -0.5517718003157559, 1.2358559480350573, 9.576339229640805E-4, 0.5520613572113799, -1.175298257844922, 1.5364791174650878, -1.297144508969582, 0.09864296604102507, 0.102378837365388, -2.190387058696323, 0.02126507188194918, 1.178181581666064, 0.8964403805952993, -0.3814366502527037, -0.7856271397748958, 0.8265316463784583, -0.6765097151035934, 0.36049642731317844, 0.9809906454694554, -0.7850833590509848, 0.2884898587872358, 0.02015498455143602, 1.2595360350876053, 0.2565420352142784, 1.2652787470677278, -1.6858564920767538, -0.9113719349204082, 0.969646890970556, -0.8456219710051821, -0.6767145688784519, 1.8882221983251264, -0.08791806184058241, 0.6096208461616802, 0.7741823852690527, 0.5004869072265196, 1.155610709762012, -1.6273773333972354, 0.9036892901355822, -0.8338362881315499, -0.18312386986412763, 0.10389840795794593, 0.7537881359555443, -0.3630786304394776, -0.12410080450999399, 1.2550058407544284, -1.727303694607097, 1.1187875924545496, 0.3767143733625313, 0.015127781133184887, -0.1690133919359982, 0.7900857745627975, -0.3346073258690862, -0.8334675213048504, 1.4187704414677087, -0.42743297099871164, -1.2667870755029462, 1.779727449241829, 0.5182578966295823, 1.3635210596963596, 1.0604922617225305, -0.15069541266399988, -0.2825981430707917, 0.28474799578169097, 1.0591866077287295, -1.0915843666072291, -0.4770704605143555, -0.1992295973472268, 1.132245219395215, -0.854547364121886, -0.7869512036877402, 0.33038878073848765, 1.1593470949496996, 0.4389432338571733, 0.7386069780845272, -1.2267298284261363, 0.7126263986864448, 0.9705147312331098, -0.10610368544645798, 0.6370811469346749, 0.6985440383910451, -0.7937423993561821, -0.8942788234691786, 0.5574255214630498, 0.4089682333363964, -1.9312567019847053, 0.4685001182271342, 0.5748521846312956, 0.6196673425900961, 0.021380475479036414, -0.6756404605714692, 0.5572584119276014, -0.27164362221201466, -1.3355960237684383, 0.10494871320178684, 0.4569764320194128, 0.6407183166767053, -0.2602917064403644, 0.37577920441796436, 0.04864604810832801, 0.005042084936374078, 0.8459013196048001, 0.3791176539756769, -0.9296993127007672, -0.7332488146367024, 1.375667805686346, -0.9016253463746301, -0.11755258881341012, -1.2502981723877737, 1.6230441672395874, 1.985831202209106, 0.23606012077121413, -0.7020196323828536, 1.0715902037564093, 1.17610327013313, 1.002754646057255, 0.7696598827190932, 0.892102638464263, -1.800367395965944, 0.09826406775290426, -1.1701413521820272, -0.920570969036636, 2.518189177504612, -1.6055684441527134, 1.0063920975497076, 0.1933755579970802, -0.3206522453135024, -0.34011610507246454, -2.2744021653480564, 1.4825842000258196, -0.7682066675400467, 1.9842670692928606, 0.059027707034638596, 0.25728729249696597, -0.3334164415662547, 0.20429540777991348, 1.1312727933624307, 0.6711742888962141, 1.1438135416084703, -0.5487087219032474, -0.65574171387437, 0.00837663603930063, 1.4044043410578906, 1.8197714212458427, 1.364713211869686, 0.3085045036809574, -0.7153431423884204, -0.088302364605003, 0.37605059184022804, -0.8158855879955982, -1.3996527085620152, -0.3629061654103995, 0.7146375004707719, -0.5939054686321322, 0.7680028549655098, 0.06057265906071765, -0.3801779898872298, -0.26296812534953184, 1.1491140358237002, 1.0155109698881761, -0.7860869731120469, -0.4003960714210584, -1.2275391210946787, -1.7441092863030834, -0.6730325005143559, -0.0032945865829436725, -0.6224506604604989, 1.3149184142471968, 1.4330056242412648, 2.5530570921758593, -1.1632549999979633, 0.06267333260095709, -1.0181486420609205, -0.5191110154414219, 0.9532608168662041, 0.2943618339283359, 0.44627756690818077, 0.7727438107851963, -0.09572729361102668, 0.8134325611679329, 1.0693382368382567, -0.9582268211153007, -0.40220250092515525, -0.8711004906651709, 0.5454895639266727, 1.0126306169733124, 0.3083170037249532, -0.5235667885728622, 0.4411001362477501, -0.1677415908356136, -0.5705812966733724, 1.0819481199512628, 0.235180131697721, -0.44210309984863894, 0.10008049945688995, -0.3628704974515798, 1.4775093810796678, -0.2516471893803064, 0.09704617839125354, 0.7074162777927459, -0.36959830953679657, -0.5001961982767087, -0.7058617237770143, -0.4491738529126376, 0.24767008548138808, 0.5539556895640688, -0.20179499878093807, -2.163107039306598, 0.005786716328292325, -0.0031976864896342805, 0.4636501413276334, 1.3361612154305644, 2.0076237920010565, 0.7916883251332506, -1.3137340617173192, -1.2901195751301762, -0.4475598971223984, -2.096819203810784, 0.41329515566820924, 1.9638614383756408, 0.44047529950562136, 0.5379242715294514, 0.02601511286521816, -0.6275360029100596, 0.35962157281820345, 0.023690325840414736, -1.2442595049968452, 0.6782818814033309, -0.32009826823484455, 0.6741925731490559, 0.5594606358152084, -0.010232272699482976, 0.3501800786644011, 0.9827269640066256, 1.4627892552794075, -0.19942807768411322, -1.0576151042341078, -0.35483889461469414, 0.5218525543422828, -0.2647088236395438, 0.3994469640392718, -0.023212978661936105, 0.5698120600763613, 0.17376572291910636, -1.6982916112605, -1.6244157818863296, 0.031872282728075546, 0.20763826465895746, 0.5160791439558309, 0.35277866852194917, 0.9620941505793277, 2.645143007885038, 0.3101118698464128, 2.430348215729731, 0.6801018413881691, 0.23884582921473213, -0.3876696632737353, -0.38928834091072234, 0.14873360137144293, -0.7930108210681307, -1.0332023566173318, 1.5728376956548378, 0.10633914652769304, 0.6387605406352889, -1.3944979695032367, -0.20131588740940332, -0.35642840893573113, -0.49515486755891636, 1.4086244454014747, -1.082101534481076, -0.9640491784260061, -0.291909316825383, -0.7016862645902793, -1.630038039386066, -0.6686696911183374, -0.7378705479498635, 0.7553199115391462, 1.2757787940128198, 0.6982550817890952, -0.5259258376798656, -0.7372777856809786, 1.06849430507466, 1.538750407206751, -1.8108010442079718, 0.24603903939218816, -0.40591177764207076, -0.6148026974365864, -0.4980216952539462, 1.2836414246337446, 0.4504558240304908, 1.3787787423947357, -0.8421756374968279, -0.6600550723689088, -1.3182380851254258, 0.45655812061305195, -1.3912864574720798, 0.5597566753955382, -0.028003906607465618, 0.3729543332996953, 0.4606586311351498, -0.5698201932061652, 1.2597582339235216, -0.5415717214470244, -1.6138094439482367, -1.149403040030944, -2.100760061164194, 0.287445906880914, 1.705518802508565, 0.8676766941038029, -0.7221816879885367, 1.3818454583780848, 1.1481602493731988, 0.8323577525192417, -1.140823817398689, 0.4088408538639582, 0.1486901628575378, 0.12541082619927166, 0.18522216634871372, -0.6746065984324765, -0.6495626034065693, -0.9155598237656787, -0.8342027406509759, 0.4159114799257709, 0.4406628008067064, -1.2281768241660556, 0.380589026139597, -0.2758473965992069, -0.5689071355682864, -1.4468470656769021, -0.6190855967205681, -0.7509637199874403, 0.5760434033877292, -0.4490994018592664, 0.06999629801570902, -0.9355518086105769, -0.3220030269052571, -0.049188545486467436, -0.7826111966738617, 1.0767939116229697, 0.35531766725996716, 1.0606884648103787, 0.7702840907975135, 1.2864866636656036, 0.5609256518012424, -0.4035113823268529, -0.9401585203847205, -1.8199567739593165, -1.3287341786841653, 0.1360987639331675, -0.22783455580008968, -1.3202630414740328, 1.0906390783791968, -0.9459411955386856, 1.1771214168429398, -2.369994198973482, 0.9596400903921773, 1.5791035775859312, -1.0316707644857515, -1.7634903300591274, -1.3725581798583162, -0.79770779071321, 1.0502529892543682, 0.4107179597265779, 0.06598645352891765, 0.36716169233703394, 1.2114719927756012, -0.7467227248442018, 1.3544974708574116, 0.1861579984570514, -0.523131127165214, -0.866685534189741, 1.267508573685449, 0.8633082826096374, 2.0585254590440645, -0.8726014190574986, 0.8116997211972616, 0.7710706890520695, -0.8839779198958587, -1.8790484758434347, 0.059161843822064436, -0.6941735208713965, -0.8487228413849125, -0.5349044236068735, 0.22349675518957615, -1.2671075879012863, 0.8595776193383522, 0.835308283386505, -2.2226431085792826, 0.16064372866942514, 0.5644866217499348, -1.4200129920043556, -0.9267145376336245, 0.7370543352707127, 0.8314402815191977, 0.6540426591296007, 0.1970941832320684, 1.4785985779541975, 0.2876696797285039, 0.7582095061458709, -0.7624585183572196, -0.19249537346568574, -1.5326389787630692, 0.2977637629073216, 0.3206142786503292, -0.2560231210618977, 0.2575571799214862, 0.09384204240510226, 0.41323228708428444, -0.36680112913873547, -0.005877250886395062, -0.1179052287043791, -0.8088774909416724, 0.19003308991138898, 1.1019931591678128E-4, -1.6915647924746144, 1.468580157752591, -1.7691558282084854, 0.2924941583043035, -1.4515728983603426, -1.0993441766335579, -0.6790139244987, -0.2189277977100823, 0.3058996369291324, 0.2566536489887864, 1.8203514389487045, -1.9839821861688502, -1.1503235999445165, -0.8665062624410736, -0.3504336316338188, -1.8194441901533445, 0.2956000067976215, 0.5637972344505882, 1.0757792408018878, 0.37275002898320897, -0.5402444969103314, -0.6153614595213955, 0.9077035118724119, -1.3937244210990813, 0.38395232946390323, 0.4004760386407953, 2.3675192496781503, 1.0271480340567998, 1.028420378482314, 0.7132846865807244, 0.48471949216296767, 0.5543423682396229, 1.7846329720571066, -1.3312044676517114, 1.041454403135917, 0.06419535516445606, 0.7202758545567726, 0.17542927221773, 0.06097094883449559, -0.20275034828763044, 0.5657183424968808, 1.096250139977311, 2.117844424885685, 0.3995149734288451, -0.30561768808182266, 1.1944057557716055, 1.1040136819619613, 1.6841281459207018, 0.2159046444056142, -1.0994695786929873, 0.9113681265621392, 0.44380216264463346, 2.231816737775813, 0.4751164530055099, 1.5992748841773818, -1.1489423217175307, -0.11504044225538343, 0.4485944963562665, 1.2634261200517263, 1.3627109439724214, -0.3926835355486815, 0.7963770294434585, -1.4095184964839103, 0.9519240395602161, -1.3762604584272715, 0.6781204626047485, 0.9077831887824905, -0.6816349906675805, 0.20304617153235352, -0.26142470893751096, 0.28151534339675494, -1.3079536254783257, 0.15267842689229694, -0.553875573912659, -1.4880292837497762, -0.13917793689247843, 2.8288088235377264, -0.3620386917201823, -0.5578800537714923, -0.1930911219901964, 1.9789106272801809, 0.44456900429307844, -0.21633039367321166, 0.753818120314191, -0.5222160268624708, 0.6672721784356729, -0.2437402030851559, -0.3251748401911128, -1.0051644410886083, -0.4456356371562597, 2.111038352053012, -0.15110101041558396, 0.6116318473822568, 0.8790970682977024, 0.12570778183713285, 0.03251098589861776, -2.44142870736755, -0.7506202874364845, -0.3215916534951165, -0.3100424044461116, -0.061935190667120624, -0.1495739196564348, 0.8383647210432565, -0.512895657448372, -0.1411614093148578, 0.1630756688179434, -1.4048205783511567, -0.2475402210374775, 0.5698724165442569, -0.14212678182333927, -1.1060009789538492, 0.6484370170070864, -0.5115881817187597, 0.8045480898629286, 0.12113558027809548, -1.8969183664875906, -0.1293241029388394, -1.412661717489766, -0.9767060336155076, 0.1780725323160325, -0.14750923302598384, -0.17141530882023326, -0.5370011080724498, -1.7967412468625137, -0.18116863772674885, 0.019026706950763545, -0.36176654099678096, -0.44332516333906086, 0.2945022922920506, 1.0462764267232614, 2.313371510154583, -1.3722879803801122, -0.7435105506362437, 1.8267489533195316, -0.1286277493138397, 0.2421524550863038, 1.543620052634864, 1.72673329113226, 0.2257707896011646, 0.14226845718943051, -1.9490193435519507, -0.0761826766890818, 1.1117899032135599, 0.10520730865164273, 0.10032431032973216, -0.41531755104373763, -2.6326764378066483, -0.4439577368550299, 0.8052468826765811, -0.5697727517216358, -0.283289047908825, 0.9634272831464955, 0.8519464446865712, 0.33276300176578044, 0.8853832919564718, 2.069533358269675, -1.8742182102351181, 1.5417384099965623, -0.03773572499699291, 0.18598480323054403, -0.39098499920599594, -0.42974717292264997, -1.570413702535338, 0.3051629879787165, -0.5450476671326852, 1.1620327361599019, -0.9192096700630592, -0.1034001087416072, 0.37148268026372044, -1.129545897029988, -0.03588502055299175, 1.512634610522965, 0.6471540674119461, 0.7401234832636258, -0.8455194287535248, 0.5669546310596811, -2.3965293159018493, -0.5248241044872952, -0.33912148466527336, -0.11699740802564247, -0.23890275114818327, 1.213947949649288, 0.4586331414932791, -0.24089216138770309, 0.2805871955832597, -0.14872084673015876, 0.8268665816086738, 0.31919018223800405, 0.30147752922844867, 0.760779857905427, -1.6544223794356205, -0.03327270340214791, 0.19523790453288623, 2.0580530573708087, -0.6337138071776804, 0.5664464842736832, -0.06126043603819145, 0.8751257000946917, 0.5274990466592941, -1.1762718970607478, 0.3655458709032432, -0.6355784489923596, -2.3141862906705275, 0.695711921996333, -0.2346989687160655, 0.47193863394695845, 0.6994817772904955, 2.101104306474274, 0.6168233567619426, 0.4258767340467427, 0.39727219735814484, -0.7585022460669542, -1.4678774292731942, -1.5892173396767544, 0.08984274427920311, -0.5932233985531387, -0.9808050047165717, -0.6158295830944228, -0.6727166586188239], [-0.02396965943778914, 0.8086839540341327, 0.2060640527386949, 0.1603734468634849, -0.5881917142176335, -0.6939200645923002, -0.32205264602452655, -0.666468852339857, 0.6836225631122794, -0.716033513437764, -0.09368978495913305, -0.40991925190146716, -0.29586539984455945, 0.6879016792697847, -0.2843642994246684, -0.3461131700999527, 0.6781300700218967, -1.784520416546311, 1.2277213373483697, 0.8650910857665314, -0.7276810950819903, 0.3761820835686709, 0.21024078316286882, 0.7386998522887475, -0.5103892253580331, 0.8669264527061403, -0.5818645009930854, 1.6613962250394576, 0.1315623046037233, 1.3206962492363146, -0.2975239329992817, 0.15467756788373138, -0.30543521071867985, -1.3475706187251113, 0.67645570238807, 0.07369959687052935, 0.5227884695265446, 0.9108341656477906, 0.7501206188383569, -0.5435664798088314, -0.5007555128284773, 1.2816955717019762, 0.0826612017264663, 0.5799826501846159, -1.4376114315676072, 0.9044736622010092, -0.9912267348123533, -0.9558808404699106, 1.1145127198641418, 0.3660520701820829, -2.7464064468099743, -0.6642005124762942, 0.8875333773327276, 0.9181204852319322, -1.294368802951245, 1.4297062104777136, 1.9019627706126923, -0.2743043537688444, -0.9273030587057067, 0.890635437289101, -0.48326349624461906, 1.0007548600644594, 1.511973687572593, -0.7336396689144913, 1.0496550644251854, -0.9511597287725417, -1.6919182687697378, -0.051691379074990634, -3.0783382384779294, -1.3968264189707376, 0.3417754833582043, 1.6199472571960554, 0.578264445271835, -0.4744621930542404, 0.3730877472748804, -0.19564521764646634, -1.24115403703153, 0.5431523217259215, 0.8827048187571255, 0.21383087798166456, 1.3537996191450266, -0.6303223031016344, 0.9152175627168311, 0.049082740344390384, 0.1462378157267438, 0.8577888427299538, -0.14322522807314625, 0.39351245191638157, -0.5278854817567437, -0.6975505505973677, -0.20790143479092565, 2.158500937647801, -0.094104306725273, -0.7002765405778966, -0.06801686500637638, 0.30615216024730785, 0.919894728871935, 0.04083713942083005, -2.072933559449172, 0.4449310149396191, -1.2058028203399656, -1.6022118284902926, -1.5323412024217622, -0.9794002740527552, -0.011214472416286815, -1.8046934658453921, 1.4648251251637385, -0.16373491714522354, -0.7671669734762341, 0.1667684961537637, -1.0766266361554362, -0.7786178335528702, -0.6472481267118472, 0.9925882144135919, 0.018478919520552382, -0.30485462728601526, 0.8229727722093492, 0.053816285973671496, 1.4595921988076777, -0.8967296588249343, -0.8092524933792381, -0.18926870310818142, -0.2272445694093534, -1.063957992754954, -1.1307673312180215, -0.0892259057810233, -0.7908254774355573, -1.0511888651574424, -2.1465820884882074, 0.6753035420621593, -1.8224513964634443, 0.27618473938479254, -0.08121538754296345, -0.052150963534570265, -0.5427702629824044, 0.057803334649583725, -1.1468215618959394, -1.352479288112413, 1.6899551099359518, 0.06602584686165071, -0.7688640373989459, 0.8253504168698744, 2.521911050264546, 0.31609940464279107, -0.2011821362191684, 1.0567252515518748, -0.32078167195789614, -0.16030384836433748, 0.7458102216138921, 2.6650217494041364, -0.4224572460794345, 0.21163418452242042, 0.570040506333953, 1.2197995251220108, -0.22892525272268782, -0.45600800835280436, -0.3297472287606986, -0.09727977817060149, 0.6026280389472821, -2.4544636758446323, -1.0158186858612512, 0.21146217257637917, 1.8056802869455213, -0.4257447323251086, 0.02599370827613068, -0.13013699676068344, -1.5472353511904307, 0.42063696099709713, 0.331515297514466, 1.920723112895849, 0.6412908858760933, -2.059156666764021, 1.516736773414216, 0.26896467886208136, -2.06104576820018, 0.19779693676554214, -2.1409030259204265, -0.5734746908635481, 0.5380765552923834, -0.22689566304550163, -1.058474453480124, -0.13840153005302092, 0.5113067706494888, 1.8882372504214435, -0.5085907474866974, -0.1847529020031644, -1.1063090337281145, 0.5104261628593944, 0.949296429018295, -1.088742832235149, -0.8880274259895324, 0.2815379678017311, -0.9562872186410888, 0.8991874092507343, -0.4953375464887378, -0.39442462943434703, 0.4612247995198368, -0.16655307586335785, -0.0362782280179913, 0.37785076992845196, -0.21492017098173838, 0.2497769659836557, -1.1297331299683526, -0.4842384416313317, 2.074611554392178, 0.7440466908483777, -0.106317236370048, 1.8363785035292952, 1.1026024611189986, -0.3439774989734506, -1.263406780863198, -0.3148139194096628, -1.1677752912299109, 0.9285234118558455, 1.3618584386727213, 0.9765266782698016, -0.13572613385428928, 1.440845358238898, 0.0822816261195636, -0.5935077086307774, 0.35982911119892624, 0.21616584017610752, -1.540691128850214, -0.6842073070521527, -0.5966936520032702, -0.2668812994393274, -0.7913553895890065, -1.8614160858226363, 0.6218621222023522, 1.099480542427056, 0.3167414428867346, -1.6177810667575787, 0.22842574677534042, -0.37893698211971394, 0.7378074049492086, 1.1598923608681249, 0.20184687951293195, 0.5801764833646973, 0.3328608144366309, 0.7563479851723169, 1.3030481056871672, -0.6624934626072412, -1.2724750776744216, -0.11770214668856484, 1.1713155361648047, -0.6861687141547504, -0.16038246186157992, -1.0841368320332838, -1.531083748257981, 0.10944085495449365, 0.19244239137561753, -0.6478733739907845, -1.3384715212538068, -0.1320779252060468, 0.3694486794574591, -1.9797034430004998, 0.380951438780629, -2.365969152211199, -0.8718724877951769, 1.1182534684416197, -0.03620766651902405, -0.31884618551571553, 0.5578106622577008, -0.9357018772877429, 1.282184432289324, 1.3640486782398205, -0.08080435003050293, 1.027001000880821, -0.6026565816341054, -0.478295780266096, 0.8986916340080632, 0.2704512209867172, -1.1191943830881876, -2.3315186741874148, -0.0983975510770245, -0.30232073711805507, -0.657685200068641, 0.06981928281204307, 0.7332953018276036, -0.757564608172946, -1.0338134115189819, 0.17885777512459425, -0.7764572227804517, 0.7077558820370359, 1.2546865007320196, 0.04468256097750398, -0.1480299110472947, 0.2650606791292588, -0.39530328744100446, 0.47347771965585367, 0.9242361595444214, -0.8342948562658886, -0.2462679277250089, -0.7460733938173459, -0.917493135318538, -1.1880477504825762, -1.102906301809683, 0.1602074518893141, -1.3427944579972222, -0.7137889268426817, 3.4764792820322095, 0.5718804140330767, 0.4425168014657031, 1.7232606417664778, 1.4842010481081267, -1.378465983025929, 0.4315299902863833, -2.2407819745474393, -0.22744955585196602, 0.22506221298332163, 1.0811304638337, 0.36921268967072723, -1.227638664820476, 0.8912884574554993, 1.3889276188006778, 0.33976441964749715, -0.7666020289510787, -1.3955204154020862, 0.8314125439273041, -1.310590177068928, -1.311756023159877, -0.24660715943654463, -1.2544679229851914, 0.3156233174401499, 0.009359262474471688, -0.7184301740423851, -1.4225449103940468, -1.5264722256496415, 2.2499396987370117, 0.5351050764318527, 0.4084655946073553, -0.8487127491880647, 1.3979117008943405, 0.8944638598794872, -1.312489562747947, -0.03315439105850673, 1.8198952983510603, -0.23480683018819354, -0.7257471290812307, 0.4440053973867751, 0.019150865348938697, 0.7382482619283132, 1.0659143594472544, 1.0365650223367098, -0.8520950327314909, -0.3465484092169135, -1.5843755871819962, 1.016788058961147, -0.7636767113541019, -1.0551374950647872, -2.8906646245396836, 2.0233318158972717, 0.48686744675358834, -0.4850421763771367, -0.0959284373973974, -0.6016162150337705, 0.49905777693267456, 0.3014391299995887, 0.9113206207469771, -1.3203816154260757, -2.2017784798704834, 0.7468880962914818, -1.2443911235738172, -0.4599726926249048, -0.4172451103880042, 2.006475718884141, 0.5812178922040057, -0.38052813882259817, 1.9596025892149982, 1.0377165225129632, 0.4402585539659204, 0.34055965680618444, -1.1212467220897624, -2.467674182901669, -1.4090540045570508, 1.4869757721891885, -0.07521122275613926, -0.5209872573506529, 0.3785488121938899, 0.8012825278094162, -0.9400927459852021, -1.4828763554738418, 1.1072805346041577, 0.16248346219831306, -0.8183362586681161, -0.36477098976132644, -0.6250889081817286, -0.2747969426348408, -0.5882862175241298, 0.23862653244802953, -0.5478131566387581, -1.6710959534078056, -0.11018608408641303, -0.6974114524066289, -1.964960157853677, -1.351422807123869, 0.4853975402044817, -2.0442121841682104, 0.5616388318789793, 0.32312775925403975, -0.7726106342693004, 0.2845418864288515, 1.0623557436890814, 0.886111570914007, 2.3636997775765893, -0.43157182840153735, 0.7279225069405063, 0.17723595028185538, 0.6233233533445536, 0.9951262927603185, -1.1048984305693548, 0.391912040093638, -0.04497751330689585, 0.5944968509417609, -0.4180470042864484, 0.11036296857607794, -0.7434790860896808, 0.9728441680159191, -1.1315253203597815, -0.7853210999080332, 0.6306178821319919, 0.9134318439483287, 0.5579148038583758, -2.795200159919395, -0.6949496739968194, 0.6326617505901825, -0.30426664259896896, 0.7438036037947475, -0.3612036878647691, 1.0664881381438625, -0.261496107966013, 0.844994728693626, -0.6688585379648827, -1.4211856590474443, -1.3662258391396203, -0.14097431378840763, 0.4445436266225007, -0.6551438835507707, -0.43089664111065407, -0.5550622415180274, -1.01777676521412, -0.22043069445587554, -0.3132810336292138, -2.1490762588769576, 0.10965135618460632, -0.05084425931155754, -0.7189760513752032, 0.25192354767838654, 1.0677343276742812, -0.38818472423076783, 1.4212584374514152, 0.25903324380304166, 0.5520424778200237, 0.24733717107795533, 0.5036505545897871, -1.701893277635051, -1.6930190837629975, 0.3473778212293204, 1.0536249264026967, 0.8614197322940934, -1.0795828637611773, 0.12491149227895093, 1.323228814268463, -1.169532313981103, -0.16282638659973164, -2.9856289760819417, 0.03755414265676733, 1.5150339586610553, 0.9677773572163618, -0.4081630846790046, -0.5768356057262706, 0.43347310592277427, -0.08176022629221395, -0.49307391821316243, -0.662216615103244, -1.012948652835646, 0.09644521974116488, -1.4314499379546075, -0.5007782645435628, 1.0106610743098376, 0.8942924369671055, -1.7881286089752961, 1.2795556808042066, -1.0741442809691986, -0.36277730180712014, 0.7544205122312366, 0.17236480108308527, -0.7601061848817857, -0.5338427370366555, -0.20997130322266827, 0.49896994399830924, -1.1236705288242053, 0.5884039915815364, -0.35192498155499147, 0.7146647228991972, -0.6176323488199147, 0.9126384587956761, 0.5446647466899204, -0.6896217986430595, 0.11156338575682191, -0.848395650616125, 1.5632878203189373, 1.7303005471557447, -0.8287077628223875, 0.8440028984568113, 0.5682091347315351, 1.8284014034823959, -0.0186406163183751, -1.4141285993645079, 0.716893833364109, -0.4006010105470125, -1.0784252187881265, -0.7438933677888817, -1.4034790471773155, -0.11165529413176979, -1.5268536575615475, 2.0047973915273403, 0.8556362040862473, 1.2203437977692606, -1.394515656999652, 0.7004541191812169, -0.589098616426519, -1.1584524794668971, 0.35406560800924664, 0.06850137225627487, -0.040858774757785515, 0.31817280631773015, -1.826996113069614, -2.4772861957789947, 0.6851074401189949, 0.21770463026770315, -1.1650977418340778, 0.8503513755859509, 0.1638038374216965, -0.10992483460029107, 0.22530904198991136, 0.7021699030647518, 0.28193660876532783, 0.07141087215392519, -0.6203437421964408, -0.3097017621444328, -1.3584719007842219, 1.3553858413194049, 0.5750716055432439, 0.7736814915029152, -1.107232066878978, 1.0174859473635, 0.07185876445887672, 0.6375791527887034, -2.6301130272382984, 1.2344472064273193, -1.0649879647752363, -0.32085624746431163, -1.1703790483928804, 0.5129949964376451, 0.16578448092195325, 0.6569409782809076, -1.4987865926665764, 1.6445534274863058, -0.37331892094096036, -0.6392777544972296, 0.5961554484727923, -1.8947513518051389, 2.1664151648273755, -0.7005399099574041, 0.9586635622624642, -1.065468980047027, -1.302103904202383, -1.067229076617071, 1.115281998268449, 0.007305771555774201, -1.2007660709826544, 0.09011269498479366, 0.9220815544072357, 0.5847002799070153, -1.2754375548615715, -0.9058126785286653, 0.4891093736538707, -1.2025414325996913, -1.3526528196100156, -1.3234741217048742, -0.0670282380074307, 0.7526349431122472, -1.1950043767296574, -0.6000343010908565, -1.529073453856883, 1.510067239919892, 1.286372888448024, 0.6411391736616758, 0.49568629054062296, 0.5237574772984902, -0.1289911563561642, -1.4880242293261876, -0.44385183244118703, -0.517710387237817, -1.5453709930150172, -0.14543060068704247, -1.1167925807632904, 0.18849648075312567, 0.11899728111214945, 0.6889763244548629, -0.2822131263200962, 0.23464231185750462, -0.8395930502664354, 1.8103552952859525, -0.7468691131014961, 0.7486149280345079, 1.1946736835477894, -1.6876155238290946, 0.5152312069823903, 0.2365442392188047, -0.12905499879901203, -1.0525016454243836, 1.429933763209956, 0.25240420174932254, -0.7195008703791262, 1.5417511010092206, -1.14565224582489, -1.0729795857084738, 0.3067244801116272, -1.254382484808408, 0.1439962198692542, -0.7023800391476195, 2.58421308183413, -2.2573169029822164, 0.6419109027650391, 1.090497165706466, -0.11189476930819765, -0.2891685784621509, -0.9492758119029326, 0.6020496542955993, -3.3564528671555522, 0.37080697047068034, -0.19192198699263996, 0.48171187365906104, -0.6481862295339392, 0.10906525114539589, -2.438205639439666, -2.2350386473751755, -0.08237184259098781, 0.44099197100911947, 0.9368420102431805, 1.055263726506466, 1.0889907894793023, -0.455469713020563, -0.039360031130677965, 0.744713449196983, 0.8989796591439918, 0.3729599551617287, -0.8358385251061492, 1.7041392687059178, 1.2369336300588665, 1.8385884499760026, 0.40843425966805513, -0.790493733676037, 1.333724989267535, -0.3239769562608658, -0.5918439394084816, -0.6784258526453912, 0.45608069860489137, -0.6554855397291832, -0.5656999036787939, -1.70198335775264, 0.6742966598986437, -1.5716490773894518, 1.5699457018869294, 0.2587477246004438, 0.4114131433141094, 0.029470044762728506, -0.17958452871657113, 0.33022233453422045, -0.38434982444725846, -1.330183038757443, -0.5167496204413563, -1.6820338002589097, -0.9820354451478372, 0.5113309964402305, -1.8008275873916924, -1.9100400246385238, 0.06650486708027391, -0.826828457312124, 1.33338381062733, 0.9060621885969108, -0.06771203824621289, 1.0870607082521142, -0.4662430218031784, 0.3863632745106662, -0.8346174655216942, -0.5536992373660067, -1.3584737620472749, -0.7253120284260746, -0.30341348631333376, -0.6725625481538096, 0.9612681875277543, 1.6986770770112583, -2.985900233261055, 1.2924828324046738, 0.15237476115361281, 0.5964295957500174, 0.16037226014041464, -0.28428526893913764, -0.910440786994664, -1.3094015613907866, -2.353274244618186, -0.01900430335499776, -1.3942395992203165, -0.440577661961894, 1.282843553932787, 1.5306114237563826, -0.19483417296533373, 0.9749667494374485, -1.3038386435619884, 1.1144586221958996, -1.2593115285275882, -1.5149506564885398, 0.5514452443677745, 0.7612007504506095, 0.11452511161492192, 0.15237101217558588, 0.5460260241163521, 0.4345528676099053, -0.9542024336407577, -1.6774526582756288, 0.6112151110326018, -0.8608895450904406, 0.5182287588454688, 0.2706229987938274, 1.1221095136057302, -3.1385526196405196, 0.07112591707151178, -0.7035366653611056, -0.4393973162132219, 0.3347113557712742, 2.7217675980619016, -0.40861622859376096, 0.8741012789479334, 0.60868096873386, 0.19194956236996735, 0.03123579368980101, 1.024110333630086, 0.9061102689033059, 0.34506813894190785, 0.15857155354233413, 0.18670923891236466, 0.280743179223374, -0.5677644384410615, -0.5092954678019807, 0.23309957404643475, 0.8187533574412433, 0.34059771807338957, 2.128171974385753, 1.0384440143101261, -1.7358532197365695, 0.3182088824770552, -0.9720222072192111, -1.6916075560852488, -0.9230009884115602, -0.35701176840466703, -1.1408974562052963, 0.9523535576776244, -1.2594165474201975, -0.06543739252524397, 0.7077052001982845, -0.49765113318192283, 0.34924403833532286, 0.773354722732166, 0.8032226218073404, 0.8627105494902119, 0.09628401187862792, -0.558129806669427, 0.34543969894332804, 1.798858593826673, 1.1772766993232284, 1.219452297690402, -3.166604386452214, -0.290238151313949, -0.23153208186623384, -0.8758477609523019, 0.6917510413476269, -1.603432136288248, -0.8683943500239906, -0.3822192972162912, -0.8995042322960017, -1.045868141474545], [1.1126123579308822, -0.7998968793216072, 0.1039851467115839, -0.5022060776299013, 0.7766386262617669, 0.9692152652452987, -0.5332503033389057, 0.499763648880372, -0.0864765264724909, -0.7440748232998649, 0.1488074127536972, -0.9890435221524954, -0.5429910019620086, -0.19870400645736372, 0.8672583889751055, 0.8463506394982249, -1.2527958376889026, -0.41652090824373295, 0.205940765103098, -0.6553004126790996, -0.42402098655677634, -1.8266603991692483, -1.8678577638224199, 1.409735634500389, -1.183529877754232, -0.5286424992281769, 1.150455719781045, -0.8409033188973383, 1.110080709202311, 1.0886469880837866, 1.3450794452496582, 0.6724831915158309, 0.19382474321052823, 0.7419743440768374, 1.9052337779974953, -0.7030208826086418, -0.00929655147158896, -2.2565041547669122, 0.9465749371683859, -0.15890642073961034, 0.9461265256836263, -1.6353570763588126, 0.42524648788687575, -1.268522804292148, 0.9628549240931005, 1.8854193822874397, -0.7011114994874776, 0.9808114305535193, -0.5670181047989828, 0.5282430950242373, 0.7904828059698648, -0.14420290865079188, 0.3518407826126821, 1.339928846456516, -0.6355976573195073, -0.613461529654307, 0.029873780501828505, -0.876700618676159, -0.29442396354922706, 0.629044475881211, -1.4809308509554575, -0.23207274232012134, 1.0590103738545569, 0.026194354786515755, 0.4545145828881705, -0.7348204142485915, -0.6831693827790427, -1.6418487621472377, -0.38928102643817714, 0.08566419785953727, 0.806198563798161, 1.5966311033727232, -0.20836823651498057, -0.15469373038611228, -0.2636818018628966, 0.07100763483763137, 0.5341781968200535, -0.30060645421793375, 1.9421556053335332, 0.21296122261651262, -0.7115911301902281, 0.746262141189561, -1.7495273552070678, -0.5931254511994878, 1.2288047029706946, -0.9938663387066806, -0.624382577305122, 0.36807602623402463, -0.7474300594904092, -0.3189046053760372, 0.09131839192382332, -0.6631073602053075, -0.32374036428469416, 1.452724641567032, 0.7846347935376409, -1.3848568685067004, -0.41696727625802615, -0.3851197684885004, 0.30452226963534035, -1.070337261389403, -0.27089577476610355, -0.4687130048468497, -0.5242901729102016, 0.3458771246516629, 0.5691207868350698, 2.135949243188696, -0.680090696100705, -0.09848313429707134, 2.067126613481344, 0.6288724230538786, 1.9771318683472416, -0.42982016789852684, -0.8357887039807289, 0.6756404621642246, 0.899816307019661, -0.4859618831943248, 0.2717367079324971, 0.25675741105188465, 1.5465654091145924, -0.8387520071759551, 0.2398959859472181, -0.44411234242507025, -0.4198615883266836, -1.1110662962768982, 0.5334087046960313, -0.5671024648533285, 0.024965850028185153, -0.6092292853977666, 0.5833215456494716, 0.4255521974681999, -0.9803883567856775, 1.2210232402673766, -0.01879079227814725, -0.21330001209123461, 2.7052355805716584, -0.033219406394591554, -0.9744587746810849, -0.2524685041402655, -1.0085466259240738, -0.3233449112833069, -0.3126404184683198, -1.5318738379478007, 3.3066273695962463, -0.12550098565913667, -0.3691153975410221, 0.37015093825609985, -1.559789576645459, 1.0791206280706143, 0.965747588061707, -0.8669080998658361, -0.820666076361899, -0.8885938747578269, -1.7474855762819217, 1.8930166995777469, -1.014485902662128, -0.6656483052145155, -1.331849844306304, 0.317891842250168, 0.18117322036073147, -0.18610388115053653, 0.6755618798440458, -0.6246958999451285, -0.6694461317710055, 0.0011862963054017712, -0.21220753984927845, 0.516483152308431, -0.27367984409194773, -1.490288300017819, -1.2001009028295369, -0.41590502824842174, 0.4071640800200857, 2.0419426964485714, -1.2591804223228966, -0.39905038659798464, 0.488449852522437, 0.9323303997731506, -1.155819641450159, 0.08852601090863013, -0.4679831454483873, 2.538874953885161, -1.6167690927257312, -0.7769138629242941, 1.1307330480395852, -1.1252259921168135, 0.6485839521007455, 0.6865757498549304, -0.7676461598262155, -0.9089631954367497, -2.234957264638143, -0.43091768792969687, -1.3945890739987323, 0.08624374947556913, -1.7175098380402791, 0.16910442939358336, -1.5452462849080526, 0.5592179786559694, -0.2306047300267041, -1.3846872463482163, 0.020413882118778027, -1.516027477294025, -1.3319830384493072, -0.869445735845025, -1.1470711404709903, 0.10696300770692517, 0.9339200457182718, 0.2346317546696931, 2.3564004403102587, -0.6843614514364017, 0.7130852597111762, -0.12048200217893025, 4.629077039264972E-4, -0.01780348652093898, 1.3427010207637375, 0.13411594957998885, -1.5911452557739352, 0.7898647486311753, -1.1581141917057578, -0.3463404431046367, -1.1903581346182097, -0.35244245662612156, 0.5033525669067712, 0.7197581488508685, -1.046850851409693, -0.42241886761339603, -0.6161525536865541, -0.03384504036435793, -1.7658387738143513, 0.7482281773037702, 0.2350918259904981, -1.242422867092596, -0.1216432733585249, 0.18592786333076017, -2.3494903956997026, 1.414427176929908, -0.042061549293008364, 1.1227582114866381, 1.6744021063753296, -0.8761468899678871, -0.31235949510080924, -1.0032344631367995, 0.7582511754122632, -0.5649493954037795, 0.3750929706084906, -0.21932108354790572, -1.1427741573576267, -0.33397938205061944, -1.1506122609113707, -1.0853056744565137, 0.09140660610985975, -1.9505288568883412, 0.13602289240898766, 2.3608230191081416, 0.29028098846991335, -0.3271361611291163, -1.5763083338769983, -0.8460518947271255, 0.1046754442202449, -0.08713146678003848, 0.2980636706931159, -1.068508848388513, -0.181477307024532, 0.45662221529293096, -1.6863067389909487, -0.5681610917222488, -1.6002949082433113, 0.2801009428244527, 1.595098652352323, 0.4973016464096689, -1.0980580149603678, 0.8352108985721832, -0.8072097841676332, 0.41292930413721146, 0.1821610429844865, -0.2511988074714244, 0.26581037318920653, -0.7003482401211029, -0.7857865709461919, 0.13956524561203285, -0.4508996877059478, 0.2072847719769455, 1.2946088575953865, -0.5335289180547067, -0.39813336860972964, 0.8367652334286455, -0.13809113205414747, 1.2427491792933607, -0.45692928097965163, -1.041439453071373, 2.247951144264298, 0.5549842532385563, 0.4487766456435322, 0.3191858475580808, -1.2385775997810717, 0.6506247938651234, 0.8577443224992019, -1.4586274950396598, 1.7517136369853723, -0.0906858327885856, -2.506767708854286, -0.6109184976572148, -0.22266389766653433, -1.4868673121808096, -1.3587833381398318, 0.36013598326390844, -0.9079277595202996, -0.7322241072488109, 1.6235790747266732, 1.1084587820925085, -0.27653124082094693, -1.2657107291963328, -1.5680880581932921, 0.31860622352277657, 0.5582661890822188, -0.6547957926378202, -0.848679654666454, 0.34555210893107524, -0.5888057830521334, 1.0602429020363588, -0.3144869448868002, -0.616069028136185, 0.05226426949021872, 1.0691200335872848, -1.853728506128342, 1.73219617648958, -0.5140801230841865, -0.5954901200528632, -0.8402942830675401, -0.06045336368445785, 0.7794815163286105, -1.228531581326524, -1.973388052833629, 0.2721808484633209, 0.09100384554387221, 0.4863735305925789, -0.10822434665681417, 1.4268433597491532, -0.8749288980221681, -0.4405089262416838, 0.08437073472160926, -0.6733677963781071, -2.2309415388033953, -0.2720187121457184, 1.4111700715109934, -1.0547997730328789, -0.48040916534604333, -1.5707941365499452, 0.702109989040707, -0.6608723854173232, 0.5551375347918839, 0.08562218562284436, 1.6305282340921574, 1.3916291689702571, 0.3651000251365746, 1.1554900725079138, 0.3377362247590635, -0.5189690255972174, 0.46687831272185104, -1.7339391829932402, 0.39909950207337064, 0.25768572859906763, 0.6402933079083556, 0.3627920888928861, 0.19342123383785345, 2.1204702101620416, 0.7282538769196213, -0.38098707497835405, -0.030339417445851228, 0.6682895113026887, -0.8554281895295854, 1.4473623631263368, -0.5610482064958913, 0.8616629275531923, -0.11080274485578057, -0.13541528051155297, -0.7727062440989814, 0.852503038473939, 0.5387527727405964, 0.4151664185755982, 1.781304465065425, 1.651506374366354, -0.11133915252276992, 0.3539544676473292, 0.46815035130669513, -0.24785719202598658, 0.2647333489462274, 0.051267815533697955, -0.5981061160587726, -0.13415354786979422, -2.158799394736584, -0.7336704717770385, -0.9366135678032255, -0.435154377593226, 0.3705167545547447, 0.4710207503554227, 0.5425841908692459, -1.2896791945653983, -0.6319639502215059, -0.5942827004735843, 0.6996522705278678, -1.465230736502602, 0.28784109458197465, 0.6374954078227546, 0.33530342414641917, 1.211285144485527, 0.6592705849712092, -0.27110804096036206, 0.3282014298703591, 0.44212116828258774, -0.914578985713293, 1.206678138856537, 0.8200361599380396, 1.7120819562822631, -2.3964184364590135, -0.4180824512387502, -0.5269919887661809, -1.5732087070394083, -0.7078230194426518, -0.020834533811527518, 0.8093681675293926, -0.21281065664167606, -0.8203764334655349, 2.7835771667897586, -2.182065494959571, -0.0531935171198549, 3.3443110886362835, 1.1940824779332828, 2.3555020190940046, -0.7450796224488048, 0.1479715606445933, 0.05859365101833388, -1.8892382490775368, 0.37805275959488543, 0.838071697967467, 0.41820477276340723, 0.7052417258143068, -0.44180618918394393, 1.102338930115633, 0.5674035122192408, 0.24715594167575689, 1.8747395943831437, -0.9468237925619111, -0.22311584024597694, 0.650076393979946, 0.616951827218169, 0.9064737843003855, -0.6151589629364843, -1.1423557860269995, 1.3113626996954548, 2.0528870165575928, -0.051935064242163126, -1.0237677747919027, -1.18371482340203, -0.805233409465118, 0.88858827307959, -0.44548578476962253, 1.0033070049308757, -1.1632909598161145, -1.0773465014946761, 0.6529972087976527, -0.33159642550058854, 0.9652250644506395, 0.3081909396349426, 0.7384308745867596, 0.11752147297834706, -0.1936948691352171, -0.21184476142848213, -0.5978734229247348, 0.9980025167589127, 0.07638560200489873, -1.1105039344687637, -1.3181682093527753, 0.6226220583647657, -0.7755219067252161, 0.22494034359061826, 1.1144316330478377, 1.581346487437792, -0.9602059989453045, -1.3194687710528934, -1.50943480897342, -1.6544377299841821, -1.3380423722017771, -0.6818513257994792, -0.4699120080395681, 0.1783106792145998, -2.2862731649298156, -0.9947093541182818, -0.8483625312859029, -0.30836205882077994, -0.9667000054280036, -1.1703420837025988, 0.2587338999478503, 0.8145923188937945, -1.026260571700355, -0.7542923000842653, 0.2931561889379992, 1.0097577729302736, -0.06527536722333697, 0.2796679340301696, -1.3099130611682215, -0.7334897237805764, 0.9116847375259898, 1.1227499459696397, 0.5814105826780095, 0.9435714699466238, -2.7185600821420826, 1.3666957508127249, 0.455875958000833, 0.4208493034141905, 0.9654958250780294, -2.153040449415141, 0.25117362563159634, 0.40827309055388533, -1.8408727517951688, -1.007983313819413, -1.7272370582989434, -1.9601612469058516, 0.2651479887511827, -0.8041476136338721, 0.48391096647055204, 0.6429686967659884, -1.3936710428618453, -1.3540527839759207, -0.6324397741274183, 0.6573285981319812, -0.1828046477675423, 0.9221090926203495, -0.29276372641015663, -0.6132545475880015, -0.22688130384326025, -2.156813438160068, 0.09139153690367285, -1.19875714253586, 1.9704817535874262, -1.0984586351014758, -0.4328928227624401, 1.0743382371858754, -0.979142785761851, -0.9258395363368342, 0.15655696615371228, -0.263045733793974, -0.08225650896206106, 0.2898111272281392, -0.04899134722824604, -1.1863534776825133, -0.49818431581883216, 1.4594303325168436, -0.3027002271191273, -1.214739012687554, 0.07715521180419099, -1.4143308834202757, -1.2042744574803612, -1.1678474162773615, 1.152789079800005, -0.795247399171224, -0.4503560550054565, 0.16713584769271744, 0.9725750012376236, 1.6519165970641616, -1.0968924308152848, 0.8713491544509245, 0.310142423072679, 0.989941502654386, 1.161696270411121, -1.1718455831169425, 1.2733250576454203, -1.6210876081517096, 1.3569227603508518, -0.34988306151792076, -1.7655312242043324, 0.17228944180243363, -1.0409072097881775, -1.1795589954773318, 0.1922415984881162, -1.8244994627275313, -0.46390249871151074, 0.6876552549302931, 0.6131137519170076, 1.6285020218978825, -0.9865434352107721, 0.21558636669130354, 0.5791848752033779, -1.1296983860219718, -0.08000082790540948, 1.7672225980794642, -0.20770817160389596, 1.120646769626406, -2.348919264668468, 1.0662746789174122, 0.22254012193505834, 0.6946184963542162, 1.0232514691744918, -1.0985719191605985, 0.8002474406647749, -1.6991301449501608, -0.65776305375377, 0.4554219457318354, -0.3722717256612766, 0.7136715899348871, 0.5155503787133674, -1.0378342093174033, -0.8838989818747177, 0.43709012001908043, -1.2322551404286872, 0.6937462902393404, -0.6223539116655077, -0.1234371086806243, 0.5028069225378543, 1.2443012597566752, -1.2417919036836436, -0.4805529784876319, -0.8544233511695103, 0.7656402894234118, 1.4780181322852846, 0.2445534666967899, 0.788121200305032, 1.1653137676101615, 1.3564105190383116, -0.006913178723313628, 0.22523970450381056, 0.3383924908625182, 0.3887489103415551, -0.3404766372248245, -0.9077595678085165, 0.10973368007618038, 0.14378107187868472, -0.6504674301713796, 0.8520881739561176, -0.5198015234187064, 0.8937561884143399, 1.098842404170547, -0.18434376392334162, 0.7125738565453065, -0.28293260236423545, -0.9126002535503139, 1.076207667447296, -0.15878870923288957, 0.9989766223098306, 0.13168540199538467, 0.3534347848521215, -0.17677349756810984, -0.13182053263509863, 0.5952527923988871, -0.4590948798978285, -0.23929080443191306, -2.034154253109664, 1.4742616657446714, 0.2283772429382233, -0.2115159292409578, -1.900870590740765, -1.56106601904983, 1.3198197135107534, 1.5886045630269239, 0.7226635015257321, -0.1676238542095827, 0.5338262103382059, 0.4261270745249467, 0.6702199310991726, -0.9796890602839745, -0.6251783575118997, -1.152848110443546, -1.5142446099732965, -0.8194421442895342, -2.319364757839051, 0.9053652096356269, -0.22570031036275076, 0.7337172343429733, 0.6804790090928621, -0.1937407251705361, -0.39880943397295393, -0.5761822082991784, -0.14599304097775617, 0.4269949599412721, 0.005919453260775888, -1.4744045016416136, -0.9965442689035192, 0.7837277018649629, 0.49505074391192794, -1.5206936080353355, -1.3190623777287855, 0.3606625409728624, 2.1651128988581405, -1.5813080912032351, 0.7399564748044586, 1.2420293702706204, 0.32452207308296427, 0.6540432988110919, 0.40591219481250446, 0.6078460091200455, 2.348886155312916, -0.9937290234355004, 0.3496644769446275, 0.34229823737632076, 0.1838049646627254, -0.5009862912605015, 0.009926317998049073, -0.5372581379152275, 0.5013151264593065, -2.083302442282212, 0.8193460619037795, -0.4741579487145112, 0.32002959219754634, 0.24006188159732822, -1.8702129561893097, -0.5704167720154298, -1.3960173382791599, 0.5260180638482757, -0.3265823002463808, -1.741734002279352, 1.4451028644918467, 1.1669238385794078, -1.9659147137541966, -0.5326220401781826, 0.41115888194838884, 0.6480672977280623, -0.416696965846592, -1.0745579604798638, 0.2884368584360858, -0.4891310400415859, 1.2399559929100867, -0.3611552359320511, -0.026742006469796988, 0.5083538402399375, 0.19570382432749955, -0.8322171290241159, 1.18684381507388, -0.07444289946122656, 0.24983321579072715, -0.37272535456301475, 0.7874934290367869, -0.5023024545347449, -3.1991678596459865, -0.6421829182142792, 2.0173169773012516, -0.9327137204229261, -0.45535210293640954, -1.7029101290451165, -0.46632281629664635, -0.16791140850882946, 1.176682265145352, 0.09373371682862404, 0.18625320940488713, -0.746324798421746, -0.7002265687362095, 0.8620476528710748, -0.66089805696019, -0.7681545739706848, 0.5201335270595554, 0.021711554558231223, 0.7899159164059261, -0.9164213722692469, -0.7824647184608717, -0.043029084336719016, -1.7294085191168476, 1.778427117200576, -0.25261095588371807, -1.3772856394263098, -0.8298605314734655, 0.7227320151426192, 0.9804125642019346, 1.0633499376948838, 0.9539752006565477, -0.26255686168204323, 0.5821229931955292, 0.6494102029856688, 0.0528897972449015, 1.4910865819202903, 0.051137639564608935, 1.028103430632288, 0.8131190478148045, -0.7055686822718007, 0.781044979661259, -1.4047638124465485, 0.7456881021287537, -0.19708615787324293, 0.45838167982692934, 0.8298925776826479, 0.5633327886507355, 1.1950669372867881, -2.083432221877199, -0.48924224194184807, -0.5115370461660174, -0.8247239217955853, 0.5993412693969429, 0.39818098572516797], [-0.5504951717649985, -1.8730152818249286, 1.2069774535812925, -1.7250895922727365, 0.39119598037149356, 1.2242256528910918, -0.02266068597909782, 1.387535662155667, -1.1690119942887465, -0.02333542194803811, -1.0302336308167557, -0.741728821454278, 0.30036645420798697, -1.5390257534315932, 1.2293114124730036, -0.6766385800856759, 1.5034576965108108, -1.0166224546174498, -0.03882611601652078, -0.7662336710674935, -0.998757306041934, 0.3265359221890779, 0.12566059474370672, -0.43883302970166604, 0.08328405844414395, 0.5208810758215449, 0.9762275403271808, -2.089993588456466, 1.3153386231905129, -0.8466642055477857, -1.7491892246260943, 0.5842859959152247, -0.022954122689125694, -0.08448356492667905, -0.20248798973572354, 0.12094375625299454, 0.26072589095309573, 0.41534603911477336, -0.43595395174063506, -2.2242842936659097, -0.6391287847355119, 0.8703374080810334, -0.30544161582654455, 0.6616466010858457, 1.8311225883520204, -1.9358063692648162, 0.8855157321597392, 1.0741410786314187, -1.9414430870984059, -1.6071907490101487, 1.1336760634465597, 0.9693137980765171, 0.4196898353645993, 0.0455521144324047, -0.8356708201808049, -0.2887228132381285, 0.9076985296864035, 0.14803069303902464, -1.0932377907352968, 0.49504102221587704, 0.27418270483466106, -0.39821949228902387, 1.8050653378161488, -1.2550848302068054, 2.152388542660093, -1.6148820231663041, -0.40648568536079016, -0.9939002426392752, 0.04407908073293326, 0.44326875200368937, 0.1389613813711173, 0.4845546002031699, 0.0592278057642833, -0.852104050414654, -0.3444553250828922, -0.24476024192273915, 0.06771793731230501, 1.527791081348387, -0.6868994683064388, 0.3111744435895696, 2.177894167989924, 0.7040004565013794, 0.1666313516419132, -2.1880817679351843, -1.6375880075965197, 1.7991102605554627, -1.6169918630328932, 1.0463593603771442, 0.43207748490960796, 0.26730251471720023, -0.7838093115270591, -0.9241604751225614, -2.590774364306429, -1.0981381712607043, 0.5932759514826808, 0.4363323442043722, 0.8045147038373255, -0.4550499149348308, 0.6517405955375222, -1.401135482419173, 0.5779619667560895, 0.28028260498469393, -1.9727782714326996, -0.19612732199136618, -0.7915620089474225, 1.4082107137663311, -0.5195458210334634, -0.28080447117811236, -0.30187037379896886, 0.23277080426810698, 0.4165015544640483, 0.9729997008785534, 0.7205497689113239, -0.2608543102322772, -0.1406150493729715, 1.088906530723204, 0.9804853624576715, -0.7025718050670797, -0.0543531704407839, -1.801679814667952, -0.10962387166576748, 0.53692111748596, 0.6446364271909983, 0.4246271367700088, 0.3815275563217241, -2.8180818705683937, -0.05672440293338128, 1.2857525586698713, -1.8827265451282937, -1.2337404360570032, -0.6543345447558275, -2.1285623965426623, -1.2674009197177882, 0.30883315300954567, -1.0149927496556561, -0.9570458848986936, -1.1165683314547543, -1.2645826565925156, -0.879805064043222, -0.3875220375327504, 0.8112223208761433, -0.33375135117015864, -0.8102845162598135, 0.04008334298431043, 1.570675242732828, -1.868142705530435, 0.30605487834003836, 0.8997491565611498, 1.447258129941448, 0.4442766907904881, -0.08351404650751948, 0.5595737528683566, -1.0626099018291104, 2.073303475905167, 1.0438211000103235, 0.8559341655103399, -0.742991098767129, 2.195973195846936, 1.4080334434976054, -0.4489553834129541, -1.116005455602681, -0.1691636094855105, -0.703811325566373, 0.07867207811999441, 1.5908395978442342, 0.9584922155366017, 0.6337370656767646, 0.5129642325888573, 1.9441482263736827, -0.17800374841114805, -1.3677779387706037, 0.0806047826781267, -0.2632192192216961, 0.12036914084196643, 1.2993310758214667, -0.07551574997732668, -1.4652612102331954, 1.4115800853178089, -0.26220386878881735, 0.5812877808100599, -0.7644742407317824, 0.6775971199834113, -1.5866260375310053, -0.7497924360707925, 0.22621731059699374, -1.1077857187748745, -0.0961816581120241, -0.28329648123759427, 0.9971317795346603, 1.3359638690298083, 0.5956712944716759, -0.33683417357444734, 1.840289230960399, 0.07635341767336525, 1.1095179806888862, 1.259024262613556, -1.0510526772777358, -0.2593642462879183, 0.7865089014677754, -0.4000313625887215, 1.5548863277925091, 0.5316775886326544, 2.869648193386775, 2.464230175651166, 0.9263295927581521, 1.8808189845724699, -0.11451705752207252, 1.5112735525934131, -1.5030852019045304, -2.1635548252797565, 0.10691764177790754, -0.8493002289725993, -0.8316205077393973, 0.45688370629574965, -0.6215394394265249, 1.9893821896508463, 0.15579666438460837, -0.1950439302424112, 0.21339180483193393, -0.03498146444404605, 0.36947864785626283, -0.46121694040460726, 0.3243558436024911, 0.21638861219519057, 0.7987935427271924, 0.5383603538563112, -2.6199213256490075, 1.7114140350298381, 1.4256951765264398, -0.007944217555188437, -0.6500415257950195, -0.4041796196471707, -0.0963816477899975, -0.3995641161009671, 0.049278078831669535, -1.0354150041641568, 0.5100735299774315, -0.9541497519456972, -1.3626431031755046, 0.22038324020406724, 0.45282311450071344, -0.47636572856103027, 0.9465514548879466, 1.2274465967419612, 0.5069238570890137, -0.1637981780892919, 0.7071991793799104, -1.3078563078333583, -0.4078655794440485, 0.29903293507057394, 1.1990434523121092, -0.5834601275455006, -0.10285110946731314, -1.0072683929352475, -0.2445630298522329, 0.5445887920095819, -0.8944791381100209, 0.5184142969225862, 2.3408414027202324, 0.927891685426161, 0.748077748307781, -0.1533734542234287, 0.7460255766759014, 0.6254401650213143, -0.5012907357404696, 0.5956303437928455, -0.6098541023063285, 0.3330462547385115, 0.7728967740230761, 1.6660055976066757, -0.9076233435703123, 0.13375949152593203, -0.39901039042073355, -0.6569280858830493, -0.06115736053638037, -0.6364011312394005, -1.7953360312887667, -0.883551088716451, 1.1372748885087849, -0.42015961487167064, -1.8774536671880575, -1.016566387067258, -2.277889960276892, 0.923317927325314, -1.678325880949421, -0.020447853492889252, 0.4131314915849885, -1.122223981525165, 0.6550359561647382, -0.7012530609616755, 0.5791793129457502, 0.24192023452842656, -0.6643668720515942, -0.9201909648833001, -0.09106735619406339, 1.0801275233653915, -1.4296328372410578, -0.028471273331266245, -0.2729865742602636, -0.19574950320967113, -1.0659320106928007, 0.5645199692404236, 0.9300540660498117, -1.1692565361172504, 0.6721239692717023, 2.142481497025127, -0.309899331268846, 1.0690930300315924, 0.08703300180886427, -0.6722510458997777, 0.21694037132233526, -0.4279918730401709, -0.19404685949351375, 2.028123950964999, -0.9316118208407892, 0.08528010477661142, -1.2614208951865453, -1.452400231365985, 1.1444786731569045, -1.2600828052453061, -0.11305159939640079, -1.502339089306669, -2.1836917759659036, -0.8721708250353252, 0.9573232838502113, 0.01818939828324146, -0.5509076840917065, 1.1969250094916808, -0.8800779955454311, 1.3769356768593874, -0.9149383520710103, 0.1030504374617414, 0.38092830370886843, 0.714791802730943, -1.5510535016985565, 0.10705364156922899, 0.6264777926879588, -0.7826142001712869, 0.8658250479489876, 1.0348764470122767, -0.2253994145222331, 0.723029431725241, -0.03698062348139755, -0.08246466118073009, -0.28927992116292933, 1.135748878176295, 0.46245338913688194, 0.12051110552502901, 0.45131155148041047, 0.9454358677614407, -0.6537899129150693, -1.6812519136598871, 1.2462137286472166, 0.757119117304035, 0.578909605434535, -1.5094704006176716, -1.2721137132544242, 0.18713274882652392, -1.559375543518648, 1.4196644754289252, 0.3948332428049633, -2.0119913709435173, 0.7472256983670637, 1.4596394620395374, 0.7365036021334889, 0.5451409516752806, 0.5381677475350873, -0.06073863347795383, -1.157266673349897, 1.2063419741632624, 0.28381691613583343, -0.14375425360458638, -0.5732629080001542, -0.6608271198520757, -0.8442636529359824, 1.6802300676672168, 0.18958182237111137, 0.5969598436377391, -0.3134775282253205, -1.7131448888445693, 0.2866574945500883, -0.11098733389647195, -0.6498374047938201, 1.0926914109676147, 0.3419666996868854, 0.28082794811533107, -0.1785233066036976, 2.0777677129636203, -0.42762539256554327, -1.4443800833117577, -2.364467548538027, 0.5335074545210525, 0.6104644383655276, 1.8383558579137005, 1.1057670340597032, -1.0811405159767662, -0.07532829537959236, 0.04157960696971743, 0.6803564483300685, -0.7233901988179948, -0.10833577983943542, -1.0633931020547105, 0.9298731810773778, 1.6627727399464687, -0.6981236249159809, -1.1655949453268377, -0.08773036663781868, -2.498808512565558, -0.0053702532066668765, 1.3355443718909226, -0.25317227956865884, 1.293682799520817, -1.437821941889387, -1.0308557086332106, 1.1799518760320244, 0.9758172035331183, 0.7893343279475916, -0.1996830736977571, 1.9987312614863635, -1.2736745528941888, -1.603323992496752, 2.733948703917268, 0.06686122944561111, 0.8447166376517657, -0.7270773455200703, 0.45228261765312144, 1.1354646016882701, 0.33119575403334006, 1.2403676816994231, 0.16464573155354675, 0.9262276913101735, -0.02556020523631105, -2.7421260836635892, 1.4875141394473794, -0.02671073458313435, 0.8085819676897282, -1.444169495175408, -0.8458944202719652, -0.9612004471923615, 0.35314845627791586, 1.031658112296623, -0.6529024636785763, -0.05596131910684464, 0.13090863259248944, -0.4661855287316678, -0.7079646950293795, 1.3613172784833505, 0.8090709734538911, 1.1513379864007092, -1.2819808491769809, 1.5009979116551793, 0.8406553120392801, 0.2581034109138851, 0.16241284061856856, -0.3226040606862446, 0.5662878645656765, -0.8140339012828708, 1.0580401206775005, 0.7075085822761273, -0.3240169365781901, -0.46514329506562896, -0.43302954129626786, -0.43761751524989767, -0.44777689695509926, -0.22198737821811987, -1.9019712375270355, -0.2592632264572994, -0.23689173673795996, 0.132744285624764, -0.7399823381128715, 0.7984470973107087, 0.7776786255037041, 0.10574778237837666, 1.7269911346238047, 0.7592732960902981, 0.08122428187723577, 1.9468708771090575, -1.2024027001675792, -0.2713371646824797, -0.255922512337071, 0.4465117749627914, -0.39393176664942925, -0.26745524922385655, 0.3689333572109832, -1.4890266061879378, -1.1611846307223872, -2.182352286726772, -2.275937123999127, 0.3001248166108815, -1.5747199892901964, 0.3508557633187886, 1.9422668145776147, -1.1088459837246125, 1.661673756645858, 1.554898534455517, -1.4785094119431472, -0.9158834974189006, 0.435695558403011, 0.014474933408788642, 0.7755955435897666, 1.2611116162120515, -0.8884894879740717, -0.7755188974445545, -0.545292039496111, 0.965567868852114, -2.2313773801823, -0.07931527840878339, -0.21747343678260628, 1.304809080010228, -0.594627589814676, 0.344155040593123, 1.3273116902768856, -0.2115954072784726, -0.5555499292084662, -0.07522242230832765, -1.2793611117414179, 0.2525140291290645, -0.18184603262700583, -0.24731668818438693, -0.3254061965888864, 0.010590298382110402, 1.552162086239038, 0.7489841164099873, 0.38887615666507197, 1.8152125341735241, -0.20863764451626304, -0.9872440154804987, 0.8136365278706991, -0.1933435705771267, 1.904274830384606, -1.0569324459011384, 0.4825234053841959, -0.3717443191021278, -0.20869448679193695, -1.3381852086419188, -0.005629297138468948, 0.5078704565582997, 0.43770587885325524, 0.9537335181793433, 0.7648885246389221, -0.08502508250379374, -0.28630651516902134, 1.549927734020511, 0.0453150214921933, 1.116991774284259, -0.7382412107464342, 0.8303403486769151, -0.7480657976433401, 0.5368266412358081, 0.3027175708908181, 0.22301207462214528, -0.839079630814698, 1.1206234774956352, -0.30241452227593935, 1.421449743576884, -0.8604142811254547, -0.8005327887591229, 0.9463543598032067, 1.327195684318287, 0.7170959800124547, 0.12935260311423608, -0.22571754680763892, 0.24069720089599786, 0.3306095868717385, -1.1708149884726888, 2.5359034066942936, 1.0386996886820108, 0.5094093325887371, -0.357440706798238, 0.6946731870087864, -1.740513272183056, -1.1707470006492013, -0.6567639232226395, -0.07399400290943141, 0.7998466716462304, -0.3041557245916062, 1.1974167785420997, 0.04715902832944036, 1.4504733612689062, -0.3363187785848797, 0.9144651312526448, 0.45465102444985755, 0.06594341857102225, -0.6154956607536541, -2.0959722493749164, -0.6276362640892807, -0.3315530856728735, 0.9771124608511054, 1.8386329451641017, -0.8719795368771285, 2.7186661982963405, -1.8252444934214953, -0.17510450583807066, 1.7000225315576667, 0.19636281389668517, -1.4070070458395654, 1.6052750592604752, 0.8194135687416801, 1.3602483516827495, 2.120454256277315, -0.7987925730858816, 0.9478002014895901, 1.3193774600705175, -0.7018813874643358, -0.1442607595489211, -0.6284090349919718, 0.28800858732147083, 0.6376457002203781, 0.028596631731838046, -0.6061383462707636, 0.6341800661607364, 1.2358674820425497, -0.45200890856477316, 6.54186896356879E-4, 1.105769888444375, 0.6990120610607343, 0.5356197711457152, 0.7402344518089562, -1.9642084496699612, 1.678299755852276, -0.11637766866550066, -0.086471844451103, 1.3066428157186303, 0.1355989777075058, 0.21539745858615933, 0.6916530602461556, -1.023269330382218, 0.9031055235877546, 0.481848964776469, -0.7576895284063458, 0.7911826277517713, 1.6778468277888872, 1.489568219789593, 0.9151378925225664, -0.21882537121471282, 0.8768654712326508, -0.162057122046194, 0.57053774903577, 0.29686601906537236, -0.37781355229850805, 0.1867735334665442, 1.1677687623161113, 0.43041952034467285, 0.4756023284801944, 1.8234793178508941, -0.3819407221611907, 0.3031798534589562, -0.9205691814066466, -0.7187552730634845, -1.5516515445511547, -0.10224991498545336, -0.34496858000095504, 0.3451657313862261, 0.6248855517097418, 0.4636589498582223, 1.359776963651486, -0.24640827276353922, 0.3012541959491017, 0.5055129442957192, 1.0803793540853186, 0.26570130148559007, 1.127209157962934, 0.11436790422397805, -0.5434289058858938, 0.9352459646754778, -1.5670983661636715, -0.3871745832864072, -0.5235472948863583, 0.6603972633380804, 0.4497536642443923, 0.6510554419831912, -0.4360558585953993, 0.16316242047135773, -0.5246617753178093, -2.239781172980608, -0.6017260733158689, 0.4597708417427152, -1.1768445994434464, 0.2725526035127943, 0.7474394091053576, -0.5467069038847882, -0.044099012854036494, 0.1534599719107102, -0.29530932973406543, 1.4252770607505576, 0.7510665324371288, -1.4226638794576316, 0.15680256705733955, 1.0737527583018158, -0.15277609685602198, 0.46087696347450974, 1.2909540643256596, 1.6801677403239346, 0.3946176307612677, 1.4466055528540087, -1.7500366629037585, -0.6409826676958401, 1.0990412254312971, 1.6793112149828722, 0.005590832475484219, 0.13385129348071406, -0.22480341436564152, 1.4036822162313518, -0.4123643779665154, -0.10459040375858634, 0.0629544200290646, 0.5940461330120306, 0.5528229286596554, -0.7318375925167342, -0.9888892241142933, 0.09708593702804302, -0.9267067014519491, 0.29785856808898514, -1.8955220862049427, 1.1205518027942536, -0.5971487988441729, -1.479090145308586, -0.42921342792676054, -0.7329808954367302, 0.5268188054835629, -1.7649629247133993, 0.7438652420205647, 0.8330189344627132, -0.17237308479092936, -0.5022972916918053, 1.3746534540636244, -1.47704286135005, -0.9993431432430541, 1.7216381772968974, -0.8584587376659686, -0.009785720823314014, -1.4188117575592603, -0.7478728670744355, 0.3518106497539876, -0.6594787543278621, -0.816376449259554, 1.0172208130895593, -2.5721934298703046, -1.094363556698073, -1.7370038749809662, 0.5062271271474598, -1.1105236670518521, 0.06363182833130056, -0.9392163641700984, 0.06971949783153696, -0.08128217144267358, -2.7215217034463235, 1.6492507361560724, 0.5525181262854483, -0.9779024306921598, -0.5630751292494187, 0.5218072753670582, -0.009045334668562702, 0.575574957494602, -0.45502129865538765, 0.387929246863741, -0.9438417363624716, -0.01611450700333692, 1.4380190089858302, -0.6037721074154235, 0.4003029312800793, 1.5927291891364153, -0.8844846198162616, -0.3030453382773596, 0.30814457918733773, 0.7908055925323557, 2.440853442587263, 0.7108989311687874, 3.2175233812996313, -0.0034241018605272854, -1.1455101290126217, 0.12154481866688298, -0.22346739943429073, -2.1612168069223605, 0.5900168656179848, 0.8767876087900212, -0.7487144561463925, -0.36005211613691473, -0.5475621347562537, 1.7075626151343217, 2.303184697946429, 0.6103614834777872, 0.41907943698749195, -1.9145958952132178], [-0.07916360605156002, -0.15074608678946808, -0.9116267841937529, -0.14249177299468715, -0.3723726632512284, 0.8027853666859828, 0.2538842633645986, 0.7100606302646345, -1.0450441634985255, 1.863253264524806, 0.29323889430529343, -1.154675332422599, 0.3058277191118671, 0.10491744114386913, 0.9286622885642173, 0.9935366050920249, -1.4210297652392188, 0.47739630192314425, -0.41988291354368507, 0.36966244518655283, -0.32027069639267775, -0.8046611706244592, 0.5148864096384181, -0.31040054826838664, -0.9352950293258764, -0.6629378757881503, -0.8157783466474805, 1.883563034710458, -0.890233650337586, 0.1278773774223736, 1.271518343806372, 0.3778898031722594, 0.6763069749029932, -1.8844876979200493, 0.34899615661546424, -1.1043353555960616, 0.7768287922527735, -0.1891738888175505, 1.7568282328485412, 2.170439600479979, 0.40923456875186787, 0.6055532460255794, 0.08712183826412205, -1.1140808468205263, 0.9669224890245749, 0.06720166511606697, 0.6275196054143688, 0.9924788709366607, 1.0866336737079576, -1.5580805727673528, 0.3164662922752312, -0.09488451193598832, 1.6710706573051277, -1.039616317932179, 0.4625737238839733, 0.24851121949641405, -0.15912366281474039, 0.21223142397814168, 2.71538703890456, 0.5631686994147849, 1.8931656909878567, 0.43111127935634236, 2.017045981620453, -1.0826154481527175, 0.7535151450594061, 0.7340634568666781, 0.042970590726981346, 0.8609525220568502, -2.065515518641325, -1.6012228516221187, 0.6620529586415708, -1.2363670735081342, 0.40537360702514613, 0.5624353066164866, 0.8500535749249405, 0.5793156553693417, -0.3076723815638855, -0.21705144772619794, 0.9222755352724743, 0.2357066708072287, -0.07589000767131679, 0.3505867982522269, 0.004880728977014088, -1.0731151799320957, -2.5704841526121607, 1.1017030100783136, -1.1141228662956049, -2.561047360764675, -0.7829162832928569, 0.831892532291877, 1.529261754633162, -1.2494349025913007, -0.05675662184647916, -0.4437149197910911, 1.275015505247987, -1.6739577658384626, 0.3478625705769014, -1.0431931408516675, 0.2236889611464586, 1.008572062468654, -0.32311333309676915, -1.4307333190530125, 0.12158403658911045, -1.0284736775746965, 0.42818929294630365, -2.1406882594705685, 0.6149412725583148, -0.7881903349049154, 0.8353516999364385, -0.6060775153552498, -0.2887135589130597, 0.5223478226990049, -0.07978334952560863, -1.2074097219939166, -1.2094195979729816, -0.6926759459278337, 0.8778791359056382, -1.925043876156056, -0.6384796965804694, 0.4203427716114653, 0.36891048812547655, -0.3074352498143717, -0.11122081857800906, -1.4416283298651509, 0.6244297260570372, -0.06114532490690994, -0.22723454466259577, -0.15318132976774088, -0.5594890881211613, -1.765956874015899, -0.4015945496159089, 0.5693374998336357, -0.037940207019769266, 0.037722602607742926, -0.26683920562302954, -1.6518303029573773, 0.10956703501179642, 0.6296812009377049, 0.8756941699673967, 0.003933589277809757, -0.3788571072441773, 0.5495433517588063, 0.7622838941350983, 0.12778802197971637, -0.14153857605952627, 1.286442162097435, 0.8313032736930998, -0.33366910592248994, -1.599534937654573, -0.27182833293071557, -0.2570908827491205, 1.5844511748638106, 0.05576177786680251, -1.6002066311351006, -0.2259506504307546, -0.05291221260070526, 0.3554559387935892, 1.5692193183593872, 0.08783615946650326, -0.3101252219781937, 0.07027396593761354, -0.16024597295356188, 1.1670537106867014, -0.2240726479319061, 0.5785832904114526, 2.255122948724054, 1.7737052833760119, 0.21763815431578631, -0.11382267479223986, -0.1672743788941347, -0.3250161248211177, 1.174913078343911, 0.37291152827818275, 0.3705042742801324, -0.6932464440592471, -1.7214648203468907, 0.8066944353806471, 0.6320589035658161, 0.6997616023826753, -0.008466516803793955, -0.440674895351058, 1.1877198291852675, -0.5208560807729293, -1.592002995823498, -0.3253187477859307, 0.3859197305587295, 0.04161368590277709, -2.068082929079106, -0.1942533401265577, -0.30379605827858075, -0.8722148237615456, -0.45341449244228976, -0.11092654957002993, 0.6926697883383046, -1.7067209402991224, -1.3145058399429252, 0.5106912257460876, -1.8081200930312937, -1.1770745500790698, -0.482533908432264, 0.2716644621665379, 1.5681783541470382, 2.068253644321878, 0.48560433573097744, 0.8890708713996102, -0.22617471373294665, -0.9463301077166683, -0.4918667279619036, 0.45748500828771915, -0.4046390723046412, 1.109371263366919, -1.5820833822511666, -0.9457876164126027, -1.3414657245295571, -0.29395144674897355, 2.1449738862140113, 0.23082699257576153, 0.8551103026764633, -1.1006881817465883, -0.19429343089340453, 1.7890497343792875, 0.14478060323749298, -1.2545661809445137, 0.5814930082815692, -1.3812056954338157, 1.2345125400780574, -0.6861164677232917, 0.7736151409717591, 1.3836806038229965, 0.696496355531052, -1.1963967227736891, 1.011886367386523, -1.7518793638305432, 0.8208916314769792, -1.0362801022833241, 0.6202416590145503, -1.0134961116972754, 0.4070074880872901, -0.5903632472078779, -1.0747356844577194, 1.3248657817444545, 1.5093752055109835, -0.9742798393193054, 3.0431876787828327, -1.7022220339517082, -1.5400485561453132, -0.31883879995161696, 0.12983743535966796, -0.6130938513852174, 1.4023179487961153, 1.4651857132541937, -1.1277869599184862, -0.3197519604095583, -0.26096092878017413, -1.0169595597286547, 0.629136157615161, -1.9720549900703714, 1.5057560971272672, 0.20930907169066806, -0.16745905104102904, 1.0002514897873473, 0.6356138981660573, -0.5408144569908477, -2.0183852222293837, 0.8144456821007775, -1.460562732234554, -1.6791524883387248, 0.7252786649518407, -0.023570584445163224, 0.08175620824778432, -0.6306321365583631, 0.39581332927324975, 1.386089839731948, -0.30512640078362524, 0.46498982004532546, -0.6686575056273423, 0.1477632967593419, 0.9287323108667916, -0.19299362344517107, -0.817540916510539, -0.09116784257017921, -0.7869175933899715, 0.07938678895582746, -1.6886470789068388, -0.12592441533760093, -0.8985762428687417, -1.2832698339301016, -1.527522020396525, -0.9484589983504672, 0.3953510199935777, 0.28579188703039693, 0.15713627151916698, 1.9919949719960488, -2.674340672525396, -2.19566465332768, -0.8666559875840562, -0.19023713673460346, 1.2095065653220436, -2.596957567492054, -0.46939141674343104, -1.4371333299673636, 0.8573588474832368, 1.0059277762366352, -0.011941423343906002, 0.0702715737774871, 0.24956395640036044, 0.13954926003959037, 1.2364181548075457, 0.8339823219258125, -1.3305446274325363, -1.5886594391023559, -0.28960720276672935, -0.220874509296752, 0.02639401486024542, 0.3902330503431317, 1.0467932598344174, 1.1724534083841676, 0.6727699863597073, -0.5667582874401659, 1.048639145640589, -1.1402714539603462, 0.46005897028038306, 0.5755878603883618, -0.028752945476473897, 0.2312045388221168, -0.2777338113073057, -1.5077638737230084, -0.20028718562022377, 1.2259227271212159, 0.9896574394605382, -1.2754813223205381, -1.2796033174431156, -0.273649381259526, -1.1797413088028443, 0.09197634540129458, -0.7203684147327165, -1.2225720457967093, 1.9161264104263525, -0.028315820919989878, -1.045482925174824, -1.9723491854912287, 0.10524014961751998, 1.7571017418159665, 0.8924489495784066, -0.829927608954089, -1.4369885013102837, -0.22123000612819446, -1.2083201183106551, -0.398671163412961, -0.24110898157939303, -0.4832463833176393, -0.10985448962366413, 0.25299302646501365, -0.8143919007444816, -0.9665613952416139, -2.5783229882064185, 0.47461978301865043, -0.6520932105604409, -1.0920142897050058, -0.3003655541552719, 1.349739760629883, -0.3987782411137824, 0.17178132947101632, 0.6511695202859483, -0.5835791555856987, -0.3107535515343273, 0.9633992538851216, -0.47745964318662504, -0.5282641110937786, 0.7281766346513656, 0.8452542742418447, 0.9281852343782334, -0.5531034843968223, 0.9313170018416628, -0.23061499239076383, -0.25187454760068706, 0.5111347740627544, -1.199789583396054, -1.0207814220872924, -0.9565948863464552, 1.0384962304160819, -1.1383288665761488, -0.6543197801925512, -0.7580505292468808, -0.7516556780855363, -1.096287325487688, 0.8664221986055498, 0.5766732130823211, 0.02713748988753793, -1.0336209151199842, -1.2258683595969033, -1.254266330791678, 0.3915277135699611, 0.09874757316157877, 2.2950385774413564, 1.0118402520711056, -1.401694300394268, -0.13479069372318148, -0.412347719218216, -0.08028936374114531, 0.3521614996944794, 0.2024989747618697, -0.49697832504487766, 0.6438148614334144, -0.11245889083569925, -2.321040503291279, -0.5600169152503442, 0.7107558478054379, -1.483081981578542, -1.8600406944140555, -1.1722014514399914, -0.8430160371582605, 0.991405667376569, 0.0918811746701127, 0.4921266474761096, -0.09028836340944882, 0.4181788265585247, -2.78990718154586, -0.13434252488301537, 1.9774308397828602, 0.8116981330000089, -0.13206008275720157, -0.1291937760326755, -2.488527375627654, 1.2632207894320582, 0.027214192675163697, 0.9636617860698263, -0.585549245595566, 1.0194984955189517, -2.1648395233667577, 0.22164277486710743, -1.7968909395831005, 0.19132742871769376, -1.0265305405640668, -1.262344456781907, -0.37737444588310565, -0.7773154916878013, -0.22407255182275693, -0.6662269799064913, 1.2350409354854328, 0.15038904676766568, -1.107601697661712, 0.47765033912996, -0.15012448775321474, 0.4136104070595726, 1.9008425741944028, -0.09733783863511163, -0.7022462027541317, -0.1091091682681523, 1.1662926589613853, -0.7723364827757542, 0.5036714331974309, -0.05308169608524327, 1.2497021645146071, -0.24474818446903943, 2.0424974835604717, -0.06160624836053783, -3.3512066484191565, -0.022587495930621676, -1.4036960904993456, -0.6821116278090193, -0.5384497294713246, -1.1140518205614949, 1.319914745574999, 0.4836162668024288, 0.7031113311358073, 1.4085429387581672, -0.2876119314855555, 0.9669447458550824, -0.4081950837432922, 0.07518556192674007, 0.7549243574630355, -2.0445647971605228, 0.35621377341793276, 0.5011347142376097, -0.1695666097017067, -2.1737915613057663, 0.131022683609252, -0.7805533870195545, -1.3194871945127307, 0.3740810670501965, -0.5211224538076271, 0.7149620338840944, -1.6562111741924626, -0.8715663845379322, -0.5912930000519311, -0.1608628855003759, -1.0728274994405795, -1.8244360727626516, 1.1023681996743115, 0.7717556556894412, -0.009109429547310614, -1.0057708658532902, 0.09733667673763145, -0.18670632976105073, -0.4333164538046281, -0.09452425536028297, 1.4700232524714918, -1.6015792669105615, -0.5884309083874854, 0.4499927217307732, -0.9671144403021938, -0.14748497645588174, 2.493979508835872, 0.2574983691744921, 2.1112824850717327, -0.9172837924429431, -2.260975374323348, -0.46826396246406743, 1.611954664509065, 0.4448983041094008, 1.463235579229999, -1.374520721987603, -0.0011042718025465069, -0.8637835921497342, 0.5226127413089156, -1.152784009445204, -0.332580424900541, -0.5800635307671963, -0.26701795521679744, -0.0739456878453515, 2.258432061936641, 0.7493642911007038, 0.7707817884483165, -0.5002294676572083, 1.4746015634020755, 1.0868021136993595, 0.889594080007932, -0.024360360905923212, -1.3893642650184905, -1.3478889156799312, 0.8884976884890341, -2.2572379647617544, -1.2822872992896246, 1.4943047831993403, 0.3808042427589177, -0.30444731304466616, 0.8471287551946873, 1.1824312062622326, 1.547158414150289, 0.45229167148635396, -0.6835406607672493, 0.9595737666502876, 1.4817375004989608, -0.12300309015358951, 0.21767924620799853, -1.3639040623349625, -1.3351465738641664, -0.39445697679565855, 0.06681948551427133, -0.45708534738850026, -0.5683234128020813, -1.2586097907466598, 1.340196080753143, -0.3547560617254599, 2.0632670671354107, -1.4808106983463476, -2.9757947184099924, 0.8610471591143798, -1.3071089960340216, 0.3524867083079196, 0.9125302539512263, 0.8337210076449652, 1.3847014261831818, 0.5378110738703124, 0.5360117491028666, -0.311721053466929, -0.20041325421025183, 0.4920869662737012, -0.31967592072753126, -0.1978192925108662, -0.42768748571050375, 0.7815017611557051, 1.652549513169265, -2.9739763779937514, 0.43726343581526805, -1.408531398068051, 0.5535422155708101, 1.4519961186886414, -1.2425313182656652, 1.9088098708593146, 0.2518768032809468, -1.0265385669536538, -0.5151566926864488, -0.35148118670476663, -0.58720612007268, -0.6036333319355806, 1.7105617874532013, 0.7265917417280362, 1.3553251380471307, 0.19292721806983293, -0.21838911930049162, 1.0717877119321972, 0.828767079693422, 1.3414071362675748, -0.2761895066573944, 1.1603663307407786, 0.503498174050464, -0.4274037955058041, -0.962427182020341, 0.6393717324675554, 0.8075776962842779, 0.24473075378204218, 0.695709344917034, 0.7421273968708008, -0.2806850510971552, -0.6651055744211536, -2.1295436176521614, 0.7711243695550918, -1.6522882676999326, -1.434278568952581, 0.37287362034756294, -0.1568866441305831, -0.7483043655054245, 0.7002591531654249, 0.646104009079086, 1.2918537641976475, -0.8859260475297122, 1.6760739676024057, 1.4658991027688524, 0.9503317560512586, 0.17106643390837015, -1.1852840443207353, 0.11066566176248561, 1.0632924661241994, -1.1771081900693694, 0.5024326797292993, 0.2594941820914407, 0.41807518077985245, -0.26518794023411485, -1.2352323344581961, -1.678642535076434, -1.048172169805351, -0.468234103435977, 1.223149983009579, -0.40255511374638475, -1.1426278912528418, -0.04217437225297269, 0.16077331242746212, -1.113812480397008, -0.4821082620168788, 0.25576082220976837, 0.8219906010064687, -0.12302513972124535, 2.3119037978471826, -0.616456458758819, -1.2068618263500501, -2.174090793627753, 0.0722731352973368, 0.003390151360342499, 1.0841048742157546, -0.10683321983940434, 0.6423520657902758, 0.037416309553301136, 0.6646157761041936, -1.0837543307417812, 0.6316889467090856, 0.5873994167784163, 0.1708462778114716, 1.5967941154048642, 0.2472171496770877, 0.4653283267598227, 1.147660309465731, -0.6302125744540422, 1.0878585359979984, 1.3923747607471926, -1.615317473925285, -0.1313044483916553, 0.04002900299272454, 0.5279232304902306, 0.2199194226731649, -0.7599481005941128, -0.9193870333047169, -0.11157187613374821, -2.416321707897295, -0.9424242880757003, 0.4575092761314389, 0.29233282642993447, -0.8075018734045651, 0.3606280582437661, 0.4397554279701364, 1.634688292076736, -0.9567061770255133, -0.1843118887058761, 0.3987915964536981, 1.1670478956195312, 0.9820453380006592, -0.3272733675940882, -0.3224810844937897, -0.0892365314079355, 0.4320214652406081, 1.2541379121857803, -1.443600450714799, -0.06455571840751476, -0.6448426134507933, 0.5823778790862963, -0.5470032333918732, 0.21807497736081216, -0.05660238657446701, -1.5669600875483385, -1.6256349350801986, 0.40731654993755156, 0.46633502701761304, 1.1413561232248048, 1.1212353715123315, -0.1328549272529545, 2.260158818290425, -0.4340988592204785, -0.8593814562127221, 2.3962624507022405, -1.6252750896331198, 0.05213051734037722, 1.5030573285624245, -0.5966933818202033, 0.41992671713473284, -0.6690749721816619, 1.3649074764906568, -0.0340734561279715, 1.232553762167871, 0.19212997339361895, -0.37585458940058863, 0.9881181479401133, 0.7897066641758841, 0.08695739405326651, -0.18933491874082686, 1.2153106021849058, 1.0487688505691075, -0.46251855403073405, 0.7608888089047395, 1.0685201113428835, -0.7867551198401427, -0.7981094408213122, -1.3293222901829025, 0.4994521502535658, 0.6842323576118116, 0.8245813935945419, 1.3169741907738302, -0.2074213913908256, -0.636617235372646, 1.0838194305132205, 0.5232617010673434, 0.029703327205645256, 0.02908637944566258, 1.0961569827126718, 0.12461457701779238, 0.7555845241597128, -2.2388518470214924, 1.121050057589923, -0.38992242357501194, -1.4309758190532524, -0.44766036962258493, 0.6696353481919685, 1.2936067759170733, -0.6416319090471724, 0.44314878627331644, -0.3571321241510678, -0.3038781433530136, 0.3205871923807533, -0.33220302346739294, -0.32485664720593393, 0.3194310745184232, -0.429026705890582, -1.993125144880091, 1.309205350016746, -0.32339807226359235, 0.6752676696156178, 1.2354208895806278, -0.9063427624636521, 0.24918785873765967, -0.6301093184087814, 0.403165966569066, 0.16927746338425384, 2.6521939933175975, -0.5480068285717942, 0.028758683570368978, 0.6318160086979216, -0.5010668686391266, 1.144674325823694, 0.5354529577130184, 0.03330374550540815, -1.6182748611527578, -0.779940556558437, 1.2712055713903387, 0.566916567598717], [-2.0639261364353945, -0.15152793772550346, 1.4697912835931273, -0.8927266797794515, 2.7530301786149916, -0.3409591181471082, 1.275602859182581, 1.852813530310562, -0.20307636863359538, 0.8564095593775486, 0.22107754543829095, -0.0874673273235382, 0.017805713330785896, 0.15516038950304187, 0.8036911042158416, 1.3150989159855593, -0.18092275780164058, 1.161181951521984, -0.1992067888090972, 1.1615165269520695, -0.6468430275744831, 1.2153508941521214, 0.7599706892918675, -0.3569920947787004, 0.7554563101392179, 0.37750728996754174, 1.628742971914453, 0.22438938187851085, -2.1575027280807224, 0.08596551727572581, 0.8276777556662933, 0.31536661048146586, 1.1373389449338553, -1.501589882316128, 0.976394998387014, 0.21130237754673703, -1.9113837459857166, -0.41945482626813374, 1.6211832823746957, -0.4901600836921977, -0.39715276699642466, 0.5746278195274378, -0.9512246048228106, -1.5284713250504793, -0.5549419540341998, 0.20472063431223808, 0.43756972320154797, -0.2336412632571782, -0.36520177676580723, -0.7019995440861567, -0.35350510399146845, -0.3326824442094029, -0.8010249634517256, -0.2985718109834651, 0.3029146747505608, 0.8674841487841273, -1.7200562309129461, 1.6090452762141658, 0.3154629243770438, -0.609393756086033, 0.264663462530058, -0.2555492320309927, 0.19035994251335162, -1.2997267083752546, -1.2210924277257393, -0.3644219488551619, 0.07845642962218005, 0.925273437557742, 0.6446625466760674, -0.7194297286604094, -0.2220715323600654, 0.41228642375887997, 0.2841976407871598, 0.9265364660158967, 0.08122851649740527, 1.327022309673255, 1.0872507851521933, 0.697619405856717, 0.4491235537500204, 0.4625048190039567, 0.33123802565228055, -0.12223989722339815, -1.8224215341526193, -1.0037321800290349, -0.09570529881004512, 0.9486989775442259, -0.6601978649439263, 2.074832447367837, -1.1824976448082813, -0.20278673491110308, -1.1482449748511265, 0.09006996572969164, 2.927992955989493, 0.4937901631294133, 0.48715536398821757, 0.10509060993146414, 1.3575898390852799, 0.6794618754698101, -0.7156167660089863, 0.6768454841116283, -0.5612273916316921, 1.9811057369683112, 0.5216124445791561, -0.14114208492400382, -1.7202027044169104, -0.9978312641361207, 0.33134109246834764, -0.48824533764367584, -0.39445656192985545, -0.49672743892589544, -1.4257044367630176, -0.10056905522536162, 0.9179379312236439, 0.8193702919770128, -0.3653763918013365, 0.9960512352973295, 0.3586445072843217, 0.21790333853285326, 0.24336858209205495, 0.1878251792414966, -0.8620931996428226, 0.24826660251499585, 0.8253289337374199, 1.4272778076334642, 0.7222704597268466, 0.47216911789323596, 1.6008749372942632, -1.451491172914117, 0.049710062338014956, -0.13473192626160232, -0.7689742305299637, 0.39557210418968913, 1.02968946990257, 0.8973837119277286, -0.46484467276903574, -1.7558311152428228, -0.04902385269716924, -0.45751776460751625, -1.37780906674237, -1.0739881805313012, 0.6124007795816098, -0.7445000114158306, -1.5442745869033694, -0.533058564730672, 