[[[-0.5385703006366298, 1.43900616278651, -0.2247580578073168, 0.389463859551266, 1.9002004017850151, -0.04259791620006836, 0.4080334331374166, -0.3964104277563576, 0.9494268139927758, -0.7290052701246384, 0.32703472333880695, -1.0239652418370915, 1.0307217707451, -1.671144854379069, -0.23668751525658135, -1.769512221253233, -0.2851426063688505, 0.19369767092960383, -1.566230704667543, -0.6216078578165494, 1.3496233812867522, 0.3194771779270884, -0.024921709586199547, 1.162857923840057, -0.13688243555334403, -0.554592255683163, -0.15497437928903893, 0.8210429257579727, 0.2262884178345818, 0.7063922213094133, -0.3830582085404472, -0.7982119251083462, 1.1013775074894085, 0.6408309374492178, -0.4555007553054759, 2.215762047900622, -0.2577212910231363, -0.5479411228736717, 0.9498049361461246, -0.8184434640402543, -1.0135641732812997, 1.3330701981603772, 0.25019216265233735, 1.6358002440774484, 0.8259009383671854, -1.2294364191774578, 0.8586987177607406, -1.214626086965481, 0.6469748225323079, -0.26319640130319455, -2.703932840165414, -1.04493576393683, 0.08314051850330173, -2.115729208462, -1.3687749695841622, 1.0331207228316817, -1.0024130625638143, -0.4964483978232991, -0.550760069056474, 0.6525326551621288, 0.23527056993226844, 1.570693974602771, -1.4709965647679624, 0.8542406655426116, 0.40619838039594663, -0.17547131109413844, -0.32662083718093404, 1.2617869291642054, 0.12064197451857853, -0.617990961696051, 0.896927775466162, -0.9541861388967746, -0.828751175418845, 2.020862799416407, -0.2822687420427829, 0.013813867475853723, -1.1678289496009429, 0.17126637227424815, 0.03542880514567651, 2.8874062016466264, -1.8210676864253341, -0.3259116333931225, 0.6089494395405738, 0.35153480423116124, 1.5138917588777463, -0.27665346565049914, 1.4529033329122365, -1.1710044606440029, -0.4163340688703911, 0.5397279254059227, -0.9184638905782858, 0.6147905211135949, -0.22530824529913185, -0.785272485981357, -1.140757804681306, -0.025925321394002207, 0.8175179293157235, -1.8283646101707682, 1.1216948794343757, 1.2022535061719153, -0.525812522660519, 0.9735339896154428, 0.01839928710184035, 0.18984865320032687, -0.5046779042431071, 0.036321583819631714, -0.10020044609889456, -0.3623792454729337, -0.7911505725463235, 0.1745767225756378, 1.0738946435571821, 0.010626193495083069, -0.27408086919069785, -1.7067236631864036, -1.3309983375078909, -0.9724905622740736, 0.5296706682917955, -2.0443487682999137, 0.3030712065129923, 0.2746067835352506, 0.5981310827324599, 0.8601902420623587, 0.07405521019498978, 0.883891683816413, 0.8010803799529257, -0.12876487785208382, -0.7208343591076926, 0.24306736921028968, 0.22830555095121022, 0.14002760825967364, 2.644788964684589, 0.8063254220444594, -0.2527318479834135, -0.4629509639899045, 0.7999924040659065, 0.19283291846719733, 0.5089974614620866, -0.8614746285552863, 0.556159645232829, -0.4417621578023898, 1.3741041016638929, -0.5470281708181246, 1.2810682598030645, 0.6635990168725089, -0.39016248693796024, 1.8751893989374941, -0.26002432848342993, -1.5401176614695165, -0.8954450685030809, 1.4175298222932438, 1.4733933508425396, -1.3736845443978571, -0.5306334900941251, -0.4560082276856569, -0.313104058109633, -1.4452123683763458, -0.4938721619522322, 0.24966332534687924, -0.9708781180933542, 0.4307525563224989, 0.9372297667879691, -0.21906619010792824, -0.17730438314541666, -1.3865526185356805, -1.4713218613354753, 1.1307568399591235, -0.31836778639613134, 0.7049494716143332, 0.42661765773113625, -0.6170536311014871, 0.6118167164767349, -0.0643847720447085, 0.19872695738518317, -0.485231437443034, 0.17588378505807664, 0.21713762561418334, -1.8337960286729964, 0.21282719282537838, -0.013905953602201706, 0.7840247251929077, 1.2059797684810503, -0.05040682626023104, 3.3274848061620186, -2.5904437073904365, 0.429078604989279, 0.5336593068461093, -1.4920997887715755, -1.4729481012933512, -1.5272701109104874, -1.3862210363474714, -1.0095628303032465, 1.0884115422490228, -0.24205364370653124, 1.689310395532576, 1.7909726203842915, -0.3263685421127133, -1.0051017468416859, 0.28617231836068147, 1.7891920761768223, 0.49141403418218066, -0.4921331225828669, -1.444513602859545, -1.124618373094155, -0.1765816004638828, 1.8781870460728018, 0.2291462091583529, -1.3197418711525546, 0.03889603350346883, 0.624206066249787, 1.4510962161588372, 0.5528002644827241, 0.1972423984880263, 0.24887419793369978, -1.7100572890862766, 0.7563748158966327, -1.340749791995612, -0.40477097117746613, 1.0204177551854552, -0.505718257426079, -0.922219767528011, 1.4889336897322376, -1.3645242881340764, -3.2738605529989018, -0.3566589646487601, 1.1059211468210153, -0.15877360330398915, -0.530930826004713, -0.37650147911044984, -2.206397834125317, 2.0452576669097664, 0.4123211831086836, -1.7711844783943214, 0.6011150175130126, -1.1585320432925577, 0.3553255898571289, 1.6692107483278589, 0.34978895390650944, 0.012996096769367395, 2.0131218238106343, 1.4877973648180673, 1.7295961974069394, -0.3799559238446203, -0.5632637984777874, -0.6936451941439024, -1.3325617332904232, -1.4313027775171656, -0.46812045279555115, -0.8777864808810301, 1.0336786131808113, -0.20208563360404333, 0.8337390295526189, 0.7342004299352517, -0.7947728680964503, 0.6620217876387463, -1.2397942499653258, 1.1280928710017972, 0.9900106247306475, 0.23887169499213695, -0.33513726838394753, 0.19422438072753187, -0.6933268772776214, 0.2667853341539559, 0.5170305503466687, -1.03544091270059, 0.11491627125313304, 0.30448001586186213, 0.6100150066602565, -0.07107569770958706, 0.48066958407128485, -0.46446181849299567, 0.23811789430680577, 0.4424128329262889, -0.21736364191202442, -1.4339369256226022, -1.955221383218465, -0.05526398694314508, -1.611398476966023, -1.5968211738251852, 1.0960644088380096, 0.6615070117530641, 0.29391671741605563, -2.064688334908952, 1.3965700503483778, 0.16468522916191228, -1.254252693113468, 1.4750248118841673, 0.6462811746007314, 2.410622439293239, 1.0659541439720546, -0.0684525812131167, 1.1352035792478392, -0.03144822239682561, 2.0244189579236767, 1.0858678977322247, 1.209127369142174, 0.23649883926589066, 0.8302392938156814, -0.5367340494938936, -0.18147674523256938, 0.7033337979679308, -1.4339434505286253, -1.4173876386119522, 0.1056226144921619, 0.6045134321339308, 0.1464738112027986, 1.7048308380096997, 0.41841101128152647, 0.23776763467373813, 0.31442579024814504, 1.1793201287408936, 1.2799778156835266, 1.2719526739443237, -0.4631976898093626, -0.5202167293191801, -0.07352480949614125, 0.75858822107095, -0.11757619578443879, 0.1602986860509016, -0.274768416042891, -0.10734217067124915, -0.7307332512338733, -0.6055772771479754, 0.500841967979507, -0.15284523835158248, 0.8544340435213479, -0.6297379271400437, -0.26826028266377194, 0.11573803671229362, 0.27184892153015044, 1.555963939911334, 0.49111957085027547, 0.5496523922497998, -0.8621860481325013, 0.10643804482883518, -1.1871494986784803, 0.7684710464826441, 2.3945734420411537, -0.7727827917465949, 2.175497194156162, 0.11425504022208195, -1.4504062883976039, 0.06762887639930756, -1.447609549812464, -1.8807298253995008, -0.7387232410032414, 0.12961125790639713, 0.3069255636993549, -0.9133326388569113, -0.31963947685093497, 0.542293909071808, -0.9010545500902528, 0.8084434292433942, -0.05902992860519177, 0.1846569914358799, 1.4239916853991221, 0.5933743262686892, 0.6144322789260604, 0.5203554826018862, 0.8487519029645854, -0.5990938159831317, -1.1488677311402486, -0.3667290646627144, -0.016024758838162675, -0.03287955996693434, -0.15956836850764528, -0.6964915611913626, -0.7431114368387358, 0.21107173742251129, 0.9040790168871985, -1.9480068883842834, 0.499881897669456, 1.0868405902123366, -0.9530813140393585, -0.5995740949576223, -1.1637892862972303, -0.3387286825665216, -0.8277407820724052, -0.7686848543822313, 1.5130782129113536, -0.46691465372943775, 0.4619721700959273, 0.37359439779533266, 0.7029984954937667, 0.7744608512304851, -1.5333167284173217, 1.842331042292854, -0.06136585245554052, -1.9415372214979536, 0.14619147335839316, 1.21375891769732, -1.6187378185125845, -0.521833772341411, 1.0245992574075917, -2.4165252345278145, 1.1238240773436314, 0.537675947945093, -0.7748227286650728, 1.65869051759177, -0.4112043182059286, -0.5503751977716086, -1.5825914028705184, -0.011004595004245731, 0.3360181350343778, -1.05294627889378, -0.42937312257381766, -1.2941915266122634, -1.336997195227346, 0.834183921944416, 0.30382000661762976, -0.1419967737633371, -0.6321733521857437, 0.024169371930387554, -0.2914603172566481, -0.8142320002766628, -0.13812165987728964, 1.2235257443139722, -0.047136470542405225, 1.3588272995027535, -1.1540447047969795, 0.45538072162565624, -1.0602134397536656, -1.1193657765677838, -2.1057767116727164, -0.1100946373337685, 1.1063305247927602, -0.8291554945745834, 0.7121104620954729, 0.11722267692570382, 0.327775943913671, 0.5832073407256273, -0.6110846833712389, 0.14189678154714044, -1.2334164536227326, 0.8582264616107422, -2.2938649275528626, -0.8510221099672576, -0.49178150837375684, 1.0768086253443347, -0.5256706814884269, 0.7661472384530195, 0.06555778971161015, 1.5023380066468206, -0.5140699796545486, -0.7482678854311638, -0.9657537657921222, 0.44476028642930154, 0.9937706077498372, 0.22464003423622333, 0.22920369890680134, -0.11820647137244152, 1.1736588404718025, 1.5581221047487483, 0.1310092131853422, -0.026775174410981453, -2.0610966292238344, -0.8686724498896081, 0.7297308109781209, -1.0650899134092613, -0.4186619110603506, 0.3518916621172181, -0.3646290320730461, 0.38983590951368596, -0.43175824252797873, -0.7831404970536489, -0.26234448417070927, 0.6323293045968474, 0.5181481652801573, -0.8486349501461485, 0.0780468784726722, -0.044431779863917095, -0.009824458979657018, 1.7732698418886665, 1.2197558776136639, 1.3713662029961136, 0.34044186689480604, -1.139679791470767, 0.001511488384335434, 0.6197282916266484, -2.1032987081954775, -0.015635384605625004, 1.2441048641576784, 0.4530761961160473, 1.4363344546398635, 2.5590486984306575, 0.14113916507054755, 0.8903258857321031, 0.690626938211047, 0.9121870724436263, 1.2125093904746926, -0.25123972624795377, -2.2499510588105007, 0.3495494970494161, 0.37924198707916656, 0.9438661037081341, 0.25221672486827107, 0.746539676508232, 0.7447415573150935, -2.2184358810971414, -0.8871342239358478, 0.23508811245522535, -0.5429690475236726, -1.4947544600899907, 0.4486631973526986, 0.7749931718888116, -9.84123778369476E-4, 0.8387845473031926, 1.2456203998583137, 0.16144539603672706, 0.21742417204464862, -0.25070500055038936, -1.7904178432426663, 0.8664618845088412, 0.4126697326496159, 0.966232211571449, 0.05778249691072454, 2.3792033605876575, 0.22992335424773572, -1.0347004423946236, 0.40651306096019585, -0.7049891087459634, -2.613913499995331, 1.2525864014680637, 0.3590097512763346, -0.6484055303149253, 1.0484019639387647, -0.4119649361923071, -0.23223715986239205, -0.9816514024350121, 0.019652403107656945, 0.6110796721992052, 0.6038675270711511, -0.7331975723152037, 0.42052465793595284, 0.2960880103790435, -0.399813541773522, 0.3708835745790912, -1.3548978880866245, -1.0565240730804826, -1.3753852161617603, -1.3498263300677467, 0.808560670977478, 0.24341823263864837, -0.19827671473720618, 1.705518087209247, -0.9979673904360666, 0.2667973396100283, 0.6113402802733814, 1.513726300197625, 1.4079751141342387, 0.11011357987538731, 0.7675934310785338, 1.07802779094411, 0.0816793026009677, 1.186004733200139, 0.19682000668790484, 0.15703693827285023, -0.6261467492649065, -0.24635350363863207, 0.23169832875455576, -1.7484736345637486, -0.38119713827690177, 0.784359007601756, 1.2959675252277834, 0.5193900521597474, -2.0803935035215653, 1.5017606853626597, -1.4913077156950385, -1.6707594254443703, 0.09208835943490777, -0.011555782108309019, 1.1319107512191724, -1.1976382381308746, 0.5835772769560116, 1.1840521738508871, 0.36294298297428407, -0.37934701925848335, 0.3830181008992622, -1.6478095155118098, -1.1043501401362623, -0.41034783662974406, 0.09307894644346175, 1.6340663048092123, 0.21634726655120481, -0.39145689815017864, 0.36889404939527476, -0.8399689634322846, 1.1443124195243832, -0.8801561517112402, 0.8539643369474172, 0.5365388172039832, 1.4783719832538138, -0.1756367746823119, 1.0126392329439555, -0.9604291289121535, -1.2428721696976601, -1.0986008269343264, -0.9334077047952976, -0.09909878752760573, -2.291941985347511, -1.675463792779701, 1.2355867010120727, 0.34620285461412864, 1.0657239819254878, 1.060199874994565, -0.7789981340242869, 1.0386506466285084, 1.354537545567419, -1.263541687544807, -0.23096843909713036, 1.8465883379549728, 0.11034012550973979, 0.7903937207179411, -0.3094902134825489, 0.6080793620347642, -0.8244369037313419, -0.3182675902960469, 0.9245142811748046, 0.2624049427982238, 0.48999359788084323, -1.7395462398398387, -0.6430584356282503, 0.8582313732924931, 0.03698032997646364, -2.3721941588798, -0.1480016172072505, -0.5419770514933181, -0.8510403722062581, -0.46093944674269755, 1.0516546222712007, 1.2929613397259605, -0.25623853036258765, -0.44135491971954666, -1.8503574305027386, -1.3324680685021584, -1.0632140155621288, -0.8457841224011666, -0.3070455443056395, -1.6257170843892914, -0.32245092359812155, -0.1102277802645919, 1.6364307450391673, -0.7323198811329973, 0.30489983979887336, -0.47153859695814454, 0.11840469289275542, -2.0697177894745225, -0.4710051025949676, -0.28473577958687524, -0.954234562100911, -0.9256520548442834, 0.1751280519650994, -0.36320746242889235, -0.4308391622678855, -1.193471026321703, -0.7991370281344213, 0.7554542754873123, -0.7105000629813674, -1.7766504837968182, 1.0881851824664108, -1.2830477534936693, -0.1957286939845202, -0.7145320429575397, -0.5066338496815687, 0.06354208585295071, -1.8843481382443465, 1.1278832071932272, -0.7230636576386499, 0.3259384411889191, -0.08042166263021903, -2.7856467855393747, -1.3215654424581667, -0.11586051264283978, -0.04353560257441002, 0.47290520587149526, -0.3644602255596655, 0.5138679099174144, 1.3115779322356997, -2.107990500397715, 0.40590097898008987, 0.4367582888707428, -1.176365132467672, -0.8182747605830785, 0.7936614757058155, -0.5513516454840547, 0.32707568054532543, 0.499577823275203, -0.9969698105009653, -0.20063370751742096, 0.39922311354921086, 0.6351012568253093, 0.49513707035022847, 0.2614103526784999, 0.2516260648303059, -0.013450468339684826, -1.0475477991001252, -1.4516162216383304, 0.8732280594738213, -0.46122755141972827, 0.3283139826165598, -0.2587121505979277, 1.0390764844041578, 0.15089438804338173, -1.2918849794615446, 0.2466336812817783, -0.7783894837853035, 0.6643108261703673, -1.559596358237419, -1.3699338115828434, 0.7826566339657656, 0.008663600082454875, -0.5225752073116456, 0.08474166124617329, 0.7786239799475344, 0.8286097271072743, 0.7154501679105538, 0.9033827265760018, 1.3895983301273864, 0.2845730299506211, 0.13424219143749888, 0.9447457110952014, -2.1721402766208926, 1.6291361040365109, 1.4357581284200367, -0.7106037310138331, 0.5237988034932322, 0.7391525442320711, 0.7681928052028267, 2.681409412122491, 1.1381253888432534, -0.1293989894414492, 0.3776450359961398, 0.32822295131541185, -1.0481356751402164, -0.7104796247341769, -1.4046563198043263, 1.6815440814802862, -0.10365821470793304, 0.8404406884113654, 1.5422782978261769, 0.5774315797396795, -0.1985395134475871, 1.1888629885199464, 1.2504329834735575, -0.5926419065847981, -0.6147975077493034, 0.07147939576789598, -1.2268161325133278, 0.4606597377382788, -0.7174658215609852, -1.319308095466116, 0.9832436353609987, 0.5280905732005997, -0.8133760116630055, 1.3029430219904237, 1.5634888646031166, -0.8363881205520519, 0.41010326822432075, -1.0076218973579918, 1.4143096650792668, 1.750515856323776, 0.7537877006380967, -0.6619249450386067, 0.022321519258716276, -0.2178609883903073, -1.6529729670451954, 0.10760487636732154, -0.2794357446976065, -1.0234127289039754, -0.7148096024347385, -1.0068495589908963, 0.35033453948699317, 1.4024559104039438, 0.5790380020120774, -0.5395598912140844, -0.8035175860529149, -0.4741014196568413, -0.5703528023207654, -1.0994189437143704, 0.034120687598856135, -0.12816132376191672, -0.21627424992682154, -0.35052603723762304, 0.8174701525026685, 0.3891942106342707], [-1.5585053815497005, 1.2327357213051866, -0.6504198489604814, 0.41622660282540785, -0.35406425747768205, 0.33404324089224313, 1.7835468846567026, -0.684456427450498, 1.3843511619229958, 2.063776681895107, -0.9107059628312613, 0.38316050574799365, 0.6244091884258469, -0.15825870205454728, 1.246189273628515, 0.9828462028639031, -0.9312217324775423, -0.6005386182188476, 1.8414497875178846, -0.5227380029372128, 0.30569269965013285, -1.010608155815278, -1.7378272602000624, -0.13585400473932024, -2.2976699202411686, -1.9605915791630142, -1.0962327363780218, 0.40021223953137963, -2.066678273585934, -1.5634069471300756, 1.044591835497945, 0.2597232016713279, -0.7835524192364814, 0.9881919676776821, -0.5485543379406137, -2.3952974371171223, -0.6315159194236899, 0.85146798456454, -1.8981960487998208, 1.1701972952620425, 0.6156539086492782, 0.5948118920203571, -0.636854020622199, -0.6816484945652247, 0.6412994841252523, 0.07762200098819634, 1.6375043057966614, -1.3292666011924734, -0.8201461591935469, 0.8455536858040636, -1.2581728919805268, 0.782513930975198, 0.5428257126898394, 1.1432853994667587, -1.0135672032096585, 2.2351436805580653, 0.43073425365298434, 0.06940366629522032, 0.7494424807066481, -0.04284033358794262, -0.767218211988199, -1.980430830448337, -0.3514228743011672, -0.9147833076032922, 1.4606376922537443, -1.0400806141007761, 0.3994896039038328, -0.5907069374250568, 0.18110801969272855, 1.1262321872916399, 0.2015340786289693, -1.7908515626200296, 1.6670332058543562, -0.3324845374382583, -0.5444309696761052, 0.04588548727935737, -0.5687505332152312, 0.40903179263938055, 0.9639834296713063, -0.955653912412487, -0.17789980390538054, 0.23650456578881884, 0.18904885613692923, 1.517651333455902, -0.15377862729241487, -0.9148306399579348, 1.6339107236642814, 0.5573662126346872, -1.8086184391883369, 0.505232435366552, 0.8145891206179068, 0.647786011119726, -0.5258355883210692, -0.3340531655016559, -0.8341726609872191, -2.508599158487254, -2.194602675907537, 1.0590171494962295, 0.2076620948028683, 0.388011345801062, 0.6794326120531545, 2.334007543736692, 1.6830624550304027, 0.7479730487456182, 1.0309859648723634, -0.5270734754402064, 0.39177298252773063, -1.4724025504189513, -0.8969050310793606, 0.30695715252297484, 0.4317466247910319, -0.12566770757567924, -1.5925979377016197, -0.5831667918215631, -0.34759497231179, -1.2485699361602487, -0.6915210195773559, -0.06497734363244385, -0.45948240716841393, 1.468865162826032, 0.8703560198612965, -1.048670519386085, -1.3261156748559193, 1.5136077043570615, 0.09773589184523056, -0.00629123896360972, 0.052157458688942684, -1.6174844250775993, 0.9151523106368942, 1.2329025321324796, 0.7987874051508461, -0.6190709742084572, -1.2389555908417393, 1.6027821851206816, -1.175305383941689, 0.11373890761514596, -0.43453188378379026, 0.18476755761764846, -0.6805902221024548, 0.7083682028243359, 0.09959464183883768, 2.434693848483567, 0.01551240596828297, -0.7196256900081899, -0.6619275615589497, -0.2793921226317474, 2.063858682946238, 0.3564911479003806, -0.8941941138349359, 0.9092241230498502, 0.679309187445909, 0.07872025621476678, -0.6648728719881509, 0.4967706581230521, -1.0109314020572888, -1.3179308469107167, 0.762144270403912, -2.337090076475884, -1.6769882234560762, 1.3992887007831223, -1.3557777093575556, -2.4168426486828896, 1.2594120681304657, 0.9290001839920085, 0.8013925980022758, 1.1971716302023268, -0.2531852727596915, 0.02212837283368872, -0.6923370029409556, 0.7275978003265422, 1.0287316311692132, -0.6587043648949077, 1.7798580463458709, 0.24031340037366147, -0.5244845268352772, 0.7569226367285058, -0.5912475492889534, 2.1378023969391315, 0.3242045288178577, 0.605673729238672, -2.0484997501018927, -0.8249170842842869, 0.8064558638552564, -0.5054500686001145, -1.647254955507819, -1.0720852572575428, -0.9024296773499134, -1.206101200205926, -0.7909263024517498, -0.38319583025964965, 0.18158537196403177, 2.2379694944379676, 0.6616871281529998, -2.1197734221038993, 0.07479560903781336, 0.041084405648796424, -0.968699219988401, -0.25514582841038413, 0.4034189141614571, 0.25722746406956837, -0.3592687752750669, -0.6652923621164178, -0.6551616473727429, -0.820861232100535, -0.6443012268508305, -0.6992321484593301, -0.5494704168184519, -0.19905629199527364, -1.030305096124579, 0.13749441884267746, -1.2444189062950965, -0.23056520559978835, -0.6999889946876294, -1.0553002972679122, 0.7241522731237521, -0.2684276930176365, 0.6105227786815254, -0.2811937114854089, 0.8438299590804208, 0.5070769275585608, 1.114403146844256, 0.06312714081209858, -0.1114951983920786, 0.6836935699460417, -0.027802821431205053, -1.0190256111858271, -1.6375128897402043, -0.15514220116302183, -0.5535975668149921, -1.1466883179060714, -0.3038982934199148, 0.9658293985881405, 0.47667917560534917, 0.4228874751385531, -0.6748373285708502, 0.04591425196594874, -2.2564637768007216, -0.49968408359981425, 0.8559717537060048, -0.36436017347383254, -0.5666171017170423, 1.637328873696558, 0.38956049258265096, 0.7897266678066593, 0.6842810497942624, -1.2761476922428332, -1.3535588311705862, 0.19582178083575869, 0.4941464259382658, -0.44961441577180083, -0.2667067565729846, 1.417393149607678, 0.46245778690002154, -0.1345529701839077, -0.04219669180470172, 0.8951457742032708, 0.2844121344744623, 1.0000372827542854, 0.8852861378206373, -1.5307213660020855, -2.1230290564993006, 2.781130323757424, -1.3914114717423067, -0.5107901318628593, 1.890122881520453, -0.6356427554511119, 0.9730064690510157, 0.49937277460951596, 0.8681920912072496, 0.18361677859724362, 0.5979057991104357, -0.049969782456195655, 0.48093466997586576, -0.3066034915895795, 1.3986447372410629, 0.2677795960243964, 2.0437562340203206, 0.8669454276322072, 0.8484113310391788, -0.48626501074865636, 0.49996817354066364, -1.0697148133273982, 0.27259460541139424, 0.5763560404520144, 0.5039263493108113, -1.1392628555582212, 1.737575229722187, 0.07597786609825413, -1.5511312956254013, -2.342562494089455, -0.8174394030021963, 1.5026745443222005, -1.1856132678331162, 0.5249843340410465, -0.47858614500089575, -0.2642061561828515, 0.09251669876167594, 1.6633747905743137, -0.4851620323144403, -1.6419171282486071, -0.1646360154188393, -0.43722905211959767, 0.20978382001435272, -0.27557771727092506, 1.1481874368339147, -1.9448450364551355, 0.8996650145816196, -0.4340161247792478, 2.3778260646754283, -0.23711069792483835, -0.15937130080370066, -0.595336833057926, -0.8781966903047472, -0.5315944745954808, -0.478271260806277, -0.4126067591960965, -0.2864572399249993, 0.3740134750035016, 0.01397497460606112, -1.5835804799558653, -1.4860283023385024, 0.5432257607727705, -1.1842528379604067, 0.04512399704449091, 0.6425568449523363, 1.3522168553880323, -0.7884174388213897, 1.6435848229427898, 1.104878345748015, -0.430875319858142, -0.09268300033666745, 0.3821832540148889, -0.33345439339624594, -0.815771211945652, 0.48034008447307797, 1.432423060470584, 1.4309502858567416, -0.19829149199803975, -1.5398245350231297, -1.7092260892845947, 0.2783750031267115, 0.4439485771879188, -0.9685218374957817, -0.20896730097265845, -0.09019091824765677, 0.21700368080339388, -0.9897594579705976, 0.8566055857084665, 0.4726277859728386, 1.2473694670437496, 0.4235078820840657, -0.6372187216891119, -1.2956608236413028, -1.1503262525676505, -1.423020383979989, 0.048051142403538194, 0.3211170633103513, -0.12062503072243397, 0.10885380980397237, -0.9021334236212973, -1.2784177940608301, -0.7744940121757053, 1.0651976635267455, -1.431642839744992, 1.024385233084307, 1.341804212491755, 0.8670185437389348, 0.18244854804683366, 0.035838868589457284, -0.07582248963541259, -0.3063501505407006, 0.5165320142581457, -0.7500708090309145, 1.5514099152154788, -1.329706806031357, 0.55775523184094, -1.5984585222839134, -1.7410441818652655, 1.49371343659041, -1.1929327870986746, 0.7950615464474361, -1.1238799008443865, -0.7824510662584098, 1.0942724119286846, -0.32721130902323015, 0.6723460062625382, -0.36160100737415657, 0.4081159852378038, -0.014367169223887007, -0.7891427873682215, 1.9500653682293563, -0.44187087852491763, -0.9546836075286221, -1.4589194394122558, 0.22204057129149588, 0.1498891469354465, -0.5870479856047618, -0.09563424923649166, -1.7306722494778215, -0.36658139197513967, 0.2887596930649038, -1.087637345074612, 0.7666129152108454, 0.2986169244240073, -0.17675730508640206, 0.548610369586048, 3.9704313205901363, -0.28967901509930605, 1.2365780609179196, -1.915122415641563, -0.11985231576951964, -0.653009409973686, -0.14584232709726783, 0.16255958892795602, 0.0815981614333671, -1.0914713742950664, -0.38098644197300635, 1.006491409201401, 0.2319994896730679, -0.6592324004807455, -0.9849438323176155, 1.0677141011958, -0.8257919089077779, -0.39408927388635556, -0.5356441270672236, 0.6270100935386862, 0.3870754431885791, -0.21051023907035482, 0.3444074946659039, -0.4047866894118834, -3.254209059310777, 1.5719333279500394, -0.7894562438882045, -0.8882611220393305, 0.12109186601005632, -1.0797106421204579, 0.9557785833221389, -0.7229544138733442, -1.262846497201309, 0.5091341161261546, 0.2545116553838484, -0.628949196748225, -0.4510778810329421, -0.36687168722691854, -0.26330747571084195, 0.30616811240822084, -0.35891632286422487, 0.9238223970589011, 0.502741030273157, -1.1245815533926031, -0.5339971667302955, 1.9201406101970986, -2.997209481376046, -0.2989947369733226, 2.1166026761819774, -0.7487475365556884, -1.8285595709039975, 1.8160719872290865, 0.38907352031978554, -1.3331950311844727, -0.8983489480331873, -2.349310025209756, 0.6364485080127584, -0.12431560280420992, -0.014490535647171657, 0.9123973449354141, -0.24495073905039483, 1.6728284417250285, -0.5310407035596287, 0.7685663226480886, -0.4743207804993755, -0.9343845584668312, 0.5587294641495791, -0.4422471330752297, -1.2623130746887736, -1.9584226314117281, 0.28669756403983054, 0.43916243350878614, -0.9135416442115846, 0.8276013082312861, 1.2014061340825433, -1.8989175491252845, -0.2678473095521719, -1.089353311890749, 0.5957700797984115, 0.17879504397831028, 0.1675720655982426, 0.0027970083794284684, 0.3060058596055272, -0.19818937946381668, 0.2644125731791053, 0.9128565926854393, 0.47638021498023053, -0.053970331875266155, -0.298629248602169, 0.8271211460838608, 0.7657498723165044, 0.19917463623223433, -2.44605568523593, -0.7990481438813476, -0.3455459291538871, 0.9893549086976027, 0.05765937351961815, 0.961992328424423, -0.09648808403914615, -0.41369385231580924, 1.3839525603246525, -1.2995270698257004, -1.4636237769565736, 0.3245886123716919, 0.07411377651845935, -0.6307738147778805, 0.15806362185473635, -0.6336666651517695, 0.05764655398369498, 1.6654330560524138, -0.45789177334520165, -0.5708544092491129, -0.408407247466299, 0.9957411088019847, 0.11661783574576073, -0.05247846693819078, -1.007865309858459, 0.6179818510715627, -1.376724235436967, -1.8927842435152868, -0.28907100958983634, 0.860526336306769, 1.8142488755181518, -0.554773496962263, -0.09862550065358747, 0.8833687160836923, -1.3945280554722224, 0.8430326426763709, 0.14445172295794403, 1.8428249032067627, 0.9166896223820341, 1.064532879070171, 0.5542944008997456, 1.1687689894802908, 0.4977250187271482, 1.1523509472085605, 1.0712940004058653, -2.8030660451614966, 1.1732432418919596, -0.5749462187497226, -0.5326453995556094, -1.0636579368688435, -1.4107975238509523, -0.7654247417223379, -1.0426172241518352, -1.43703178690337, -0.9570857203231176, 2.455285829195408, -0.28028865967684186, 1.0623533380947596, -0.8733224226880997, 2.1007885276888287, 0.7215877563912644, 0.424250593657963, 0.11495822554450082, -2.386249255630994, -0.02301566726761992, 1.2924696873167976, 0.7533252517447961, 0.5016863260303747, -0.6787693168656648, 0.6846358928207477, -0.5257131763840118, 1.3008778700372263, 1.2476447954212686, 0.36101764013084603, 0.6285878957852385, -0.32603844157598744, -0.25910312172544275, 0.7090083816447719, 0.7067778715313158, -1.7037198453584583, 1.7296223156302861, -1.2932762938374738, 0.4225414273896969, -1.2821651639983416, -0.35732722489962093, -0.9438157290765777, -0.23866495864051437, -1.162105315048418, 0.4280745095476334, -1.6381674095806857, 0.6705396473593666, -1.3871093895867945, -1.6385170256662498, 0.9476838387474225, -0.69102244355871, 1.0131012879763863, 0.03844511425870502, 1.1628362217816484, -0.6242179032356746, -0.7697948613077754, 1.7157177314767782, 0.018223935788070463, 0.12581209146054748, 0.45474363110722027, -1.4733493669477566, -0.8854456453055921, 0.3582293190786455, 1.0708133366770016, -0.8716342300317041, -0.1465933743072873, 0.01702631240299319, -0.5996625537358787, 0.4569077167965791, -0.903714629281534, -0.5942584443234401, 0.9488352870680855, 0.25771057314904117, -0.8103577000067665, -1.4751554464566137, -0.029252877661915193, 1.4035847676478925, -0.3301545560184331, 1.5041336410837771, -0.4502244388744625, 1.6566560740802085, -0.5989660444741594, 1.1766102462254302, -1.6925231345717089, -0.16923630941565712, -1.9211958483757434, 1.2535362135702568, -1.5141657879225336, 0.09649145307057581, -0.6108373169741044, -0.4717320241421992, -0.9087607342465975, -0.5125426312954451, 1.0569182196006088, 0.5355242082528202, -0.48360242213639504, 1.1377620340107502, 0.8102859363819077, -0.2818401415834515, 0.1588133080935147, 0.9918705084831954, -0.5890975018857773, 2.6857279355128583, -1.1652414819377745, -0.18520920839378024, 0.1720353822340229, 1.4261617156807915, 0.02960689276827825, -0.029254987358656538, 0.8395367713705096, 0.27848919615440226, 2.031478586461292, -0.5563323388220429, 0.7540815148341303, -0.8222395128715287, 0.5996521944143608, -0.2931049834576756, -1.138725325860475, 0.8699781397956597, 0.7223008581976136, -0.866178252354776, -0.2566778928237482, 0.6206810610571474, 2.4874523657029446, 0.29861813983879504, -1.4497708151825448, 0.10731602750608675, -0.12281078669245242, -1.0589056439101117, 0.3163679627673112, -0.47901391736678134, -0.01756104115556898, -0.34006687575502814, 0.5481615085612226, -0.9397963910424114, -0.5153469125412674, -0.47417980308349, 0.8397257908577662, 0.9102783602881227, -0.42173045451622315, 0.013569084125414438, 0.12965646648974433, -0.31852371529341555, 1.0137750478435483, -1.1268676780834919, -1.2264850154406337, 1.2884919762285814, -0.019018042139724592, 0.34973180101274554, 9.388752627117418E-4, -0.31232036439174266, 2.254936091303512, -0.9398345510422982, 2.1831134254973805, -0.235274875027392, 0.1221944491146884, -2.2556917187797296, -1.1531946740805072, -2.247863086084342, -0.509455397013207, 0.016138288653811995, 0.6506012593362492, 0.16683912757973504, 0.5235859068413651, -0.5235990557985369, 0.9887761823825336, 0.38195472368037076, -0.3542151865677514, -0.6250421841077373, 0.6480129331457017, 0.6449006566726706, 1.0515218205294337, 1.9125260184453654, -0.5047496389356767, 0.39653218171292115, -0.6539571268534973, -0.36906124067767615, -0.563362623085399, 1.3381788774785721, 1.2878942847657613, 0.9836583454518447, -1.0358385207142156, 0.4729723291314102, 2.0263950623372806, -0.20670747437058745, -0.09017996142052392, -0.9404934777572823, 0.6918553627612128, 0.09324116906410261, -0.3575201262269243, -0.13125703180152318, -0.3642427957160383, 0.14962816865828518, -0.4007816518327252, 0.7677623452716291, 0.14316488911172298, -0.36551438089663607, -0.7235503348717955, 0.08746523677601116, -0.15369868687326557, -1.0482885784082965, 0.6479191340927887, -0.6557812343515161, 0.4400613836854279, -0.15258340003619406, 2.253609066037065, -2.3832447404554564, 0.11780955530663183, 0.5551298856410013, 1.6780697913583922, 0.7261961339597942, 0.2741673527382912, 1.1876593456601454, -0.3761401782774366, -0.6829192577915989, -0.8429931993611102, -0.10847469588967848, 0.4815374910631967, 0.2238446822447111, 1.3385479053105447, 0.6752208070136888, 1.3780621436185325, 0.12344801603516602, 2.104956720301142, -0.5861739502890273, 0.21322115282281962, 0.06683309585171297, -0.11555298223191858, 0.2510044008913355, -0.4160722992190242, 0.8799378492519752, -1.883821449266148, -0.2545785777473316, -0.5417254394767299, -1.0644127608734246, 0.24359065795124055, -0.6420642509282296, -0.053385483863456165, 2.4816715309570463, 0.2545883607597024, -0.9313929131714302, -0.3586510641802053], [-0.6763080729836346, -0.4011220241265045, -0.5451338905431823, 0.5004126219108757, -1.0849554869207338, -2.0149857967765525, -0.20506736111160614, -1.1243848944858204, -1.051575685078455, 0.5964711065646943, -2.5635595710590695, 0.9304771075727177, -0.4548641738662167, -0.27090721091034003, -1.2353873167960663, -1.0483691621142706, -2.5609918146204165, -0.36768418112498946, -3.553358786705025, -1.0010796186385122, -0.021493861989657085, -1.862457613523875, 0.6816485197979644, -0.776956225296998, 0.6561992123249519, -1.7830710156061182, 0.0033991083329789704, 0.8971279173181522, -0.23728211330183382, -0.8957319010986989, -0.9964511423756739, -1.2143803944840432, -1.5006692188493331, -1.6158100861305527, -0.1303126989620416, -1.6534290050507894, -1.3341078786457148, 0.15239166561373996, -1.5587613675824343, -0.7133985158105856, -1.4372829635683764, 1.0262588352303261, -0.7363564566948646, -1.7924282046746587, 0.5418907006920806, 0.391211698738569, -0.07552873882036827, 0.008878524108968744, 0.6910205219917285, -1.564448565524394, 1.4728982440279037, -0.46398284210471347, -1.3913510628973562, -0.014981640850406217, 0.06629389851240577, 0.20768055932752216, 2.220990958763731, -1.1928022822201358, -2.256551159554843, -0.6546267546041749, -0.9066019920294021, 1.7626581877843477, 0.5957287167046031, -0.825712805854404, 0.1872918963171765, 1.7121337566993209, 0.37375129299368437, -0.512997701458832, -1.5337099278702235, -0.6056744495159821, -1.2011308524010795, -0.7087572593928939, 1.115503883773055, 0.9214829282475103, 0.02845871202814823, 1.6499512519804056, 0.26219639901025454, -0.5669523725995286, 1.8249813463020397, -0.01075587507326383, 1.9340215300608015, 0.21261872945358162, 0.8971690093262937, -0.221716666636818, -0.6090389311314298, 0.8364189263017969, 0.1749668950643603, -0.15685152198187088, -1.1799903457878818, 0.22032017287813271, -0.625170755793002, -2.029696917591585, 1.522495888895489, 0.3755644459413061, -0.1835635517199913, -0.867128069975549, 0.8325535290864641, -1.0781746813741468, -0.6707447201764508, -0.045486414342992554, -0.10227561120318224, -0.3050373736343859, 0.2456532591468445, -1.267207672531764, -0.6653582329358978, 1.4324623592411716, 0.5511046322790032, -0.38821913891957943, 0.3228986407272203, -0.0802682851043401, 0.37708199039437634, -1.463497575956833, -0.025504746249382697, 1.166104063006575, 0.1206467982121918, 0.4604455628892003, 0.3553181169320831, -0.16314962080119066, 2.2781669577654444, -0.7441848383366301, -0.36649269462427386, -0.7117859229341844, 0.269375807948659, 0.9856448216437731, 0.6460411818970134, -0.14233162668796465, -0.22306392439966244, -0.08556980885583867, -0.267938188413513, 0.6558465137164784, 1.429645962527343, 7.103279747714959E-4, -0.8134137226870128, 1.097241731846733, 1.2149480666275487, -0.12826328120768143, -0.3168347766557878, 0.7443740945304107, 0.5579855224130271, -0.5276835990812937, 0.3167086056339096, 0.8429674257080215, -0.7291073017530368, -1.2899982593943933, -0.08435224831155484, -1.3083124340787162, -0.7481737247965765, -0.08584258723036893, 0.5400578088587036, -0.4802974153465618, -0.15277671478859714, 0.07241861431984163, 2.232875241637038, 0.3497831074723889, -0.1458732604285797, -4.575984470433373E-4, -0.669366198304707, 1.101884580535632, 0.4256619185816704, -0.6158712957808412, -0.09642804578522245, 1.899894841801491, 1.7176734831989988, -1.401712039490683, 0.1428153948533899, -0.46414364845711564, -0.2768412757238073, 0.551651137873859, -0.7985723811641137, -0.2984367895604041, 0.2158117070220603, -1.9475685620954206, 1.2129747738117362, -0.31375823175293316, -1.1148007381156115, 0.7993050081197222, 0.5002575823362406, -0.3740354374443695, -0.9598958074338956, 0.7858703628781436, -0.29103081191055796, -0.06139256204174079, -1.280848270440342, -1.4633561840956557, -0.017338922673595932, 0.2918757472273641, 0.9793412358274906, -0.05099176595218991, 0.8079140383833222, -0.6335938300573316, 0.8008260496087761, -0.6824978152091968, -0.8182257018979306, -1.389345074422356, 1.6338359327410283, -0.12816711167638092, 0.27451562304038574, -0.32639862929062796, 1.5796754092130176, -0.730145298940536, 0.5040312274409606, 0.40077619023700084, 0.44097743865533606, -2.1809509894990633, 0.3462184212285563, 0.26087219674095935, -1.0262243827393331, 4.109531616603719, 0.10966098761924781, -0.7313496108767391, 0.9351142572380219, 1.1954708399754084, -0.055969405052919884, 0.8585650751834147, -0.08930242446140793, 1.3224481521092626, -0.47832193485068447, -0.6954252583588537, 0.07303552583167644, -0.7566395720933596, 0.3274322294561703, 2.479491436622678, -0.7259477454709636, -0.3430150934823315, -0.29987780989096813, 0.5490589854742682, 1.8782186285872549, -1.5784853479552734, 0.16363586522478746, -2.001703107797965, 1.8000862804317592, 0.4882831405056755, -2.78335121217955, 0.1487843620665726, 0.9305685106584016, -0.42878548799796934, -0.24682020196762364, -1.8493414215408865, -0.4067727759776951, -0.13494822852523436, 1.3205923029998385, 0.1587968556893988, -0.15229401625639624, -1.8238320265696948, 0.6317107127792694, -0.4555926025669329, 0.08866545365289054, 0.5226724879705072, -0.6649686894799325, -0.5742611060591606, -1.5128294622470388, 0.33989220251794644, -0.14945382705462462, 1.2786490295610888, -0.35086337718309824, -0.23947592786307717, 1.2488019142996027, -0.39508331507804506, -0.7720743290280456, 0.7121167825918168, 1.1995116756990805, -1.5221624844870527, -0.5809706275514119, -0.6216700692661029, 0.9976502466133205, -0.9024246152204154, 0.24721501154802836, 0.06927991472375762, -0.5775913054598855, -1.3505347416928306, 0.27255278620839357, 0.6131866498160211, -0.9893180994717481, -0.11196661938537474, 0.480729027058931, 1.1868616376793346, 0.544676871468616, -0.20107067255725658, 1.3700488021848882, -2.104861833467906, -0.5152948481758824, 0.7145615087183703, -0.44621162892940786, -1.3656027205152887, 1.1066479229749833, 0.002565130537191704, 0.4444806080041427, -1.4346834505231105, 0.728461472654019, 0.22212315023041432, 0.5828828341314185, -1.454594068145742, -0.5134356463508091, 1.2093183947777668, -0.30629162665691584, 0.4725343239574872, -0.1497920409469082, 0.09280163311794584, -0.6517247886072668, 0.31973203104390324, 1.104667921547837, 0.49518516620397374, 0.8134131887147056, 1.8001562706674985, 0.2490257165564249, 0.3810288086441726, -0.0699687172867747, 0.8021691900426328, -0.3937883356601152, -0.20064993572703776, 0.4994177043045185, 0.6243046846268858, -0.646556900971347, -0.18381436188765135, -0.6868459721946089, -0.16464771479323884, -0.04809046902973081, -0.5311395878809545, -0.26415654650547493, -0.2307647171306741, 0.6838808388095524, 0.8680653107758585, 0.07144089647345865, -0.20662192813028404, -0.8026392581435499, -0.9844291809305827, 0.6744462901615321, 0.6515888926188333, -0.44230818176401343, 0.5078940906350321, 0.5356144746477675, -0.2520795168023475, -0.30851920883358247, 0.4438145391618405, -0.9786254574786089, -3.159964634024223, -1.1728941817250702, 1.9339500806427539, -0.7586247143578005, -0.050529782341849454, -0.03797622700039398, 1.902310395911453, -0.6838450177554011, 0.36153810827973987, -0.10013943057324688, 0.3962586446484433, 0.9220430901272452, -0.14840023770777397, -1.2711889395689133, 0.6031833691614803, 0.22359886073382346, 0.9368427621473279, 1.1031354164150053, 2.2394994851016325, 0.35487464123090234, -1.3146205562990825, 1.7948755208969673, -0.7455951122195438, 0.8528031404006193, -0.6841304143688209, -0.9597396646695197, 0.4457277070362871, 0.03899553822405961, -1.1836346141535208, -0.8260858008103912, -0.41652580657465976, 1.0938882599986557, 0.31491286957810083, -0.294319535253586, -1.1026439826530166, 0.9885415786764972, 2.6117583775474644, 0.8070237439608063, 2.5055855332272996, 0.9765612237916947, 0.4974524928891596, 0.9383085110065301, -0.8980913956270985, -0.16351211651635028, 0.8956892641814265, -0.8274248693228321, -0.42363006483967575, -0.5932030286967271, -0.44984480599239096, 0.42161781720033686, -0.7544481902607202, 1.549381263493907, -1.3337394428477465, -0.5337455061579155, 0.07203648136555008, -1.0809248961956404, 0.5163067753380571, -1.1732043955613898, 0.22228518632262298, 0.46283731596227984, 0.6607512764802986, -0.341553658477741, -1.3841579984541106, 0.1138786353449437, 1.7077965072829226, -0.43624032666057744, 0.30851382162317387, -0.28453193860594755, 0.541006133177474, 1.0009780522157439, 0.2734175405871145, -0.7695612322961086, -0.13411886509163506, 1.2976604224305492, -1.3651139272691022, 0.35524431081233954, 0.06267171348475965, 1.259093397189215, 0.318948847498176, 0.5184613305593564, 1.0424062210222576, -0.061042399649520976, -1.835030081961836, 0.9211849156415133, -0.1732027277692371, -0.18226432105329954, -0.18588572017870258, -0.4006144390624711, -0.24056194498618966, -0.7239329714552518, -1.3269671296805132, -0.8162137212131815, -1.563169535625301, -0.4649615588600051, 2.213668945227298, 0.6620847888593516, -0.5320557439814757, 0.10480202669215316, 0.1973951345658135, 1.8220334152222533, -1.4180173113256722, 0.014490286137796954, 0.853130710613223, -1.3801763933944091, 0.08819034644319343, 0.5679953724038238, -1.1756619136277293, -0.6868131421053733, -0.9135149807634981, -2.113456961349607, -0.18122532362247534, 0.7050745514359856, 1.3265667934458472, -0.47141771839721414, -0.4861196647658303, 0.19101181441232876, 0.4812626822876223, -0.7590808855891411, -0.8728519690854862, -2.1256008388913346, -2.370503155017103, 0.9195489599743149, 0.20257792434867444, -0.27086722849861816, 0.2566051276850127, -0.2258965500391012, 0.3823973179302681, -0.7731704566907238, -0.2870424015577778, 1.3189985527162071, 1.0692142594847096, 0.71226472677854, 0.47454177094863254, -2.0388436580789393, 0.711004966454085, 0.5036137567228723, -3.1611003583511676, 1.1850665865999181, -0.8941262855187668, 1.2324040915148786, 1.248681824750658, -0.14865968900795795, 1.396514789490148, 0.8955334902479669, 0.9420250312612377, -1.4798369916154575, 1.6893464148071098, -0.8195274687683343, 1.508969174038219, -1.1262976533739895, 1.0803874089195413, 0.7241513433859916, -0.027097010545855952, 1.7076295849559031, -0.3770678822043511, -0.9315245245316977, -0.17794144163740064, 0.16856280551710012, -0.7735584795298497, 0.13818089308875411, 0.9730340321570707, -0.9563674447663536, 0.6953952458509073, -0.0658120599872773, 0.04806951994262169, -0.3469494859307097, 0.07511910046240831, -0.7551333777858832, 0.5828298904345075, -2.3477903899186714, -1.5795703497476292, 0.5628758799603251, 0.9108400497612089, 0.07410139653050084, 0.5221991899424542, 1.4857332363743572, -1.595902286331808, 1.9902917254588492, 1.5016199192887727, -0.7330911074970838, 0.22410719173511248, 0.8221260239625038, -0.5160492477456767, -1.4882611216303812, 0.5701958981604037, 0.25433696408401724, -1.3350854854619731, -0.7397398246564567, -1.1003597800506852, 0.6575467426952986, -0.986080404256212, -0.373926385295686, -0.9926507422795621, 0.015164890534844707, 0.21583027313217626, 0.3001105342572804, -1.0844393930156138, 0.12081121660474625, 0.2571058192304573, -1.1560275421248023, 0.20566376938276926, 0.9345734074788508, 0.14209491857994916, 0.18531031261510006, 0.43732968056964194, 0.23032066444043361, 0.11655095965120127, 0.45191887142095283, 1.4663028674036933, 0.1466737867146244, -1.5618457215979096, -0.4448054765488755, 0.08756770837456027, -1.6247970231132265, 0.24072402838073376, -0.5461078271289349, 0.7707508122754481, 1.184916071381631, -0.021237809174894245, 1.273799909394058, -0.5067355860467634, 2.4059860308017895, 2.2536407448895877, 0.10962084886070947, 1.2031341677486764, 0.08017198455221365, -0.19271800387598495, -1.273009360712644, -0.7048581024522563, 1.1464710021140956, 0.7864854756657869, 1.6673742725420757, 0.21217208131274592, -0.0950153736589173, 0.7243272156160233, -0.45694650454863167, 1.782317253940721, 0.6663608353273616, -2.4124381395975316, -0.9244718353515827, -0.8373984070017341, 0.3763109054984833, -0.24300708345229782, 0.9977510341922851, 0.25583832515826843, 0.6660560173167249, -0.3328453594569961, -1.1737981262692, 2.4247294357808515, 0.3977454339699112, 0.6482001825479272, 0.9343902968854366, -1.5986487203809043, -0.3379607636318071, -0.6962857795494237, -1.1536857019062798, 1.4798578331531518, -2.0155033983660644, 1.2947740274253885, -0.5609367493183413, -0.2786872506691756, 1.4032926912013102, -0.8788403984428717, 0.02948510085758962, 0.8195686914151245, -0.6377986926796448, -1.3006958523147414, -0.22030175495196058, 0.31816120599618153, 1.6490665067547057, -1.449361178059058, 1.0668798409849758, 1.0218592168091232, 0.43210088839960703, -0.5413394372622662, 1.2226362489998122, -0.4611395130843755, -0.8176498454379684, -0.03747353655561581, 0.8353864374241005, -0.47927821051329345, -1.8122670937393692, 0.0517963401754713, -0.3406600368814727, 0.7782713594399135, -0.21739168842980475, 0.0050130613203131355, -0.751106000570213, -0.14833287908340717, 0.5618255603763151, 1.8049671878823264, 0.8148009103243566, -0.25383470154397453, 0.8534187167622508, -0.16440236973372585, -0.139283126857484, -0.4349188068282197, 0.30226359920747264, 0.4389740601562136, 1.0607912269678146, -0.5280131999859571, 0.16534532269441754, -0.6876455998290582, -0.04815600522106928, 1.2092865813665876, 1.3068923034918445, 0.5699569197758693, 1.0405961637861305, -0.15491013915294385, 1.3260522173784308, -0.26911705896021293, 1.7474466347776108, 0.12435693559039523, 0.554606975152544, -0.882473060508162, -0.7145797252644073, -1.5056676198987664, -0.10303557142456168, 1.2645979160749377, 0.020289775106237314, -0.7862545711002106, 1.177086615546546, 0.0757184593308679, -0.1861950033614259, 0.8561217196452461, 0.35209501807465227, 0.07827349144590494, 0.651212655076285, -0.4892935628007886, -0.31310474501538543, -2.89996686559644, 0.9866579387968492, 0.3591088134470713, -0.22460032707774935, -0.03329067936315167, 0.4943445266286694, 0.3268051135526375, -1.165537353707916, -0.5746267495540713, 2.4198774130533067, 0.4161196763175568, 1.26803051297888, -0.1494223091138996, 0.38172191689873075, -0.17960351520776874, 0.7306183420400075, 0.8948218519847284, 1.07990485520344, -0.7927409677435002, 1.1930399744006446, 1.3452935362838876, 0.26552500305072907, -0.707545866659012, -1.2825674550239994, -0.23270144189139064, 1.7903704130194762, 0.6225770879000161, -0.9464843318357222, 0.06587866164613101, 0.1347361550071831, -3.0050593148096527, -0.3458548809449301, 0.0411395821474869, 0.5753176864325102, -0.05832392358787619, -0.6674501438940131, -0.3752893237261785, 0.4221593217869282, -0.12145293601267733, 0.7013991054810976, 0.49609482583092573, 0.49226835452699585, 1.9415991566337776, -0.3395097000983677, 0.23268510509794874, -0.8075116063566552, 0.3293410404037799, -0.08933767696871199, 0.40885874742588507, -1.040013329708243, 0.3720569609461863, -2.7122717835453756, -0.7454197407523614, 0.05924615778356997, -2.044646660025055, -0.88978175898138, -1.5361362745674332, -0.6382732138258416, 0.13723547759601976, 0.8319970997379067, -0.7079590401593246, -1.0011980064339543, 1.049443153146924, 0.22771661945522118, -0.6471765448958977, -0.7514384423039286, -1.1812978338254838, -0.00910278393158446, -0.7834569396253328, 0.730546653594596, 1.0206201070301384, 0.9994423246236666, -1.216656101452337, 2.8120999170539562, 0.3415546327939491, 0.19520778171142378, 1.3629324430351923, -0.15321806182436523, -0.3343866525111193, 0.6685404468759875, 0.43553604279653424, -0.48424543956601757, -0.9909037231199684, -0.7504540511528652, -1.0873364602065037, -1.3947798430208036, 0.8570810033674651, 1.2039125223264717, -1.5704674815986104, -0.6345553391466636, -0.6934996667200073, 0.14743193910188052, 0.21938746229171244, -0.04514411366424807, -2.7972000167730946, -1.2433634912432712, -0.9493281975355096, -1.780041960826571, 1.9651106062309072, -0.39466376743064613, 0.25081025702345366, -0.2128994572039322, -0.292759773119099, -2.652193785983854, -1.1848247446747668, -0.1133543667809982, 0.4967465966192408, -0.5047024981798957, 1.0649222094497444, 0.19382571107191962, 1.1893923276238376, 0.2722862008781077, -1.1707514260818963, 0.3775203165615774, -1.2480471831992646, 0.40155190018786396, 0.1334585855651895, -1.7407846424689342, 0.28922890275599655], [-0.35034153501899157, -0.15991206748628467, -0.7504490921427017, 0.288651601583696, 0.8119637138070604, -0.6578728370275305, 0.12488559766503816, -0.08214721789811553, -0.8627014880175649, -2.250105631594419, 0.7288532045042152, -0.5081517007126827, 0.18541714911320525, -0.1882864194242473, -0.985250019992932, 0.49400936869330325, -0.8335227389869994, 1.0706561016864606, -1.5680212635693331, 0.06080565533947803, -1.6358716280173764, 0.8603248882817103, -0.24375055521168817, -0.0961109367766092, 0.5448559727496104, 0.9203805685811898, 0.3127260770107685, 0.569496109487814, 1.7734204485873057, -0.6473009620090308, -0.15600856906110222, 0.9881028224426274, 0.9653479395341109, 1.0593911446520994, 0.8212314030435255, -0.15430185425932777, -0.24768265541076406, 1.0000164130038156, -0.2548594209811942, 1.501814888264189, 0.7540912829292934, -0.8591854467476586, 0.5134669191923669, -0.8291486469608832, -0.4857157235575818, 0.5904896363494444, -0.47384817486524, -0.7378230523585003, 2.119704147239722, -1.6095997575924168, 0.7433901657403835, -0.017754125494194285, 0.06617452696592678, 0.07389112728170322, -0.13693160016978329, -0.07555497977916843, -1.1993333801589336, -0.6720630901473574, 0.34728801066578285, -0.16751173147718035, 0.5410601289587318, 1.762228106215788, -1.3497525186403398, 2.2905778250007685, -1.1038924966943637, -0.1976271892354508, -0.41093973968120884, -1.5635524854642877, -1.3831248778133856, -2.012560332106509, 0.6553228397947048, 1.718963554689735, 0.3561115960545677, 1.268297809599497, 0.13859293500469583, 0.5976516471482879, -1.6358496602182553, 1.0177589739298825, 1.7738846314941954, 0.7891457926796305, -1.3069253919975212, 2.011963296703784, -0.5273419637279593, 0.8138470585669888, 0.37891289071103246, -0.9251400724768073, -1.4178519238534784, -0.4967328498583154, 0.484057928680265, -0.8595433597514753, -0.37336397485105344, 0.9820260834050295, 0.5472066626606067, 0.2561148611956698, -0.360570956529446, 0.6964859364815806, 0.220395881485452, -0.5220028987888773, 0.1926413773145103, 0.6754399346118176, 0.5277995963188046, 0.41317993033991524, 2.2274761160964, 1.6852713403277002, 0.7372740047708679, 0.668837226711622, -0.5269023316190111, 1.2324848531047874, 0.41544442081299265, -0.7827089657304693, -1.6577558767252767, 0.8851157216611247, -0.6649012903376452, -0.6156643130329249, -0.01900921768359273, -0.6192041188439644, -2.5226267547758034, 0.13054442470686903, 0.9773778358889333, 0.1297687295041668, -0.533582536089106, 0.8530209813448262, -0.5906301498833609, -0.830998395784702, -0.12902135593336875, -0.429211500570198, 0.9286856930939004, 0.19300288383160952, -1.0781548791117779, 0.6217133770240346, 0.5100776934452015, -1.120003678834549, -0.7367191401858566, 0.45969684249080506, -0.7165933717708236, -0.22785514879749094, 0.7779995745161189, 1.1133294800996096, -1.0473892306935657, 1.1429858942776598, -0.5148105694219497, -0.1619421375255132, 0.04792886361173396, -0.09482212962439575, -2.122218137353697, -0.4777183224991209, 1.0218427639739935, 0.7956345892805207, 0.04702460141685478, 0.43221016759915554, 0.5783538366296789, -0.13731586250630354, -0.5841793860118604, -0.24116135473736752, 0.25056875522534855, 1.6707595724937923, 1.9571771308812642, 0.5327582364663163, 1.7943786008345068, 0.27625086795058396, 1.4717895916999149, -1.8284531448699448, -0.212337774409933, 0.689958901468823, -0.11318963397879234, -0.35462101277359, -1.1938147227752147, -0.09302914604215151, -0.4297025709657335, 0.4046094618482853, 1.3858038255728873, 0.34589124320603243, 0.7690002361097833, -0.46741798592209616, 0.09066794728043825, -1.1080641173655577, -0.4374721336149538, -0.06224531324029482, -0.17573169153778875, 1.1042340640197996, 0.23740397515494804, -1.5286714749917387, 1.0626682544917916, 0.9238096299863039, 1.1552921342345024, 0.8648987037499846, -0.9055582450601, 1.7447838513981888, -0.25966975191983094, 1.155214844553128, -0.5335157837780804, -0.1913420709404545, -1.6577361831770958, 1.5722258500047461, 0.7530368077626369, -0.19053452957886532, -0.8452828622694798, -0.3632147693975696, 1.3484095237708948, 2.1653396671063003, 0.5972491375355374, -0.19930707398684097, -0.6886971955776543, -0.3424171501890792, 1.0633062440301715, 0.2333240617839665, -1.100844987660539, 0.740378451889484, -0.009023109689052095, 0.8741081880660198, -0.9070315010128702, -0.2556133355377996, 0.055755679686252745, -0.8895745203571477, 0.5433289643480904, 0.22739309652184847, -2.1611662251676615, -2.0496199696263826, -1.03518034128262, 0.18582775622823508, -0.48740700284079175, 1.5321559183512161, 0.32294827310138685, -0.1942268947348408, 1.06879637818212, 0.11862912853374366, -1.487651104494587, -0.8171795293076214, 0.5764109422094489, 0.1532616488037839, -0.33041831221873486, -1.2839488988602372, 1.1622245080825258, 0.2853041269207199, -2.64773304146933, 0.03648827667510817, -0.45524461412109624, 0.03476607380570863, -0.40495917055939173, -1.6008887082174719, 0.6371528622674134, -2.5395755247494036, 2.3544812011482517, 0.4186106019180416, -0.6161965024909217, -0.638946766942354, 1.3231183082666103, -0.6363784650241747, 2.440920250242665, 0.6196977023535927, -0.2999484676840077, 1.1722239136093915, -1.2512968485144775, -1.086844552024651, 0.48455268082045144, -1.1477092139402403, 0.7704203038249514, 1.1789495899813176, 0.5443331495769821, 1.4888717635627837, -0.3362499188877233, 0.6041796135189166, 0.3490697086441071, 0.5320793909488298, 1.3743502974263186, -2.2661760204080585, 0.04379689100522867, -0.6038052015585168, 0.03584112627879846, 0.30281593613708085, 0.31110501065079477, -0.3183604453060944, 1.14946316360227, 1.369232688880601, -0.017619102572234195, 0.39570257676039294, 0.08388707878838268, 1.2424858865004667, 1.619927888469324, -0.4419145501190972, -0.6571198450718402, 0.198008204194943, 0.10129909186352609, 0.28642263376966137, 0.28572266578643624, 0.5563548486435478, -2.7279317363856066, -0.7202085925900473, 1.7870106826315126, 0.09312791788110374, 0.0969105783109966, -0.9815842918724459, 0.3200554071817093, 0.9259572067462352, 0.19044779498821532, 0.8633664320288489, -0.23412645195169068, -1.747375378484547, -0.13992097503261364, -0.5839181707216212, 1.1612952665402547, 0.657649651277127, -0.2984769302038297, 0.5564989768655225, -0.15050290457616824, -1.4675859863185283, -1.6586163152640447, 0.677210901471049, -1.8991065598825, -0.4297723776014721, -0.7748467927172551, 1.6652687822390442, 1.1347434667790952, 1.0045779843342915, 0.6494729939190484, -0.05277103775943101, -0.4977711304640942, 0.47022234770343524, 0.4303509405729854, 0.4764230578843087, 0.06090038195226345, 1.3800464459821915, 0.08177425694325881, -1.6619354126224606, -1.8746690917866315, -2.044782136390917, 1.6543859797701048, -1.1030567454786706, -0.760680478071135, -0.3422700835852256, -1.332666759241943, -2.2893643267401926, 1.9220700271714104, 0.6904495390010037, -1.579960494806352, 0.23973236263723738, 1.0666848623576466, -0.7081081730013369, 1.4346300119958042, 0.9125013704416899, -0.17883939378172536, -0.6213041855287346, -0.7256380224357148, 1.2450685828891368, -0.02671699888818281, 1.213915812046261, 0.5432977447012505, -0.7178461446290896, 0.6501984317558716, -0.20653808986368624, -0.6231594557944998, -0.21021567374548916, 0.644591956756818, -1.060828994357433, -1.098016194198752, -0.40530901888193316, -0.7804677364495238, 1.3727456091716108, 1.841413087143571, 0.8583275016772407, 2.890938479996723, -1.5780160830688286, 0.1982262491379461, -1.2375942605705652, -0.259576138328791, 0.3614166839670556, -0.44512234016446106, -0.5000278465082718, -0.2604698830563744, 0.6738739247859417, 0.6857676514097023, 0.5034044828811802, -0.6025155175485917, 0.1275339561164378, -0.7435452152472706, 1.8314444778024248, 1.7326518412215721, 0.5490199022395177, -0.7487237723372153, 0.09185594642176692, -0.4854113052014878, 0.16276585101388094, 1.7825899645546788, -0.49781246202606266, 0.013999858711626486, -0.6530033865337729, -0.720492027524997, 0.9125277010288735, 0.8477721206164787, -0.2566799698630369, -0.9573343883022881, -1.0381905535762306, 0.3726777129087971, -1.5013870497579487, 0.6520060878772603, 0.39112555044635827, -0.8060461302139893, 0.22347723646868492, -1.2336672891869556, -1.0192976492099637, -0.357355348082144, -0.41757393382693964, -1.135411952833978, -1.9209552266503054, 1.1443988464640882, -1.058948851794715, 0.3368601231839999, -0.3988240697128095, -0.4063475001551529, -1.9686633079241822, -1.4530579018550125, -0.47876979473887116, 1.2251726188733372, 0.17780623343278346, -0.3401898500245995, 0.9189971767428944, -1.379505861637917, 1.134146737291851, -0.13389312330502626, -0.563659320642303, -0.03360277472289773, 0.4851612514805826, 0.7937256243876547, -0.4226683181481129, 0.19657914264171347, -0.7001671884507552, -0.08321591655457698, -0.9867323704923446, -0.2437145603162266, -0.4356512316442323, 0.36889547568322945, 1.7073625831539967, -0.44587366206622, -0.4215320339614432, 0.4952692951174257, 0.274476403625564, -2.1776613496124146, 0.13964243724361033, -1.5859779356465578, 0.6754354926219462, 0.2648616066915301, 0.5036125006412719, 0.7490846862151648, 0.923091178853473, -0.04214929653830893, 0.02666295230128782, -0.5247076567121104, -0.34164961980290864, -0.07795390894842524, 1.3238515360309113, -0.16577422691813173, 0.18649006514585603, -0.014277784302852052, -0.049537473449684025, 1.1549272620098616, -0.9747834570195147, -0.8567912420503703, 0.820820130363273, -0.5858966849167115, -0.28092427085158783, -1.0090957195701595, 0.03615899447302049, -1.3340378319784818, -0.7889608284003818, -0.364110412936376, -0.036532175087515203, 0.5052700410417093, 0.5056290124181343, -0.20257749251580354, 1.2651464132105965, 0.3790233881980593, 0.9032149803484425, 0.1960452365740689, -1.8539721035343708, 0.6022555375444018, 0.9680502985654712, -1.9563386068537998, 2.3903937701805766, 0.946733869143156, -1.2414534686365153, 1.2212172596448823, 1.426115902232018, -0.2436169148100506, -1.916476420256527, 0.2941129879139932, 1.1789044628430077, -0.22989045975748226, -0.7496549611395884, -1.0925510519101005, -0.26008628315101934, 1.0827148812090708, -1.874359865800547, -0.9420310516677008, 0.5055308062921433, -1.6021523525867072, -0.6723569591938292, 0.6568515628530607, 0.31296403084300006, -0.09216418215061765, 1.7463268351271726, -0.6619294123998746, 0.755916009168807, -0.6286215411189028, -1.2692971647424733, 0.8335885412785327, -0.7962430295141278, -1.693877028111717, -0.6979407657769442, -1.3891083673188769, -0.02405759567020703, 0.031492499477296265, -0.03155490679292839, -0.06302154649097111, -0.30509689985385263, 0.8365456694869491, 0.8335439563705187, 0.6399702284241618, -0.5063548232135252, 0.01333253233937414, -0.34254858901838875, -0.6595486588228839, 0.17145011389118892, 1.2110459699112894, 0.6135868701372273, -0.46473901581681465, 0.33361921769088043, -0.042698125990115604, -1.8676428131415443, 0.10832528964161424, -0.333962400676114, -0.21678145529906864, 0.2787174687069395, -1.8515107674710714, -1.455187949827069, 0.6640932478810815, -0.12653887324843865, -0.6596011573709646, 0.20586645526860947, -1.4107729541171217, 1.5286465835379073, 0.35942704973454215, -0.48124980090124475, -0.9153983372588129, -1.085806626304802, -1.621188997562247, 0.7653667729778356, -0.5138996737340593, 0.36681187554863204, -0.44949564900233446, 0.3290856048045169, 2.2217253461761413, 0.24884451238599822, 1.4838082637469059, 0.9238084521719827, 0.4842125003206185, -0.36628238970087246, -1.6266109280472818, -1.3407547579253378, -0.9873268644214848, -1.263056916465722, 0.7409538730443249, -0.7314931072289436, -0.6484379522591655, -0.33824634560918654, 0.4609254283951435, -0.2762841606652024, -0.5058459767875929, 0.9943492931242158, -0.29591535006906944, 0.5846079966503634, 0.966079641653, 0.017482432843378123, -0.2943260285356724, -0.5451419171121232, -0.04034802843960188, 2.937439160509009, -0.1380122484414691, -0.2872075546743436, 0.7232493980740875, -1.4980020265080094, 0.2220693252319059, 0.5757287760617937, 0.3119797915220263, 1.1832974637094444, -0.35749994948282426, -1.3356853557696657, -1.236858623584268, 1.2648671360823371, 1.3248040551957143, 2.003825629670653, 1.8370295859383783, -0.00805333958166635, 0.5749279136742688, 2.3066687714767498, -0.8453335311296497, -1.225459886999531, -0.04426196259080213, 0.4625740319837671, -0.8711167917760778, 1.868743721683451, -1.0458814617622656, 1.8702536082086478, 1.0413997297573994, 0.4679301316434802, 1.0537697212740165, 0.5445814534640777, -1.0360376954097839, -2.244312536053857, 0.08979328456312352, -1.9341454386910624, 0.2593271415128352, -0.3734842794611184, -0.6589230800255534, 2.6964525807027253, -0.13716170589286977, 0.12632120595400295, 1.4591652619132496, 0.19080847324037215, 1.3156024782386482, -2.030682043576193, 0.7001056868030114, 0.11791147448397787, 0.4775617646654228, -0.06961024447567629, 1.1583097673259517, 1.2851463325819907, 1.0760151942304663, -0.7033936986334912, 0.3564159970222331, 0.4478663559363032, 0.4675330637819889, 0.10481606416625522, -0.8159243885300336, -0.8018077459783602, -1.0806016350867131, 1.5112113407139516, 0.2331889620013243, 0.43585561558974817, -1.016463974094325, -0.5479520153563858, 0.37499083678337164, -0.41339154188088545, -1.2572478890674856, -0.4703136796266189, -0.19251709617244406, 0.4170837224026549, 1.6906308452943961, -0.11712735811495956, -0.30349535963899626, 1.2214145047756895, 1.0995498370121306, 1.1446603427379392, -0.6024589129199746, -0.10439790942691234, 1.2710082266482847, 0.10251236922974731, -0.22857467160650607, 0.15389761018764672, -0.2518666736054801, 0.7225060830463691, 0.39610289591888986, -0.9652024370265986, 1.7962364960835797, -0.22567217173130455, -0.5963458071429468, 1.0710208881779824, 0.15710480246538988, -0.7189844041611911, 1.3814946689637342, 1.478573627533485, -0.477596509103033, -0.5467869761592616, -2.3226111204402535, 0.10242280530105544, 0.7211827120759116, -0.6652127388667716, 1.3120893862460683, 0.7703438792697934, 1.2940479809391126, -2.017348971092049, 0.7895903545575402, 1.035682188171062, 0.26952236236398985, -0.8818040014065014, 0.08367474625664571, 0.8143458748272996, -1.2701052700257687, -1.2507441144385387, -0.4350326017726902, -0.5936810819011389, 0.09391635479084895, -0.051527622648851384, -1.1599274948519, -0.9228937373412003, 0.5145923004272869, 1.267385830587824, -1.4281349403501156, -0.40972380682109943, -0.20469384445132036, 2.2326241848760464, -0.36614759123115787, -0.7012891797223852, -1.276714753396492, 0.8092957996110022, -0.5660343835162179, 0.27977038379826036, -1.6588523127528962, -0.07624849265186126, -1.3125784215388387, 0.05932537443542247, -0.7936807733858804, -0.736863264749181, 0.4754101666215164, -0.7519598445576058, -1.6226959644150136, -1.4053858971711297, -0.06364618537622097, 0.9661452787960653, 0.09404467215878368, -1.1020441372190497, -0.6365549476831497, -0.3240148067588664, -2.1375103322205886, 0.6373371015514274, 0.33708948763842006, 1.3413138712807702, 0.8426684212998251, 0.5451378309596479, 0.05546685300880166, 1.9625686009996424, -0.4944142586992914, -0.4820505395294553, -0.47809156885473203, -0.15107064536638903, -0.8357624666277249, -0.8217318666509487, -0.6641705072621746, 1.210391979047721, 0.2957737727913486, -1.1309791848579218, 1.7489923477574167, 1.281894875321767, 1.415792456354315, 0.5498487561512194, -0.24722682185526007, -0.4540229459832688, -0.7839045889884705, -0.7097628276451159, 0.18695390166373216, 1.8883934338804182, 0.3777595460134624, 1.079874490195748, 0.3049553929403337, 0.9112025705509845, 1.5971219050725969, -0.8451693596858572, 0.559903647381217, 0.8152689173595394, 0.9278979144746315, 0.32438786187105656, 1.1807835286968555, -0.872205279749704, 0.2527434212233666, -0.6549125334179752, 0.8467119496501362, -1.1579092013549865, 0.9333181091107513, 0.006985060952839082, -0.3956210667105156, -1.1623093599251142, -2.466200738309521, 0.3536677428460713, -0.5244717026844468, -0.6492025279938881, 1.4980244589296832, -0.07100771147916987, -0.24881622973843429, 0.2711264628860985, 0.6508330264532975, 1.1789542287182575, 0.41932238961960505, -0.004648885480412743, -0.5127418736718413, -1.134667347398655], [-1.477790960826108, -1.1119926985914919, 0.10781877751545639, 0.27555261467637965, -0.03195774161792463, 1.0405178162839188, -0.16909747313003112, -0.28187906703156246, 0.12520208687595244, -0.6358863103071548, -2.6546600223175933, 0.8779025819811114, 0.37425788890670586, 0.16656426150666367, -2.191869485198809, -1.0062770480768084, 1.2054035376978074, -0.7896357387595624, 1.7295216064584822, 0.28414600493027875, 1.8490333283270843, 0.09522951551854174, 1.0027062856015108, -0.42589197288509023, 2.0041834175511988, 0.08556944675990659, -0.7994974122236205, -0.9198617904675194, -1.729496095903823, 0.8749524614732287, 0.04006899446777164, -1.0465467392735135, -1.1929193756749017, 0.9098024838966825, 0.28742571534318034, -0.14310488445741823, 0.2623718562048158, 0.5109982802579488, -2.1089694733966025, 0.4433711493038059, 0.6677936849316326, -0.183854403796476, -1.0335241974692546, 1.2467122727329698, -1.4933589678822996, 1.0872324403987292, 2.7016352082311497, 1.1222987089481653, 0.5429644606698563, -0.2497845090733232, 0.6657912818900672, 0.2850701287600422, 0.45156292862754804, 1.129143461453951, -0.16905894086455517, 0.9905482350818758, -0.7778558306167443, -0.42536070388277564, -0.5866910564809416, -2.2487998831711433, 0.10269397349327794, -1.153680768590252, -0.3014235900941666, -1.0543155989849, 0.6146123494016935, -0.8139423390515689, 0.07183400245046459, -0.14153209586449556, 0.4763509164737489, 0.1612770071465008, -1.758969642439671, -0.5727403752512557, 0.8172049897579338, -1.4838365655798367, -0.9934132840334621, -0.14204023419507691, 0.4900400797930098, -0.10065530278843754, 1.2117203996119392, -0.9571137918000794, -0.43850133091454335, 0.3043765153310482, -0.19139260871394828, 2.3646818126130573, -1.9338670626252425, 0.6975803483773706, -0.44547579421810646, 0.4604879096037417, 0.29280147383561994, -0.790168385025416, -1.2559868960289453, -1.943578094236602, -0.7767873539723696, 0.4594238039429835, -0.5155336034494002, -0.37844287051143694, 0.8318744030697859, 0.14143614619168698, 0.9867170881557563, -0.11901519330729182, 2.3943878913295116, -0.4489169055547047, 1.131582736676985, -0.22349012843519214, -0.6094930152844056, -0.18844752883307528, 0.6720112917645287, 0.9258332548495642, 0.5505045884622468, -0.6366177422630612, -1.241154889921577, 0.2864694389154962, 1.5002944799673534, -0.7951000410177028, -1.2314130606207665, -0.2462121994655444, -0.7125605248873882, 1.0765836511433005, -0.8912976362483325, -0.2562549237565633, 1.3810644001169459, -0.021648773176606673, 1.3118118216265184, 1.369123263816623, 0.7888359023699248, -0.6995204633644871, -1.3721290168931661, -0.7936514305656786, 1.222722887978419, -0.8904699685527848, -1.1566764798624591, 0.390118054398676, -0.9437517426306268, -0.08921683132287667, 1.2643920625884488, 0.5722714868287078, -0.20710635114584527, -1.9095205580569508, -0.25155982846359465, -1.1030014258120375, 1.3063270314057813, -1.5811449581365828, -0.060098423129241546, -1.6267261587488258, 0.45491075333861664, -0.44743437642536826, 1.672414110118419, 1.38557425929916, -0.19119267467515877, -0.2067823293299133, -0.3199463289544298, 1.2118982696258356, 1.141320999123992, 0.907013751397851, -1.3407793472484686, -0.09008200816700525, -0.3379818203634448, -1.601273108658083, 0.5263328240888734, -0.015247629895318006, -0.6731889732101517, 0.21302904830638633, -1.5048440406782724, -0.10404700256072899, -0.743988869037623, -0.9552632537365415, -0.03906797019914424, -1.0404193399067154, 0.5190166914995129, 1.9807798845681832, -0.8045873358906315, -0.2203548039857075, 0.7761993795762647, 0.5792187987447708, -1.1759292986608532, 0.045776313619456103, -1.463297380352598, -1.3559278013726852, -0.9408432302897685, 1.0476546009276309, 0.016284654726762226, -1.6105668777344164, 0.42236595969319074, 0.26514053973772916, -0.3051683907740345, 1.1183022768912978, 0.3708287019798031, 0.05207241729408019, 1.212319066087933, -1.2826382758243184, 1.4917806210616618, -1.1143673606369524, 1.216201430499175, -0.4701871260979578, -0.16644317729245042, 0.3080977842590119, -0.18732566637243261, 1.3987820607866965, -0.7010015373899057, 0.5446484988126354, -0.37907593145607144, 0.3383373725146906, -0.4482426753774503, 0.9255225070131939, -2.127444733393939, -1.39717683295829, -0.8394116851245698, -0.016260620032515237, -0.12232407867785941, 0.3561555453911563, -0.3762008722730962, -0.3158136608286025, 1.6277424275743584, -1.0017839934807544, -1.324136316187157, -2.917364115338037, -0.9299077609635256, 0.4998440189363312, 0.01665302245526137, -0.6417132538214706, -1.6637635478296475, -0.23183959913131819, 0.5323647788711783, 0.4271447637219397, 0.5847523857771452, -0.9546568669713948, -1.7272186268242244, -0.592509874816087, -2.8090179929106096, -1.410537318890988, 1.213437896807091, -1.5426737782759474, -0.22301566079759375, -1.1974713986256815, 0.07822706947444742, -0.7138240712391347, 0.3391015695308979, -1.1805867621706672, -1.0923103603931603, -1.3867919097958712, 0.593750941393136, -0.5271121450332616, 0.6131209318457097, 0.12313150452479815, 0.5284315655419352, -1.1847459851847688, -1.6314158742457519, -0.7120736593952907, -0.052237710069781534, -0.39956627443080095, -0.42643463774221235, -1.3356507352176918, -0.02195142197719993, -0.11662283045210217, -0.2306588877345366, -1.2103979515829248, 1.2081972187775092, 1.7996500581690922, -1.9792448613624263, -0.5992032673327846, -0.5019694672332481, 1.602185143011989, -2.1281611240345155, -1.0493579631377379, -0.6410417460848326, -0.3796058328655003, 0.3260049826084503, 0.5761158333462255, -0.7054742935675057, 0.6816134140501688, 0.11616380786020822, -0.7559342148916458, 0.006380948901889241, 1.2057925521912611, -0.15813776232985055, 0.28088369563249554, 0.44622249889044685, -0.4663352122542127, -0.4459028900580774, -0.2609737254581216, -0.6152435947445493, 0.032217431741122037, -0.13508892914107634, 0.6867709210155885, 1.6809045005775776, 0.036235648079211306, 1.4441544976049174, 0.2891508941581417, -0.5277639026858514, 1.0052212605513657, -0.027462007636466616, -0.8550514072639119, 0.7675966930916047, -0.0725864959790933, -0.7187716921780993, 0.8513525652026908, 0.343551819468155, -0.8973724982774178, -0.803417346302209, -0.46561114497589184, -0.25233642486996205, -0.20726033742373765, -1.0906725976047311, 1.6680759795110227, -0.03904876102608011, 0.9906878905818022, 0.4704282054786049, -0.4710830541033058, -0.47502891973564876, -1.3837393962333693, -0.22992245347707654, -0.598234508780919, 1.2180674364302213, 1.3257761396527517, 1.416724314054657, -0.3432021989648902, -2.754319347036519, -0.228012957341123, 0.5620480375898783, 1.5084533371107975, 1.7006116313893496, 0.9700647114695197, 0.4340907582375717, -0.22772398178154615, -0.04250552371584171, -0.9141854606569118, -1.383850452661456, -0.20422198207667847, -0.7262554002165399, -0.5957196339915347, -2.3411071772930585, -0.6857862910456739, -0.5512709206483443, -2.8070549493867887, 2.386819213348695, 1.3096091051083498, -1.6246024622504298, 0.7219901288168558, 1.2082848587852357, -0.19376946851023288, 0.1085423946071754, -1.2878685217754768, 1.2024762325299887, 0.009973616038460914, 0.6743046558453265, 1.288265976430427, -0.6433507638287218, -0.450960089317831, 1.3298667313360875, 0.782194073268237, 0.15377509227268502, -0.7664136393893847, 0.7944067541100093, 0.9124470310098154, -0.8865900853994532, 0.4365133418991037, -0.5633778449010218, 0.319517689207785, 0.6605037045062238, 0.642945132964822, -0.6205011536385578, 1.124069721274516, -1.3080204084182292, 1.7580131986362713, 0.04679642377462713, -1.12632777448832, -1.2801213499639046, 1.2205855034112658, -0.14457181617753648, 1.5613168266874908, 1.6604040159209128, 1.212811812304134, -0.24978092771684823, 0.32451880006895206, 0.04167412312590993, 0.2602539271296656, 0.05077750441499071, -0.7118668880262145, 0.024989247540926268, -0.46107153858342015, -1.6066103452246527, -0.28133656738515406, -0.3592193644734086, 1.2515894697725707, 0.24588891161725104, 0.7486492397416115, 1.5909288055679385, -0.29346331253111224, 1.432514365678881, -1.8651572636220664, -0.17636884699744076, -1.680439331115668, 0.8668778925772178, 0.18667036130017467, 0.25425051598266984, 0.3572846633126926, -0.4154257825238411, -0.34214632665240874, 0.8814218940657382, -1.578417523238171, 0.015553992477951143, -0.3427268181902042, -0.5116144638556874, -0.6558255787432264, -0.1358897604308008, 1.5796686134018272, -1.065549254768034, -0.6262322690675696, -0.8604860382417936, 1.5445075514253748, -0.5501991429188213, 0.5324326832695349, -0.40703164290260097, 1.406851069858731, -0.9864755386616654, -1.2222179503272292, -0.8467561989434526, 0.503321854026777, 0.7420336610274546, -1.1634508219497288, 0.8059686162769221, 1.8017977073669145, 0.88127571211735, -0.9154199143998548, 0.01918738361788025, 0.44801466188850664, -0.09586595928800418, 1.4521406547979363, -0.8608663638002265, -1.8438499713305596, 0.14092538303568306, -0.8759741272304944, -0.7015369446356519, 0.7913538519766616, 0.5799259063273432, -0.8954823352232091, -1.7788105384222477, -0.3067286607640419, 1.6832987476362848, -0.6054945619497353, 0.7302560931865677, 0.045481356867357325, -0.6724022647163733, -0.42622678608313286, 1.3651723429902047, 2.514891034640032, -0.06035889176120373, 0.011932202874333568, 1.6991528985884716, -0.5353652030060838, 0.6290636314410494, -0.08859073201760033, 0.5217321376705963, -1.145721458902644, -0.19666552152358668, -0.6450119808211683, 0.4083536315349175, -0.04890588052400981, -0.1644212098012707, 1.24111898443402, 1.374476111195365, 0.8129638550096463, 0.333991065380013, -0.4497597872735108, -1.1314013074284346, -0.1683117435601622, -1.0727079213291857, -0.9546312555307748, -1.9915687700348885, -0.20598653573979706, -0.1337011308280095, 1.0825178458806346, -0.4527530696009011, -0.1402983025802129, 0.9519614498576676, 1.4605550281970954, -1.1330295769444039, -0.290416350916525, 0.2837789945060706, -0.6400846703146003, -0.4183670721375251, -0.931065358706976, 0.2898823887859801, -0.7599325184017744, 0.738253045406477, 0.3017908608090732, -0.6321617632870485, -0.35740732222885957, 1.8763394926019517, -0.14048182390645655, 0.4705699751324495, -1.1970142353827828, 0.6249667461031482, 1.2502981694437403, -0.7884672327194509, -0.25363685104723954, -1.6211261559789159, 1.004211967205143, 0.8243604010938298, 0.15005262608665484, 0.038345209095732365, 0.5454138714796934, 0.06546679438638936, 1.7842758138773234, 0.31069838491651675, -0.9505009433925107, -0.26207053292949156, 0.3051162362739117, -0.7867406290163874, 1.626327035689467, 0.8353966636871949, -0.09979826624878674, 0.7011697569679125, -0.395411036318822, 0.0436619544196931, 0.20717516241421866, -0.059113921923267185, -0.47868782430509593, -0.9599863139940733, 0.43251737731811957, -0.7557071222871505, -0.8936260810199536, 0.6973279125390828, -0.3453288386130765, 0.3351498609294367, 0.8064337685203329, 0.6426013636797823, -0.796458150674964, -0.7983427363309479, 0.7275332688118963, 1.476789722500685, 0.0845985189972401, 0.33587254438558495, -1.4678768033829388, 0.6899136709371887, -1.6085676585808195, -0.8909801511213101, 0.5499709065295337, -2.0803899929609613, -0.9379312352808752, -0.32845266069374346, -1.4598525169828755, -0.4208461812919083, 1.120839693212406, -1.096963036845337, -1.6134235348912556, 0.20301096867702131, -1.4357299879159195, 1.6298217855699506, -1.2800535275306795, 0.9088595128033685, -0.6325863571258851, -0.12729092640592485, 0.9610021352707221, -0.03726815117103376, -0.4252458582936849, -0.644152028837435, 2.015266707225815, 0.9028226742853954, 1.8632229603463362, 2.19061250270999, -0.5814175750655665, 0.6418322523503361, -1.5007066350355824, 0.8868785657721717, -2.03287014845303, -0.6668877863853934, -0.2713043881566795, -0.24954410474862626, 1.3264200905384496, 0.8553764477977194, -1.0621072595714787, -0.8556354981954069, -0.34902195047960866, -0.012929509636796677, -0.07750840620903204, -0.056936546457245454, 0.3533045646266415, 0.6554840567211496, 0.5129512295660466, -1.3618768384771474, -1.3252943695292292, 0.7896072940227309, -1.8553010357108008, -2.8093034975273916, -0.7680881174319681, -2.5787863116347713, -0.6510564192460457, 0.6370273766495494, -0.9071641899736126, 1.06181614147594, -1.1136362126576294, 0.7813591951606143, -0.6639316000342884, 0.3093759912928338, -0.21580708680315713, 0.9750704941458661, 0.6691394871713452, -0.35700178187352044, 0.4319263487710758, 0.3999156172884813, -0.8896214421418861, 0.8973112558969526, 0.18002756410452161, 0.01659537376037866, 0.11374296488780694, -0.47131327765646974, 0.7618231283386643, 0.23637972582077665, -1.4085499933352397, -0.14518388578530478, 1.2658665421941913, -0.3705721895699993, 0.5804319050856354, -0.48370234652683497, 1.4065361291963938, 0.7124265304663072, 0.27533452146230714, -1.7975539152272002, -0.8258537431694631, 0.8588969705636647, 0.6879788948382023, 0.612823163725033, -1.6571056571914193, 0.9720820422390669, -0.5828601503458443, -1.1242394552844779, -0.20357065617169529, -0.2386030056453587, -0.36929290724757374, -0.9812644519513368, 0.1355799957985605, -0.275058239190967, -0.7924568544127004, 0.8315670327326848, 1.4195157096793942, 0.20698038446085124, -0.5228806416938184, -0.0940398426815294, 1.9672620308679836, 1.1566247734547317, 0.6835406696307507, -0.9177152519790672, -1.3297738386736173, -1.3950231542512, 0.27209862094473386, 0.47851016572528043, -1.2485994839762837, -0.45733399159549415, -0.9813793717792272, -0.17560603072751035, 0.9138149314308948, -0.9889710271589263, 1.295768400202537, -1.2323349489182205, -0.09468876468515672, -0.3180380570625862, -1.5044594582181978, -0.06227914844508835, 0.8431213689490464, -0.5987797224618463, 0.4352476096153373, -0.5131163849491212, 1.014640522015107, -0.2460124937657448, -0.5215494155183205, 0.8539955937680124, 0.280924343841238, 0.9481872661911165, -0.4092828240409197, -0.08359037665631355, -0.22092282057443913, -1.8535551592128297, -0.9045266100875148, -2.2861621799209897, -0.19024433145102906, -0.2603424608070708, -1.8028944170385024, 1.1010169455264172, 0.5989986744076953, -1.297176369855392, -0.5049940726374514, 0.4929117799724027, -1.2447986106550795, -0.1792636610718855, 0.17736857343096485, -0.5329497419576503, -0.2329062293828625, -0.34268934425025965, -1.7569438051068158, -0.5649512784132293, -1.4760146223485446, 0.22238880064137437, 0.1071924185731934, 0.2600103829269141, -0.08858795930740397, 0.7463301403836242, 1.4702842931323328, 0.7524325942925683, -0.14626992132885694, 2.2035058235127485, -0.21932997268907192, -0.4072427681668254, 0.10239401230658667, 2.0352776703002675, -0.38394704698687115, 0.6318771325384516, 0.9133115121520687, 0.8745433160967646, -0.022472142485310313, 1.5397001873245642, -0.2907759977088584, 0.6723866839128038, 1.1006337664944084, -0.985732429025884, 2.516125390735232, -0.730930197283869, -0.2513815987522689, -1.1374817121818872, 0.16417950231379855, 1.105671170197495, -0.6584132026198593, 1.2390413379503693, -1.7976768282057454, -0.43790752331935884, -0.14659092888274317, -0.10751727296644784, 0.8852747395654915, -1.0519900418908825, -1.0820489659887282, 0.38648579700530383, 0.3821509724172905, 1.0256726677054158, 0.041924009967084265, -1.5911277640278483, 1.4223780905370804, 0.043468437579136474, 0.6414246536213625, -2.6296295767583233, -0.7335959425678232, 0.29869651091342814, -1.2077452185489586, -0.43635170242098725, 0.28104596062493287, 1.097645015965115, -0.24577055100635534, 1.3698399751578936, -0.572773348851721, -0.3657093562786682, 0.44963457957663727, 0.11349972678489709, 0.7418244554459914, -0.31112516377939053, 0.37050509654746894, -2.1440918980820185, -0.4398632769458647, 0.55324118375636, 0.5822541127300529, -0.692396832237777, -0.7643773462991571, -0.21739128901477367, 0.6860720812475741, -0.4198746288621751, 1.4653975162753357, 1.0456171684760847, -0.054538396529675334, -0.1467455465153677, -1.0379939863302978, -1.2308024034832497, -0.03547986872116219, -0.05239262174995305, 0.3005113876229707, -1.3468101394468857, -0.7538047582742934, -0.7478987313326839, 0.7822723649770759, 1.4301534765199844, -0.6923742234689625, -0.9475472634486534, 0.18747178901887754, -0.1539579816554803, -0.5093295775278956, -0.2326303147588536, 0.45539768924322604], [-0.7109457287266375, -0.9393058353669794, 1.5467280070353453, 1.0746228934845947, -0.4843672021448098, -0.9331385245306587, 0.3895131969888734, 0.029274413544142584, 1.4700607493213749, -1.5123729029480797, -2.5104697292929545, 0.567240475661387, -0.008984166902810089, 0.03620280719012246, 0.4525289255380012, -0.2800284004242922, 0.2992493212791492, -0.782140872265578, -1.530235979227316, 0.4141681414027361, 1.1770418623071934, -0.343028695941382, -1.127749720535267, 1.71082116116377, -1.212065075078369, -1.2417881860494153, -0.11579974908649283, 1.6752702723397148, -0.2069773463320089, -0.5040640009959824, 0.33430986990065503, 1.9945589948382971, -1.9658167256786598, -0.3125302940716756, -0.2000183711157225, 1.1978427132015628, 0.5612838899593842, 0.8668139851500534, 0.9106421557370736, 0.09641115257094275, 0.8561321706658043, -0.7890703098853068, 0.27178490856148935, -0.5015954201275604, -0.03632118744768753, -0.36126352420396, -2.170495678711965, -0.6950132303963967, 0.1913652008406172, 0.7230112378452397, 1.6808392113637207, -1.3368585034093192, 0.15570003459257717, -0.7995830157248784, -0.8832673533224316, -0.5548089866563765, 2.2174955895211386, -0.4728254832070632, -1.4308160468483555, -0.9468634579183168, -2.170706159364054, 0.6977572319210057, 0.5740248819743706, -0.16806044779776663, 1.0753025409887629, 0.023896910572491922, -0.17413258812889076, 1.90730574206634, 1.017529224124109, 0.31932425527132435, 0.18751723864235945, -0.12555640605543106, -0.6350142378337328, 0.7588453256956643, -0.10126354236063403, 0.08817623017725958, -0.7852171102307443, -1.530366335458764, -1.2342397612696123, 0.3373512148380824, -1.7369318086078993, 0.03405934771153635, -0.8660692922544337, 0.44594560245514364, 0.6986429887173276, 0.6154233171890695, 1.4203555823108212, 0.03353706714379098, 0.7166871654462605, 1.4376584499142966, -0.3225366434946816, -0.897992186598354, -0.29515127601133223, 0.25406453514522137, 3.060780480433081, 1.4994262626488528, 0.7296325442209175, -0.0734780468982884, -1.2390166600802308, -0.7481011131863843, 0.43257941090324564, 0.5949978102878811, 0.33152049411698215, 0.08372255952675572, -1.6117925539632831, 0.6549015716463433, -0.3782258602747019, 0.40426087318283827, 0.4311209188802101, 0.2687601835798841, -0.13743443865122687, -0.6846358973441401, 1.0940079034898338, -0.8126667821194841, -0.4976754501051989, -0.6293716929640372, -0.2090173499840034, 0.5003036262201215, -0.49940521501802465, 1.723727363993408, -0.631494524533705, 0.17698182322635098, -0.3319643170780607, -2.4868693631313965, -0.6150717382048313, 1.4159674839024556, 0.48154863842331824, -1.1977982687832027, -0.7765998640798035, 0.13572686833513556, 0.006283572825927044, -0.18678219023483358, -0.7117280023284153, 0.5166781026133113, -0.23743903833611324, -0.4808090420934654, 0.34907407643050886, 1.7056756641875086, -0.5225686328447161, -0.7285050811332106, -0.20773582839316881, -0.599395910252001, -0.02637568531618709, -0.614758302409615, 2.743100442988136, 0.7432933242481532, 0.3518007436813737, -1.4637751010155513, 0.3095244042980473, 1.4460693512661573, 1.5300802896583015, 0.24449635843951698, 1.0900935619276872, -0.36343095856584245, 0.4467045801842912, 0.288210873901708, -0.26561310871439986, 0.5386161485618477, -1.5445540942738545, -0.17999384672859464, 1.237489945721616, 0.672944973956827, 0.4717076234753975, -0.262730876902309, -0.6906905118485159, 1.51995677350807, -0.5310194782576525, 0.18636276822580733, 0.6370618363998751, -0.9082162192326615, 0.28852847290014993, 1.5285968606203788, 0.41258248839211964, 0.2895513757513197, -1.0328704399039732, 0.4366387067217856, -0.13054540772792492, 0.22949663557582858, 0.8935241251777217, 0.3159058028863114, 0.18379867846077635, -0.02698953202781398, -1.5732343282433874, -1.3115111716136112, 0.11376133031481225, -1.7252938143360599, 0.15881882993641555, 1.3463571726104544, -1.1505290416337233, -0.5789714742423469, -0.16051294194964857, -1.0463722558019033, -0.2084044700569527, 1.4492405741096432, 1.4832670956183702, 0.538286169315469, -1.154915023631618, -1.2897027564774244, -2.136883297550054, -0.35009309903375163, -0.012179248530731702, 0.43489854159141533, -0.5430754527782418, -0.5898117521383428, -0.3111570868166572, 0.36833431289692375, -1.3969727401548273, 1.8916199456348242, 0.26428947432286637, 0.34273351017073145, 2.4920728122254125, 0.8585162588177948, -0.6096079779357401, 0.42944485682507383, -0.9945515593671671, -0.41934395090256404, 0.48359177175255186, 0.7962454894297365, -0.42726359898528704, 0.5352860448653306, 0.3419716470389299, -0.22172170713516856, 0.41908673267963864, 0.2839671338194317, -0.9915799687704853, 1.9297931244729154, -0.016859580358843596, -0.6310242987567747, 0.201286101434804, -0.2634366432271889, -0.3891186429354918, -1.7400435925410822, 0.4932702013516394, 1.018305213069282, -0.21011274115153783, 1.685063467469578, -0.5809094256407408, 0.24476496076153362, -0.5517146167297055, 1.6745577200148745, 0.4204979925561633, -0.020130117849849805, 2.8475647878138597, 2.1609631325266316, 0.29348217104437185, -0.8684956313284486, 0.26627335922073886, -1.781712144180894, 1.0083140877945318, 0.07821914030334112, -1.088922843003945, 0.18767878665509555, -0.6927990933027908, 1.2262694096187707, -0.46045041437264894, -0.05605897560150958, 0.03078476724920305, -1.0610391209762888, -0.7530560507170635, -0.5388596285394478, -0.291961292057087, 2.533662944652614, -1.8260918517756402, 1.23040891247148, -0.889050303270646, 0.4135741625101219, -1.2864686180338751, 0.19686116118516112, 0.18965923019440467, -0.6058723283424724, -0.2950591443836379, -0.3432288993300872, 0.4478313227878301, 1.2921017517794018, -0.8091916654287088, 0.9198041727286931, 0.3294372423042572, 0.5871693806335808, 0.3835779644965923, 0.6905479282947541, -1.0642799320310956, 0.5849871111123475, -0.006620532108522134, 0.23875665291802817, -0.06679279517565459, -0.8276053828828813, -1.5896444757767725, 0.19244199186233393, -0.5110844161778362, 0.7089898289917784, 0.13759571690282807, 0.4697793818763853, 0.02486551498718924, -0.6002092819400819, -1.1400210834619886, -1.2058326595295898, -0.20979364905316977, -1.7504060208681813, 1.2257927231192571, 0.35404488154020314, -0.5201623091051196, -0.5060484163912192, 0.8062393939600907, 0.4016085960827448, 0.29334470177601246, 0.19360640808229318, 0.47322799472040233, -0.9478289915905783, -1.1313930672931094, -0.9376788111573893, 0.4491992732465437, -1.0824332040977993, 0.2197221673990823, 0.05274469458468079, 0.425916249025394, -0.5460502000072278, 0.5491989766592035, -0.37124361901624486, -1.3701587716525931, -0.08054765073538445, -0.9653195979088489, 1.2548861753290246, -1.2015326400466704, 2.0261116185694497, 1.567494263809254, 1.194275582275905, 0.006975922372663813, -0.5172398293954472, -0.7641968976236578, -0.42652047154640643, 1.3055775401343295, 1.1115960050906872, 0.1785483763921987, -0.4091069870034508, 0.47178966991662663, -0.23429334151172487, -0.9073576138093604, 0.7702778494090504, -2.641167429888608, 0.9621037448895116, 0.718035836864925, -0.7729773338482009, -0.48784772702289614, 1.0604791461896501, -0.8658647964177971, -1.3124396191195116, 0.6339488481967943, 0.4186724655515354, -1.5405642655901493, 0.7398367384462847, -0.9966804335480275, -2.456748151390829, 1.2820116582069498, 1.6071027698376, -1.301049771922014, -0.11738579245376553, -0.82798908459724, 0.43362599974175725, -0.35666865910240153, -0.26812500522840205, -0.9465677984190392, -0.602235958730083, 0.5693633287563412, -2.2588353744118064, 0.5152443305376065, -0.4468467987005071, 2.45654623136416, -0.5499278322801265, -1.2049632760886204, -0.9034707617571902, -0.8116902286680153, -0.06250157251738672, -1.4376510322394038, 0.31358039914031755, 1.6656373760113001, -0.5710783725431359, -0.16455492852940568, -0.10952488337407983, 0.5520660386672168, 1.3477530296850089, 0.68748090380055, 2.0678498664935994, -0.906378082361527, 0.5140875514700975, -1.3507155310693344, 2.0904221709808564, 0.48300767652357135, -0.24767371025934917, 0.020610753181178783, 0.8502263001191709, 1.2372418897315034, 1.2794444590925396, 1.435299468242128, 0.2640204483134998, 2.25350936600875, 0.6097089803310154, -0.8149763129965166, 0.14839382047426844, 1.1095696115527076, -0.31664103981477904, 0.7566166077380632, 0.20130961833618474, 1.2344405543788166, -0.5737561190115643, -0.29437046997889627, 0.5206755086300178, 2.3266490400772737, -0.5497117232568991, -1.4186918285877184, -1.058559762727349, -0.49193307035649375, 1.5115162678441805, 0.6617569068813829, -0.4282518472208439, -1.8374579043010335, -0.31733982156284224, -0.8034464362431208, -0.5509697625275913, 0.39613527387294417, 1.1326292427930775, 1.3921359152443389, -0.8653154829014061, -0.5961465195620793, 0.3494323353728044, -0.4572991797712595, 0.4208874819273145, -0.5087704495860238, 0.15783698042474273, 2.2606776773933555, 1.41032409920368, 1.2470138818623002, -1.3187571634485684, -1.7243361165860198, -0.5979907484590892, 0.20104884853130137, -0.4918851037292639, 0.9299836070810431, 1.391467119974443, -0.5493197479005335, -0.013099228687834722, 0.582736885532063, -1.6225060308281143, -2.0110967732179743, 1.0167937981472057, 0.3673393107437148, -1.8521233050278398, 0.8572131708138622, 0.511052519867079, -0.7704369887312391, 0.5104650408581722, 1.866687617625685, -1.2498448340689896, -0.3643695109295965, 0.5849550038675089, -0.19233865000070846, 2.7373736945791305, 0.1531767057509238, 0.5911250256615957, -1.243412742735922, 0.8801398707870446, 1.6827029218504224, -1.5380753965777896, 0.21882291771017412, 1.0445635887742395, 0.267953530698426, -0.058776749176403395, -0.7811919284682013, -0.7675345170633647, 0.542933617610167, 0.09532333569328641, 0.9246982485500077, 0.7651289397682263, 0.9345386258210789, 0.955095630243235, -0.23402491819505, -0.2041629182683235, -1.9123749135169148, 0.9958342557782581, 2.565631276062187, 0.5712930863127309, -0.7223074714202959, 0.07804058803697811, -0.2473857284457049, 1.0740104534175714, -0.0748543681644918, 2.514624339665279, 0.7019650971980751, -0.05818722187993421, -0.03717951899877356, 1.1271173576504838, 0.07885167774614522, -0.5415540696731025, -0.11011412487721599, -0.4187991417830994, 0.8221489611299607, 0.2543660032187522, 0.6608361701959639, -0.48900583412965515, 0.4142261739566576, 1.5978335598852744, -0.10399600321729303, -0.43919190653286194, 0.018739014903474252, -1.061276543801478, 0.39723878032643306, 0.6418208546907723, -0.13569216900309697, -0.8339485213039395, -1.0467983901771691, -0.4274293026294716, 1.1568343351511827, 0.013601901507027416, 0.8504335499828015, -1.1150091076255582, -0.26174246461437967, 0.7589359248224848, -0.7101030258183615, -0.9543877377436814, 1.4450407694742156, -2.4727320635083254, 0.9451743861183394, -0.7862788469946116, 0.7681233431660105, 0.17839993533721699, -1.316847803472986, -0.8426867074331461, 0.12536507137125677, 0.11963226116196872, 0.1536166243895552, 0.08282822345476748, 1.1142251973542117, -1.000718481981125, 0.5190324898281024, 0.09053193739159744, 2.0640151149889894, 2.0480698979057634, -0.7723611248551849, -0.30743920273405073, 0.6448286900844504, -1.2484801227564188, -0.7100243578191247, 0.8457814200615512, 0.8705582771075489, -0.8974840673056, -0.9115391923553108, 0.21403519699148113, 2.2764051658418993, -1.1919303287941214, -1.1033996245648103, 0.1800670757318762, 1.092173246999911, 0.46449766385546415, -0.8550182719119083, 1.2140163142780347, -1.4438975104515366, 1.504536140170929, -1.0336138181081174, -2.533355051677472, 0.19835452712398396, -0.26539630706938633, 0.8302283974320027, 0.060077926230279376, -1.9071575560517429, 1.8424979923771885, 0.34784325564228447, 1.1475433969769917, -0.7102985719716663, 2.0119022796597426, 1.3546632321580574, 2.661450611658481, -0.46780832701001446, 0.34855432472745623, -0.29570060430945666, -0.29834124963267794, -0.6703876415126963, -0.4821047394312222, -1.0759148366147575, -0.6699681319450285, -0.35830980911257776, 1.1623870024548442, -0.5300195877562808, 0.9356034610932948, 0.1705821276198696, -1.0677949005796599, 0.14612646773590707, 2.6658976824629455, -1.0536851497266067, 1.981173984688989, 0.8465841835771957, -0.7732080997610881, -0.4539494063284423, -0.49934315659045664, -0.6631926740508818, -1.6270909720952098, 0.642531968641128, 1.3649261450605417, 0.942493956528252, 1.1363412294668425, 0.4469909892918258, -0.7206917793535919, 0.9396846118644098, -1.720613134312236, 1.1240707790666737, 0.7323173175759661, 1.0525274637640818, -1.3902984203832611, 0.5629867129479239, -0.3701538758971307, 0.5157872237569819, 0.20969728623533423, -0.6343029607864472, 1.300105530984106, 1.316426714395302, -0.6932970941264498, -0.19617064037377965, 0.7241036499243121, -0.237057429814552, 0.8905628772808766, -0.6823053687919761, 0.20854559177415324, -0.6975634567385878, 0.9828484369993322, 0.08323767483534326, -0.3422950535328277, -0.38078971155586955, 1.607545251881496, -1.143466520522208, 2.3920563356507367, 0.4337081963380887, 1.5209808824315016, 1.0844330090275915, -0.9491205297986374, 0.40928123729079907, -1.2043535705856339, -0.6963677210147325, 0.15567807471889164, -0.16250416828445605, 0.5029873846754005, 1.011566995981212, -0.23380005398750883, 0.6332660890398221, -0.569197157827875, 1.6913429682809775, 0.13426841459104777, 0.6794417501544738, -0.7240048135381753, 0.3632230659680892, 1.2555634104286981, -1.2970839120734916, 0.17772434366053097, 0.4192654759942859, 0.5442462124145483, 0.24234301509581588, 1.9922133393090928, 0.924953871440519, -1.2301341961028027, 0.3809801509837534, 0.44580837338953844, 1.07083054238511, -1.0201160567139613, 0.8122143897389624, -0.4871093523828859, 2.780864459729097, -0.012817516990343739, 0.3194920539603988, -1.1194882666269454, -0.7521483669606311, -0.11122412945121489, 0.5063608877520974, 0.5492276838983615, -1.3511449840827954, -0.8677733617209615, 1.3765367326770046, -0.9248575639999551, -0.34911431362096307, -0.03193376425425039, -0.578758989716068, 1.488832810428513, -0.5443799593477315, 1.4119354845641392, -0.36698434141374986, 1.9721351126192659, 0.4377026999882326, -0.945911125269327, 1.065901812638743, 1.3602737298365717, 0.8396247613184415, -0.40894710330884176, 2.0267701412999406, 0.6390519259208963, -0.5204016723157505, -0.5535375145901075, 0.9711085582113004, 0.29322933254994726, 0.26967366728011877, 0.03199854313393102, 2.0001643932022737, -2.3787185482692266, 0.7562162168069472, -1.184399407971462, 1.3423121162396325, 0.03826484274662255, -0.739004610894106, -0.4840501866757794, -2.7980379935166217, 1.518838628842301, -0.18316078425476734, 1.0679377282735671, 0.0763384805841676, -0.26915798922263634, -0.9859436194699941, -1.7483715583431758, 0.6753758797793485, -0.22604126794304386, 0.4355830470057461, -0.5886694752053218, -1.2639911177360428, -0.14843960100643294, -0.3851092964321149, -0.6822780123555049, -1.2676173716819488, 2.2494264845293395, 0.8244281238246377, -0.08434455373395963, 2.765776728676225, -1.1975944017045763, -1.0212418174665026, -1.068703993888671, 0.9260625296383136, -1.8306874637184412, -1.2565319324745166, -0.8312045127329999, -0.6608954690215322, 2.06703534079769, -0.7709330109021906, -0.3429750912145896, -0.421619081506739, 0.7022684628990674, 0.5997314475439025, 0.07474457594584047, 1.6880289762090446, 0.7995410772724597, -0.3844355437470728, 0.06289232247200147, 0.15859721556984643, -0.22246106708846541, 0.3434340568644615, 0.9223137756853476, -0.46713295080113887, 0.8783043886363082, 0.3048154805502987, 1.2804333461973814, 0.8255597434783108, 0.3061036812124611, -0.7244044908139032, -0.5896299831977289, -0.38832430058193623, -2.2725847412750317, -0.7127016986119883, 0.4005098090199491, 0.6193410462276633, -0.8302827909155875, -0.8733180276348625, -0.9146743646148653, -1.9381342390260314, -1.4414678398499667, -0.5468245203546948, 0.18257323475280857, 0.0964967895621222, 0.061092342946994, -0.6759874969322783, -1.251893571818425, 0.07931834458358449, 0.3084807193426469, 1.0495977862201011, -1.065495641355295, 1.7663004025095705, 0.44497536380838987, 0.7055971270096072, 1.094666539098171, -1.0400753812818913, 1.1455052754105586, 0.3354494178777192, 0.19930172649924674], [0.2892166456374869, -1.2270673977078963, -0.2750503527808739, 0.15945245882071682, 0.6963682665551246, 0.4981914327681198, -2.418024408275845, -0.6279429005781764, -1.5074997066344373, 0.8094970198367195, -0.22904712595553917, -0.2910604157938509, 1.181318514307075, 0.03335925463155669, -0.11356644627777063, -0.10507837267334873, 0.9247152676399234, -0.27172322322740156, -2.303117738300264, 1.282075014214854, -0.11282421588808045, 0.5627273832002103, -0.5731876684076596, -1.2978137647438504, -0.6306024376567219, 0.03366941963837035, -0.7073322506757076, -1.3094975844007406, -0.24201361568130644, 0.2946226429318513, 1.287706204229963, 0.6317511606091903, 0.8532819797642824, -0.056169228023041126, -0.5597807672940501, 1.606325401397023, 0.13837536438865686, -0.6850183313822984, 0.205180656867461, -0.9434006414990103, 1.7253480644042287, 0.05495193518043096, 1.744721189063293, 0.5967653198916977, -1.579710404266616, -1.2888401813366757, -0.9967052612893464, -0.16398072895354646, -1.1923168881144581, 2.0391195891646934, 2.4782628185689584, -0.12375537204006985, -0.34528078469920614, 2.292168499713902, -1.1704436994653347, -0.41168544745854196, -0.39529945565289587, -0.47619163970184564, -0.2846761446071406, 1.3677895761054546, 1.693107924752908, 1.2085419357800828, -1.1887889095676332, 0.8329286271079659, -1.2197421115546816, 0.1999543867283329, -1.3918656263600975, -0.3405084671211345, 0.1346709302999365, 1.3800179127916015, -0.9321958106024751, 0.9101099538796407, 0.17015213904219328, -2.3018084353378523, 1.110522537043453, -0.4696321594779277, 0.1661359562465058, -1.5180123167420416, -0.8864135752384323, -0.3370072648008618, 1.632771095707508, 0.25658721700744624, -0.7884097235505115, -0.9546779991288322, -0.07874767441845087, 1.4572102291930518, 1.415765674132649, -0.814616534987193, 0.6147698926654855, -0.19368995996109306, 2.66845871706039, 0.6145471880768874, -0.43412027622654514, 0.4115201904279112, 0.014376671302358484, -0.8779335152830813, 0.3659274624943092, -0.020933899631325924, 0.4228320508593763, 0.9834317723439661, 0.5618862057156361, -1.758449114817802, -0.7261201874108358, -2.062825800466554, 0.9935173084583638, -0.4312158094370317, 0.8365484672827459, 0.002338462607075934, 0.42336979784920875, 0.35514583959635493, 0.39666544892279776, 1.0253807440231613, -0.9947249496319248, -0.005445107286116746, 0.08688728452895013, 1.7694343743667158, -0.05493222602780678, 0.21222503987616995, -0.009804398846606102, -1.1391932901972168, -0.23681534915264935, -1.8387928211615323, 1.7144466629012367, -0.8150118248399758, 0.7621541873295163, -0.15522803735805443, -0.19688533556607965, -0.5915059695361624, 0.43276716068736537, 0.749640668774179, 1.77176077513926, -1.5822055152008334, 0.6555779742195005, 0.9191492085262276, -2.3446274756094136, -0.37544076826073286, -1.415975412420075, 0.3237364185655574, -0.10451315511337292, 0.1295132772306747, 