[[-2.263965579688276, 1.2396077331479753, -1.8538402090302228, -1.2278828539483306, -0.07912027008483745, -0.8178633120904432, 0.6441305598379538, 0.7125267194667703, 0.22119961452658454, -0.7760882751367303, -0.4128263222503059, -1.377217489790366, -0.49270753983973237, -2.600822969854202E-4, 0.7773829920698523, 1.2126309061893155, -1.1906123395099208, 1.279536249208627, 0.989019030010816, 1.769817085516831, -0.4481544783717354, -0.7230054796169166, -0.6189322880203074, -0.521850000898062, -0.44788427600658637, -0.3964751760425324, 0.45010489622475314, 1.3678855406739054, 0.4603140445235777, -0.7166367497499342, -0.2388965550239645, 0.10721825859500246, -0.5890634628755704, -0.07253553890554258, -1.1826633121654537, -1.17568341403869, 1.7769676137563617, 0.6420646292726316, -2.735758275772346, -0.8927497379110242, 0.2074227515131195, -1.6547588954199872, 1.2664732487668897, -2.7361441269808955, -0.46676689325205856, -1.2258662213898415, 1.5005194565693023, -2.409804912180129, 0.8865316018681622, 0.9386614074607713], [-1.2546656545206167, -1.3127956185723086, -1.1773149568491004, -2.359069577358935, -1.334311133929952, -2.0941172258608476, -0.7066982689610037, -0.16892416718297312, -2.2231165351044195, -1.779627471480896]]
