[[-1.682596031096857, 1.156343052240484, 1.708107454780945, 0.8891538822673621, -1.7454780220182846, 1.072556507682561, 0.04868208721882529, -0.5816403434956535, 0.3832264244609291, 1.235703410245056, -0.13087398710620748, -1.4794667609017214, 0.6892465781980918, 0.9477418873422214, -0.18643623945216475, -1.644112505543711, 0.9301356326971171, -0.2571041695987521, -0.7652152712127613, -1.1944189231542401, 0.6677041021576946, -0.9985773427071201, -1.024454819038791, 1.4763160285367427, -1.4789926235310635, -1.7018124969725965, -0.1823765532603308, 0.45098181234086554, 0.3448635955460893, -0.08081832352320907, 0.44234883337542563, -1.04524846991884, 0.43691102669862014, 0.657560467513113, -0.016349014820514506, 0.46295449726095206, -0.6736151573042425, 0.8247498864917536, -1.3954219989627061, -1.6913801847947227, 2.0405432116982314, -1.179734451007574, -0.7832714222815258, 0.9669174008899536, 0.9589654705635366, -1.4242929816781733, -0.14439858216448728, 0.5810329612902224, 0.016229006955564545, -0.9320428393802382], [-3.925548084455031, -0.6448558063182811, -2.2809311752523005, -1.9220289791560108, -2.1566167724880625, -1.021001022388387, -1.8602344863130138, -2.324483234616299, -1.5687603376811918, -0.42554432404995024]]
